svm_type c_svc
kernel_type rbf
gamma 2
nr_class 2
total_sv 320
rho -2.3499
label 1 -1
probA -1.37242
probB 0.162118
nr_sv 148 172
SV
2048 1:0.042 2:0.012 3:0.047 4:0.019 5:0.021 6:0.026 7:0.026 8:0.033 9:0.047 10:0.042 11:0.073 12:0.033 13:0.009 14:0.026 15:0.049 16:0.042 17:0.1668 18:0.1545 19:0.1299 
2048 1:0.029 2:0.029 3:0.049 4:0.033 5:0.038 6:0.049 7:0.027 8:0.036 9:0.047 10:0.04 11:0.031 12:0.004 13:0.027 14:0.029 15:0.016 16:0.033 17:0.1855 18:0.1593 19:0.1403 
2048 1:0.029 2:0.022 3:0.026 4:0.02 5:0.026 6:0.053 7:0.04 8:0.044 9:0.033 10:0.055 11:0.055 12:0.02 13:0.009 14:0.031 15:0.042 16:0.024 17:0.1786 18:0.145 19:0.1471 
2048 1:0.019 2:0.026 3:0.035 4:0.007 5:0.021 6:0.077 7:0.056 8:0.035 9:0.042 10:0.074 11:0.065 12:0.019 13:0.005 14:0.012 15:0.042 16:0.012 17:0.1748 18:0.1323 19:0.1489 
2048 1:0.024 2:0.022 3:0.046 4:0.02 5:0.035 6:0.057 7:0.026 8:0.035 9:0.035 10:0.033 11:0.048 12:0.035 13:0.02 14:0.041 15:0.028 16:0.033 17:0.1805 18:0.1501 19:0.1345 
967.6156247558511 1:0.023 2:0.015 3:0.033 4:0.005 5:0.025 6:0.061 7:0.051 8:0.061 9:0.025 10:0.081 11:0.071 12:0.013 13:0.005 14:0.041 15:0.033 16:0.028 17:0.166 18:0.1357 19:0.1269 
2048 1:0.02 2:0.024 3:0.048 4:0.009 5:0.03 6:0.044 7:0.033 8:0.035 9:0.039 10:0.044 11:0.087 12:0.039 13:0.011 14:0.033 15:0.039 16:0.017 17:0.1772 18:0.1403 19:0.1321 
2048 1:0.04 2:0.024 3:0.04 4:0.022 5:0.033 6:0.046 7:0.024 8:0.037 9:0.037 10:0.035 11:0.04 12:0.031 13:0.018 14:0.035 15:0.037 16:0.022 17:0.18 18:0.1486 19:0.1507 
2048 1:0.051 2:0.027 3:0.034 4:0.021 5:0.042 6:0.051 7:0.023 8:0.044 9:0.021 10:0.04 11:0.03 12:0.023 13:0.017 14:0.042 15:0.03 16:0.027 17:0.18 18:0.1485 19:0.1489 
2048 1:0.026 2:0.021 3:0.049 4:0.019 5:0.056 6:0.026 7:0.006 8:0.028 9:0.028 10:0.038 11:0.086 12:0.034 13:0.009 14:0.028 15:0.045 16:0.032 17:0.171 18:0.1495 19:0.1491 
2048 1:0.042 2:0.023 3:0.04 4:0.019 5:0.033 6:0.073 7:0.027 8:0.027 9:0.029 10:0.042 11:0.046 12:0.027 13:0.019 14:0.023 15:0.031 16:0.029 17:0.1789 18:0.1607 19:0.1293 
2048 1:0.034 2:0.026 3:0.021 4:0.032 5:0.032 6:0.075 7:0.024 8:0.058 9:0.038 10:0.032 11:0.032 12:0.019 13:0.006 14:0.058 15:0.045 16:0.021 17:0.1734 18:0.144 19:0.1287 
2048 1:0.053 2:0.037 3:0.029 4:0.029 5:0.041 6:0.025 7:0.006 8:0.047 9:0.025 10:0.029 11:0.024 12:0.022 13:0.029 14:0.027 15:0.041 16:0.022 17:0.1976 18:0.1584 19:0.156 
2048 1:0.023 2:0.016 3:0.05 4:0.014 5:0.027 6:0.07 7:0.043 8:0.036 9:0.041 10:0.068 11:0.056 12:0.016 13:0.011 14:0.023 15:0.029 16:0.025 17:0.174 18:0.1332 19:0.1461 
2048 1:0.058 2:0.019 3:0.029 4:0.044 5:0.04 6:0.042 7:0.008 8:0.031 9:0.027 10:0.015 11:0.019 12:0.027 13:0.025 14:0.044 15:0.033 16:0.04 17:0.1891 18:0.1556 19:0.1553 
2048 1:0.031 2:0.015 3:0.029 4:0.029 5:0.027 6:0.023 7:0.002 8:0.048 9:0.025 10:0.035 11:0.017 12:0.039 13:0.021 14:0.029 15:0.069 16:0.06 17:0.1937 18:0.1547 19:0.1528 
2048 1:0.069 2:0.025 3:0.036 4:0.033 5:0.033 6:0.023 7:0.004 8:0.036 9:0.023 10:0.019 11:0.023 12:0.025 13:0.038 14:0.031 15:0.027 16:0.052 17:0.1928 18:0.1474 19:0.1625 
2048 1:0.04 2:0.036 3:0.031 4:0.029 5:0.038 6:0.038 7:0.027 8:0.031 9:0.04 10:0.036 11:0.042 12:0.016 13:0.018 14:0.024 15:0.033 16:0.031 17:0.1872 18:0.1533 19:0.1504 
2048 1:0.078 2:0.026 3:0.016 4:0.052 5:0.035 6:0.007 7:0.002 8:0.023 9:0.012 10:0.012 11:0.003 12:0.014 13:0.049 14:0.021 15:0.019 16:0.073 17:0.2129 18:0.1837 19:0.1605 
2048 1:0.073 2:0.023 3:0.036 4:0.018 5:0.032 6:0.018 7:0.014 8:0.023 9:0.034 10:0.027 11:0.098 12:0.039 13:0.011 14:0.018 15:0.05 16:0.032 17:0.1684 18:0.1402 19:0.1441 
2048 1:0.016 2:0.024 3:0.036 4:0.02 5:0.027 6:0.027 7:0.022 8:0.049 9:0.031 10:0.033 11:0.036 12:0.038 13:0.022 14:0.042 15:0.044 16:0.044 17:0.1909 18:0.1608 19:0.1366 
2048 1:0.014 2:0.019 3:0.037 4:0.019 5:0.051 6:0.079 7:0.009 8:0.049 9:0.014 10:0.042 11:0.042 12:0.037 13:0.007 14:0.051 15:0.047 16:0.021 17:0.1763 18:0.1482 19:0.1354 
2048 1:0.036 2:0.022 3:0.036 4:0.024 5:0.038 6:0.038 7:0.006 8:0.04 9:0.032 10:0.032 11:0.054 12:0.032 13:0.014 14:0.03 15:0.054 16:0.04 17:0.1763 18:0.1448 19:0.1514 
2048 1:0.032 2:0.032 3:0.032 4:0.011 5:0.038 6:0.06 7:0.047 8:0.032 9:0.03 10:0.051 11:0.058 12:0.026 13:0.004 14:0.034 15:0.03 16:0.03 17:0.1759 18:0.1352 19:0.1429 
2048 1:0.018 2:0.03 3:0.028 4:0.016 5:0.046 6:0.074 7:0.03 8:0.057 9:0.014 10:0.044 11:0.025 12:0.025 13:0.011 14:0.06 15:0.025 16:0.025 17:0.1746 18:0.1411 19:0.156 
2048 1:0.052 2:0.02 3:0.054 4:0.025 5:0.056 6:0.038 7:0 8:0.038 9:0.032 10:0.043 11:0.032 12:0.027 13:0.014 14:0.029 15:0.047 16:0.02 17:0.1846 18:0.1432 19:0.1448 
2048 1:0.021 2:0.023 3:0.027 4:0.025 5:0.029 6:0.066 7:0.037 8:0.031 9:0.033 10:0.054 11:0.039 12:0.025 13:0.014 14:0.019 15:0.048 16:0.017 17:0.1934 18:0.1613 19:0.1357 
2048 1:0.056 2:0.013 3:0.074 4:0.008 5:0.033 6:0.066 7:0.005 8:0.038 9:0.041 10:0.043 11:0.064 12:0.026 13:0.02 14:0.02 15:0.031 16:0.038 17:0.1517 18:0.1416 19:0.1288 
2048 1:0.023 2:0.025 3:0.044 4:0.006 5:0.023 6:0.046 7:0.023 8:0.048 9:0.029 10:0.046 11:0.062 12:0.037 13:0.021 14:0.025 15:0.046 16:0.033 17:0.1793 18:0.1481 19:0.1371 
2048 1:0.03 2:0.039 3:0.026 4:0.015 5:0.045 6:0.08 7:0.039 8:0.037 9:0.019 10:0.048 11:0.028 12:0.019 13:0.015 14:0.037 15:0.022 16:0.024 17:0.1895 18:0.1475 19:0.1388 
2048 1:0.055 2:0.016 3:0.031 4:0.048 5:0.033 6:0.022 7:0.004 8:0.027 9:0.024 10:0.022 11:0.011 12:0.024 13:0.038 14:0.027 15:0.033 16:0.051 17:0.2054 18:0.1618 19:0.1666 
2048 1:0.048 2:0.017 3:0.032 4:0.032 5:0.023 6:0.021 7:0.017 8:0.027 9:0.034 10:0.023 11:0.042 12:0.042 13:0.025 14:0.027 15:0.048 16:0.04 17:0.1966 18:0.1519 19:0.1532 
2048 1:0.036 2:0.029 3:0.038 4:0.015 5:0.035 6:0.029 7:0.042 8:0.029 9:0.033 10:0.056 11:0.063 12:0.025 13:0.013 14:0.021 15:0.035 16:0.013 17:0.1909 18:0.1412 19:0.1557 
2048 1:0.031 2:0.034 3:0.046 4:0.002 5:0.043 6:0.074 7:0.043 8:0.041 9:0.029 10:0.065 11:0.043 12:0.019 13:0.01 14:0.029 15:0.024 16:0.005 17:0.1737 18:0.1403 19:0.1491 
2048 1:0.021 2:0.032 3:0.03 4:0.014 5:0.035 6:0.049 7:0.037 8:0.039 9:0.028 10:0.044 11:0.049 12:0.032 13:0.014 14:0.037 15:0.035 16:0.023 17:0.184 18:0.1623 19:0.1355 
2048 1:0.028 2:0.044 3:0.02 4:0.02 5:0.026 6:0.098 7:0.024 8:0.055 9:0.031 10:0.013 11:0.024 12:0.015 13:0.026 14:0.046 15:0.017 16:0.059 17:0.1662 18:0.1474 19:0.1397 
2048 1:0.065 2:0.019 3:0.033 4:0.048 5:0.019 6:0.006 7:0 8:0.031 9:0.04 10:0.012 11:0.021 12:0.019 13:0.04 14:0.019 15:0.038 16:0.056 17:0.1969 18:0.1691 19:0.1667 
2048 1:0.028 2:0.026 3:0.03 4:0.051 5:0.026 6:0.008 7:0 8:0.024 9:0.036 10:0.008 11:0.023 12:0.024 13:0.045 14:0.017 15:0.038 16:0.069 17:0.214 18:0.1728 19:0.1611 
2048 1:0.015 2:0.027 3:0.042 4:0.022 5:0.053 6:0.064 7:0.013 8:0.053 9:0.029 10:0.042 11:0.04 12:0.024 13:0.009 14:0.051 15:0.04 16:0.015 17:0.1744 18:0.1391 19:0.1469 
2048 1:0.037 2:0.012 3:0.037 4:0.028 5:0.014 6:0.061 7:0.028 8:0.037 9:0.049 10:0.037 11:0.047 12:0.03 13:0.014 14:0.033 15:0.049 16:0.021 17:0.1737 18:0.1473 19:0.1441 
2048 1:0.062 2:0.031 3:0.042 4:0.026 5:0.024 6:0.013 7:0.007 8:0.046 9:0.037 10:0.02 11:0.015 12:0.026 13:0.037 14:0.026 15:0.033 16:0.051 17:0.1911 18:0.1577 19:0.1539 
2048 1:0.032 2:0.02 3:0.043 4:0.025 5:0.041 6:0.036 7:0.032 8:0.03 9:0.03 10:0.034 11:0.039 12:0.032 13:0.018 14:0.045 15:0.02 16:0.034 17:0.1847 18:0.1625 19:0.1409 
2048 1:0.047 2:0.018 3:0.033 4:0.024 5:0.026 6:0.024 7:0.006 8:0.051 9:0.02 10:0.033 11:0.029 12:0.033 13:0.029 14:0.033 15:0.047 16:0.045 17:0.1896 18:0.161 19:0.1504 
2048 1:0.064 2:0.039 3:0.036 4:0.043 5:0.056 6:0.028 7:0.002 8:0.03 9:0.034 10:0.011 11:0.028 12:0.015 13:0.026 14:0.039 15:0.024 16:0.032 17:0.19 18:0.1429 19:0.162 
2048 1:0.047 2:0.033 3:0.031 4:0.031 5:0.035 6:0.014 7:0.006 8:0.051 9:0.031 10:0.029 11:0.033 12:0.02 13:0.029 14:0.031 15:0.043 16:0.031 17:0.1952 18:0.1611 19:0.1531 
2048 1:0.028 2:0.014 3:0.047 4:0.012 5:0.016 6:0.042 7:0.03 8:0.037 9:0.037 10:0.04 11:0.044 12:0.049 13:0.019 14:0.03 15:0.049 16:0.03 17:0.1854 18:0.1441 19:0.1467 
2048 1:0.024 2:0.029 3:0.047 4:0.011 5:0.036 6:0.036 7:0.033 8:0.042 9:0.036 10:0.051 11:0.053 12:0.029 13:0.016 14:0.031 15:0.036 16:0.027 17:0.1857 18:0.1387 19:0.1401 
2048 1:0.043 2:0.029 3:0.033 4:0.024 5:0.036 6:0.043 7:0.019 8:0.043 9:0.031 10:0.029 11:0.038 12:0.021 13:0.019 14:0.04 15:0.029 16:0.062 17:0.1746 18:0.152 19:0.1353 
2048 1:0.061 2:0.024 3:0.041 4:0.019 5:0.039 6:0.024 7:0.017 8:0.039 9:0.032 10:0.036 11:0.056 12:0.032 13:0.012 14:0.034 15:0.041 16:0.036 17:0.173 18:0.1564 19:0.1268 
2048 1:0.037 2:0.025 3:0.025 4:0.029 5:0.029 6:0.049 7:0.022 8:0.031 9:0.018 10:0.029 11:0.041 12:0.035 13:0.031 14:0.029 15:0.035 16:0.022 17:0.2008 18:0.1475 19:0.1672 
596.1984961731151 1:0.017 2:0.033 3:0.014 4:0.009 5:0.024 6:0.09 7:0.028 8:0.069 9:0.012 10:0.031 11:0.017 12:0.028 13:0.019 14:0.059 15:0.028 16:0.061 17:0.1668 18:0.1473 19:0.1468 
2048 1:0.029 2:0.021 3:0.033 4:0.025 5:0.041 6:0.055 7:0.031 8:0.043 9:0.021 10:0.051 11:0.041 12:0.021 13:0.016 14:0.043 15:0.029 16:0.023 17:0.1849 18:0.1387 19:0.1552 
2048 1:0.02 2:0.018 3:0.067 4:0.032 5:0.04 6:0.012 7:0.002 8:0.03 9:0.042 10:0.03 11:0.042 12:0.022 13:0.034 14:0.022 15:0.028 16:0.056 17:0.1905 18:0.155 19:0.1547 
2048 1:0.039 2:0.031 3:0.048 4:0.027 5:0.039 6:0.044 7:0.015 8:0.031 9:0.039 10:0.025 11:0.01 12:0.029 13:0.027 14:0.027 15:0.033 16:0.033 17:0.1945 18:0.1611 19:0.1456 
2048 1:0.022 2:0.012 3:0.055 4:0.012 5:0.019 6:0.077 7:0.031 8:0.038 9:0.046 10:0.05 11:0.053 12:0.031 13:0.014 14:0.029 15:0.038 16:0.031 17:0.1644 18:0.1346 19:0.1428 
2048 1:0.04 2:0.019 3:0.022 4:0.062 5:0.02 6:0.011 7:0.003 8:0.02 9:0.019 10:0.012 11:0.005 12:0.017 13:0.063 14:0.012 15:0.023 16:0.076 17:0.2349 18:0.1642 19:0.1766 
2048 1:0.025 2:0.025 3:0.05 4:0.014 5:0.043 6:0.059 7:0.009 8:0.054 9:0.029 10:0.063 11:0.045 12:0.02 13:0.014 14:0.02 15:0.054 16:0.005 17:0.1844 18:0.1469 19:0.1412 
2048 1:0.004 2:0.037 3:0.026 4:0.013 5:0.043 6:0.069 7:0.048 8:0.037 9:0.017 10:0.058 11:0.035 12:0.024 13:0.015 14:0.035 15:0.026 16:0.022 17:0.196 18:0.1506 19:0.1447 
2048 1:0.019 2:0.022 3:0.031 4:0.01 5:0.039 6:0.055 7:0.06 8:0.046 9:0.019 10:0.082 11:0.063 12:0.017 13:0.005 14:0.039 15:0.027 16:0.01 17:0.184 18:0.1339 19:0.1395 
2048 1:0.029 2:0.031 3:0.033 4:0.025 5:0.04 6:0.029 7:0.015 8:0.054 9:0.031 10:0.036 11:0.04 12:0.025 13:0.017 14:0.042 15:0.046 16:0.021 17:0.1883 18:0.1557 19:0.141 
2048 1:0.021 2:0.021 3:0.053 4:0.014 5:0.025 6:0.023 7:0.023 8:0.028 9:0.041 10:0.044 11:0.133 12:0.03 13:0.021 14:0.011 15:0.039 16:0.007 17:0.174 18:0.1361 19:0.1578 
2048 1:0.033 2:0.036 3:0.057 4:0.019 5:0.055 6:0.048 7:0 8:0.052 9:0.043 10:0.024 11:0.048 12:0.021 13:0.014 14:0.045 15:0.033 16:0.021 17:0.167 18:0.1418 19:0.1412 
1759.465045924895 1:0.009 2:0.028 3:0.018 4:0.007 5:0.028 6:0.081 7:0.044 8:0.079 9:0.018 10:0.044 11:0.025 12:0.028 13:0.007 14:0.079 15:0.028 16:0.039 17:0.1668 18:0.1299 19:0.1419 
2048 1:0.005 2:0.032 3:0.024 4:0.01 5:0.032 6:0.056 7:0.051 8:0.054 9:0.027 10:0.056 11:0.051 12:0.029 13:0.007 14:0.051 15:0.034 16:0.029 17:0.1855 18:0.1387 19:0.1274 
2048 1:0.03 2:0.022 3:0.036 4:0.028 5:0.02 6:0.018 7:0.026 8:0.024 9:0.046 10:0.03 11:0.054 12:0.036 13:0.018 14:0.018 15:0.052 16:0.036 17:0.19 18:0.1552 19:0.1609 
2048 1:0.035 2:0.03 3:0.045 4:0.015 5:0.039 6:0.065 7:0.03 8:0.043 9:0.037 10:0.032 11:0.056 12:0.022 13:0.015 14:0.048 15:0.017 16:0.019 17:0.1629 18:0.1489 19:0.1394 
2048 1:0.007 2:0.024 3:0.026 4:0.024 5:0.022 6:0.052 7:0.037 8:0.039 9:0.035 10:0.043 11:0.039 12:0.026 13:0.017 14:0.03 15:0.041 16:0.05 17:0.1888 18:0.1533 19:0.1457 
2048 1:0.095 2:0.035 3:0.023 4:0.045 5:0.047 6:0.018 7:0.002 8:0.025 9:0.016 10:0.016 11:0.006 12:0.014 13:0.041 14:0.021 15:0.019 16:0.043 17:0.2119 18:0.1361 19:0.1872 
2048 1:0.012 2:0.019 3:0.063 4:0.019 5:0.036 6:0.044 7:0.007 8:0.048 9:0.053 10:0.036 11:0.053 12:0.029 13:0.015 14:0.034 15:0.048 16:0.036 17:0.1724 18:0.1445 19:0.1294 
2048 1:0.034 2:0.026 3:0.036 4:0.026 5:0.028 6:0.039 7:0.026 8:0.036 9:0.039 10:0.034 11:0.043 12:0.03 13:0.021 14:0.028 15:0.043 16:0.017 17:0.1897 18:0.1457 19:0.1581 
2048 1:0.047 2:0.023 3:0.036 4:0.047 5:0.028 6:0.009 7:0.002 8:0.034 9:0.036 10:0.023 11:0.019 12:0.015 13:0.041 14:0.021 15:0.034 16:0.049 17:0.2072 18:0.1553 19:0.1737 
2048 1:0.036 2:0.025 3:0.027 4:0.032 5:0.042 6:0.032 7:0.004 8:0.05 9:0.025 10:0.017 11:0.023 12:0.036 13:0.017 14:0.055 15:0.044 16:0.063 17:0.1824 18:0.1515 19:0.138 
2048 1:0.028 2:0.024 3:0.056 4:0.021 5:0.028 6:0.039 7:0.032 8:0.03 9:0.058 10:0.041 11:0.041 12:0.03 13:0.015 14:0.028 15:0.039 16:0.021 17:0.1838 18:0.1413 19:0.1447 
2048 1:0.037 2:0.032 3:0.061 4:0.015 5:0.054 6:0.049 7:0.042 8:0.02 9:0.049 10:0.049 11:0.069 12:0.02 13:0.005 14:0.034 15:0.015 16:0 17:0.1716 18:0.151 19:0.1286 
2048 1:0.052 2:0.01 3:0.035 4:0.05 5:0.031 6:0.01 7:0.004 8:0.025 9:0.025 10:0.023 11:0.017 12:0.031 13:0.039 14:0.027 15:0.041 16:0.048 17:0.2118 18:0.1478 19:0.1731 
2048 1:0.023 2:0.033 3:0.027 4:0.017 5:0.04 6:0.061 7:0.036 8:0.048 9:0.029 10:0.042 11:0.08 12:0.019 13:0.006 14:0.05 15:0.027 16:0.015 17:0.1644 18:0.1431 19:0.1399 
2048 1:0.036 2:0.026 3:0.038 4:0.024 5:0.048 6:0.077 7:0.019 8:0.05 9:0.031 10:0.048 11:0.036 12:0.007 13:0.01 14:0.043 15:0.026 16:0.024 17:0.1643 18:0.141 19:0.1496 
1727.28734078536 1:0.016 2:0.008 3:0.036 4:0.01 5:0.026 6:0.057 7:0.048 8:0.028 9:0.016 10:0.077 11:0.059 12:0.04 13:0.01 14:0.02 15:0.048 16:0.012 17:0.1927 18:0.1504 19:0.1441 
2048 1:0.041 2:0.017 3:0.037 4:0.039 5:0.037 6:0.021 7:0.002 8:0.043 9:0.023 10:0.031 11:0.027 12:0.023 13:0.033 14:0.033 15:0.037 16:0.047 17:0.1998 18:0.1551 19:0.1539 
2048 1:0.019 2:0.021 3:0.053 4:0.007 5:0.026 6:0.049 7:0.026 8:0.039 9:0.037 10:0.042 11:0.056 12:0.042 13:0.016 14:0.03 15:0.042 16:0.042 17:0.1765 18:0.1388 19:0.1389 
1291.537041297126 1:0.019 2:0.036 3:0.026 4:0.01 5:0.034 6:0.074 7:0.038 8:0.058 9:0.022 10:0.05 11:0.06 12:0.012 13:0.014 14:0.043 15:0.019 16:0.031 17:0.1687 18:0.1526 19:0.1321 
2048 1:0.022 2:0.031 3:0.05 4:0.01 5:0.046 6:0.062 7:0.012 8:0.043 9:0.031 10:0.053 11:0.06 12:0.024 13:0.012 14:0.019 15:0.046 16:0.017 17:0.1767 18:0.14 19:0.1468 
2048 1:0.022 2:0.022 3:0.045 4:0.016 5:0.024 6:0.056 7:0.02 8:0.051 9:0.033 10:0.033 11:0.051 12:0.027 13:0.024 14:0.04 15:0.031 16:0.045 17:0.1692 18:0.1466 19:0.1435 
2048 1:0.017 2:0.028 3:0.036 4:0.015 5:0.047 6:0.058 7:0.055 8:0.019 9:0.03 10:0.058 11:0.049 12:0.03 13:0.002 14:0.038 15:0.026 16:0.019 17:0.1856 18:0.1295 19:0.1581 
2048 1:0.036 2:0.031 3:0.019 4:0.057 5:0.045 6:0.015 7:0.002 8:0.027 9:0.019 10:0.015 11:0.002 12:0.015 13:0.043 14:0.027 15:0.029 16:0.063 17:0.2231 18:0.1619 19:0.1697 
2048 1:0.051 2:0.022 3:0.064 4:0.022 5:0.031 6:0.037 7:0.026 8:0.022 9:0.062 10:0.033 11:0.07 12:0.026 13:0.015 14:0.026 15:0.029 16:0.015 17:0.168 18:0.1508 19:0.1286 
2048 1:0.009 2:0.037 3:0.037 4:0.012 5:0.037 6:0.086 7:0.037 8:0.04 9:0.033 10:0.044 11:0.054 12:0.019 13:0.016 14:0.03 15:0.023 16:0.016 17:0.175 18:0.1512 19:0.1428 
2048 1:0.044 2:0.025 3:0.076 4:0.01 5:0.032 6:0.032 7:0.025 8:0.034 9:0.062 10:0.052 11:0.079 12:0.015 13:0.017 14:0.015 15:0.027 16:0.015 17:0.1634 18:0.1454 19:0.1325 
2048 1:0.051 2:0.015 3:0.03 4:0.028 5:0.023 6:0.021 7:0 8:0.04 9:0.023 10:0.006 11:0.011 12:0.068 13:0.028 14:0.042 15:0.066 16:0.025 17:0.2145 18:0.1171 19:0.1907 
2048 1:0.018 2:0.032 3:0.034 4:0.02 5:0.043 6:0.052 7:0 8:0.047 9:0.034 10:0.038 11:0.047 12:0.032 13:0.009 14:0.023 15:0.07 16:0.023 17:0.1821 18:0.1493 19:0.1465 
2048 1:0.03 2:0.023 3:0.03 4:0.01 5:0.008 6:0.05 7:0.023 8:0.068 9:0.045 10:0.03 11:0.043 12:0.033 13:0.008 14:0.048 15:0.055 16:0.093 17:0.1552 18:0.1232 19:0.1289 
2048 1:0.019 2:0.021 3:0.03 4:0.015 5:0.024 6:0.045 7:0.028 8:0.045 9:0.034 10:0.049 11:0.06 12:0.03 13:0.009 14:0.026 15:0.056 16:0.041 17:0.1748 18:0.1439 19:0.1492 
2048 1:0.025 2:0.025 3:0.025 4:0.027 5:0.031 6:0.037 7:0.037 8:0.039 9:0.025 10:0.047 11:0.029 12:0.029 13:0.021 14:0.035 15:0.039 16:0.031 17:0.2044 18:0.1412 19:0.1526 
2048 1:0.034 2:0.017 3:0.032 4:0.036 5:0.032 6:0.032 7:0.015 8:0.043 9:0.019 10:0.036 11:0.032 12:0.023 13:0.032 14:0.036 15:0.034 16:0.034 17:0.1985 18:0.1494 19:0.1653 
2048 1:0.034 2:0.019 3:0.044 4:0.036 5:0.027 6:0.017 7:0.004 8:0.034 9:0.036 10:0.025 11:0.027 12:0.034 13:0.036 14:0.023 15:0.046 16:0.031 17:0.2064 18:0.1532 19:0.1682 
2048 1:0.017 2:0.036 3:0.019 4:0.015 5:0.032 6:0.036 7:0.032 8:0.049 9:0.025 10:0.034 11:0.04 12:0.04 13:0.013 14:0.042 15:0.047 16:0.044 17:0.1942 18:0.1359 19:0.1498 
2048 1:0.043 2:0.02 3:0.047 4:0.029 5:0.027 6:0.047 7:0.02 8:0.025 9:0.043 10:0.025 11:0.054 12:0.029 13:0.027 14:0.025 15:0.032 16:0.018 17:0.1825 18:0.1606 19:0.1454 
2048 1:0.021 2:0.025 3:0.041 4:0.015 5:0.031 6:0.046 7:0.039 8:0.039 9:0.035 10:0.058 11:0.044 12:0.029 13:0.012 14:0.027 15:0.041 16:0.025 17:0.1905 18:0.1342 19:0.1462 
2048 1:0.021 2:0.033 3:0.043 4:0.007 5:0.045 6:0.103 7:0.033 8:0.045 9:0.026 10:0.05 11:0.043 12:0.019 13:0.01 14:0.041 15:0.019 16:0.021 17:0.1675 18:0.135 19:0.1368 
2048 1:0.045 2:0.024 3:0.036 4:0.043 5:0.051 6:0.011 7:0.004 8:0.024 9:0.017 10:0.03 11:0.013 12:0.024 13:0.036 14:0.024 15:0.032 16:0.047 17:0.2236 18:0.1689 19:0.1448 
2048 1:0.053 2:0.066 3:0.02 4:0.033 5:0.075 6:0.016 7:0.002 8:0.035 9:0.018 10:0.015 11:0.013 12:0.007 13:0.025 14:0.031 15:0.018 16:0.045 17:0.2131 18:0.1242 19:0.1915 
2048 1:0.037 2:0.037 3:0.025 4:0.022 5:0.057 6:0.065 7:0.035 8:0.035 9:0.016 10:0.051 11:0.041 12:0.016 13:0.012 14:0.039 15:0.022 16:0.012 17:0.1927 18:0.147 19:0.1403 
2048 1:0.052 2:0.036 3:0.05 4:0.025 5:0.04 6:0.025 7:0.025 8:0.038 9:0.048 10:0.038 11:0.023 12:0.015 13:0.023 14:0.031 15:0.025 16:0.023 17:0.1883 18:0.1419 19:0.1526 
1135.362978051459 1:0.046 2:0.026 3:0.036 4:0.012 5:0.022 6:0.036 7:0.029 8:0.053 9:0.031 10:0.038 11:0.034 12:0.034 13:0.019 14:0.041 15:0.038 16:0.046 17:0.1794 18:0.1558 19:0.1238 
2048 1:0.039 2:0.026 3:0.052 4:0.009 5:0.046 6:0.065 7:0.039 8:0.035 9:0.028 10:0.07 11:0.041 12:0.015 13:0.011 14:0.024 15:0.024 16:0.011 17:0.1804 18:0.1491 19:0.1349 
2048 1:0.026 2:0.026 3:0.026 4:0.032 5:0.03 6:0.024 7:0.016 8:0.032 9:0.022 10:0.024 11:0.022 12:0.028 13:0.032 14:0.028 15:0.034 16:0.082 17:0.1988 18:0.1698 19:0.1469 
2048 1:0.033 2:0.028 3:0.035 4:0.023 5:0.028 6:0.046 7:0.005 8:0.046 9:0.037 10:0.026 11:0.06 12:0.028 13:0.019 14:0.026 15:0.053 16:0.035 17:0.1719 18:0.1468 19:0.1538 
17.72473416373112 1:0.028 2:0.034 3:0.032 4:0.008 5:0.04 6:0.051 7:0.042 8:0.03 9:0.02 10:0.055 11:0.069 12:0.028 13:0.014 14:0.026 15:0.026 16:0.016 17:0.1854 18:0.1449 19:0.1482 
2048 1:0.04 2:0.033 3:0.04 4:0.027 5:0.038 6:0.013 7:0.007 8:0.04 9:0.029 10:0.013 11:0.027 12:0.038 13:0.033 14:0.038 15:0.033 16:0.049 17:0.1976 18:0.1596 19:0.1465 
2048 1:0.065 2:0.026 3:0.03 4:0.041 5:0.028 6:0.009 7:0 8:0.026 9:0.03 10:0.007 11:0.021 12:0.03 13:0.041 14:0.021 15:0.037 16:0.056 17:0.2056 18:0.1581 19:0.167 
2048 1:0.029 2:0.022 3:0.04 4:0.016 5:0.036 6:0.04 7:0.034 8:0.04 9:0.031 10:0.058 11:0.049 12:0.02 13:0.011 14:0.029 15:0.036 16:0.038 17:0.1758 18:0.1591 19:0.1344 
2048 1:0.025 2:0.022 3:0.049 4:0.016 5:0.025 6:0.038 7:0.02 8:0.042 9:0.036 10:0.033 11:0.063 12:0.036 13:0.027 14:0.029 15:0.036 16:0.02 17:0.1816 18:0.1588 19:0.144 
2048 1:0.011 2:0.018 3:0.045 4:0.009 5:0.034 6:0.097 7:0.036 8:0.047 9:0.032 10:0.065 11:0.077 12:0.018 13:0.005 14:0.034 15:0.034 16:0.011 17:0.1597 18:0.1458 19:0.1224 
2048 1:0.029 2:0.033 3:0.029 4:0.015 5:0.035 6:0.018 7:0.038 8:0.04 9:0.022 10:0.053 11:0.042 12:0.029 13:0.02 14:0.029 15:0.035 16:0.029 17:0.2066 18:0.1409 19:0.1579 
2048 1:0.054 2:0.021 3:0.035 4:0.048 5:0.037 6:0.008 7:0 8:0.031 9:0.027 10:0.023 11:0.017 12:0.017 13:0.039 14:0.025 15:0.029 16:0.056 17:0.2042 18:0.1771 19:0.1527 
2048 1:0.012 2:0.019 3:0.052 4:0.009 5:0.054 6:0.054 7:0.005 8:0.054 9:0.019 10:0.057 11:0.061 12:0.026 13:0.007 14:0.038 15:0.045 16:0.04 17:0.1623 18:0.1465 19:0.1388 
1918.040609396238 1:0.005 2:0.017 3:0.038 4:0.012 5:0.028 6:0.099 7:0.054 8:0.05 9:0.033 10:0.068 11:0.024 12:0.021 13:0.005 14:0.047 15:0.031 16:0.024 17:0.1737 18:0.1281 19:0.1438 
2048 1:0.044 2:0.014 3:0.075 4:0.023 5:0.026 6:0.016 7:0.009 8:0.023 9:0.061 10:0.037 11:0.105 12:0.021 13:0.026 14:0.005 15:0.037 16:0.012 17:0.172 18:0.1448 19:0.1471 
2048 1:0.023 2:0.023 3:0.054 4:0.023 5:0.052 6:0.039 7:0.014 8:0.036 9:0.032 10:0.048 11:0.05 12:0.02 13:0.016 14:0.032 15:0.029 16:0.032 17:0.1804 18:0.1414 19:0.1569 
2048 1:0.033 2:0.023 3:0.045 4:0.025 5:0.037 6:0.025 7:0.006 8:0.045 9:0.033 10:0.033 11:0.033 12:0.031 13:0.02 14:0.035 15:0.045 16:0.049 17:0.1819 18:0.1553 19:0.1471 
1759.017850289723 1:0.013 2:0.019 3:0.04 4:0.005 5:0.016 6:0.043 7:0.038 8:0.059 9:0.046 10:0.054 11:0.143 12:0.022 13:0 14:0.04 15:0.043 16:0.024 17:0.1431 18:0.1278 19:0.1226 
2048 1:0.016 2:0.018 3:0.051 4:0.014 5:0.025 6:0.058 7:0.035 8:0.037 9:0.042 10:0.049 11:0.088 12:0.023 13:0.016 14:0.028 15:0.03 16:0.014 17:0.1672 18:0.1496 19:0.14 
2048 1:0.052 2:0.032 3:0.054 4:0.016 5:0.038 6:0.036 7:0.022 8:0.026 9:0.044 10:0.036 11:0.03 12:0.034 13:0.02 14:0.016 15:0.04 16:0.014 17:0.1932 18:0.1542 19:0.1393 
2048 1:0.062 2:0.016 3:0.029 4:0.049 5:0.026 6:0.009 7:0.004 8:0.035 9:0.022 10:0.016 11:0.02 12:0.018 13:0.047 14:0.031 15:0.024 16:0.051 17:0.2043 18:0.1669 19:0.1697 
2048 1:0.021 2:0.031 3:0.04 4:0.025 5:0.055 6:0.04 7:0.038 8:0.025 9:0.029 10:0.048 11:0.038 12:0.025 13:0.013 14:0.038 15:0.025 16:0.013 17:0.1983 18:0.1565 19:0.1418 
2048 1:0.056 2:0.037 3:0.035 4:0.028 5:0.041 6:0.041 7:0 8:0.061 9:0.035 10:0.015 11:0.024 12:0.019 13:0.024 14:0.05 15:0.035 16:0.026 17:0.1773 18:0.1507 19:0.1468 
2048 1:0.013 2:0.02 3:0.058 4:0.01 5:0.028 6:0.068 7:0.03 8:0.058 9:0.056 10:0.063 11:0.043 12:0.02 13:0.003 14:0.033 15:0.051 16:0.015 17:0.1646 18:0.1394 19:0.1273 
2048 1:0.01 2:0.042 3:0.055 4:0.002 5:0.055 6:0.052 7:0.002 8:0.062 9:0.032 10:0.03 11:0.05 12:0.032 13:0.012 14:0.045 15:0.04 16:0.04 17:0.1631 18:0.142 19:0.1333 
2048 1:0.044 2:0.028 3:0.044 4:0.032 5:0.032 6:0.03 7:0.004 8:0.042 9:0.044 10:0.014 11:0.022 12:0.028 13:0.028 14:0.036 15:0.04 16:0.048 17:0.1835 18:0.1599 19:0.14 
2048 1:0.019 2:0.025 3:0.038 4:0.019 5:0.042 6:0.069 7:0.019 8:0.056 9:0.017 10:0.048 11:0.038 12:0.019 13:0.023 14:0.044 15:0.027 16:0.017 17:0.1829 18:0.1388 19:0.1613 
2048 1:0.04 2:0.017 3:0.055 4:0.017 5:0.032 6:0.034 7:0.03 8:0.038 9:0.036 10:0.057 11:0.059 12:0.023 13:0.019 14:0.025 15:0.034 16:0.015 17:0.1804 18:0.1594 19:0.1307 
2048 1:0.038 2:0.036 3:0.046 4:0.012 5:0.036 6:0.062 7:0.032 8:0.026 9:0.04 10:0.036 11:0.072 12:0.022 13:0.018 14:0.022 15:0.02 16:0.016 17:0.1729 18:0.1489 19:0.1441 
2048 1:0.05 2:0.032 3:0.025 4:0.045 5:0.048 6:0.032 7:0.007 8:0.022 9:0.018 10:0.027 11:0.029 12:0.016 13:0.038 14:0.018 15:0.029 16:0.029 17:0.2168 18:0.158 19:0.1609 
2048 1:0.058 2:0.027 3:0.05 4:0.027 5:0.037 6:0.031 7:0.01 8:0.015 9:0.029 10:0.027 11:0.021 12:0.029 13:0.037 14:0.01 15:0.023 16:0.046 17:0.198 18:0.1751 19:0.1481 
2048 1:0.02 2:0.016 3:0.043 4:0.027 5:0.032 6:0.041 7:0.016 8:0.038 9:0.032 10:0.043 11:0.025 12:0.032 13:0.02 14:0.027 15:0.05 16:0.045 17:0.1871 18:0.1518 19:0.1569 
2048 1:0.05 2:0.02 3:0.059 4:0.03 5:0.046 6:0.026 7:0 8:0.039 9:0.048 10:0.035 11:0.028 12:0.026 13:0.015 14:0.033 15:0.048 16:0.028 17:0.1806 18:0.1502 19:0.1398 
2048 1:0.036 2:0.013 3:0.031 4:0.027 5:0.034 6:0.04 7:0.029 8:0.04 9:0.018 10:0.056 11:0.04 12:0.025 13:0.02 14:0.031 15:0.04 16:0.022 17:0.193 18:0.1581 19:0.145 
2048 1:0.037 2:0.045 3:0.053 4:0.016 5:0.063 6:0.061 7:0.016 8:0.041 9:0.035 10:0.043 11:0.033 12:0.01 13:0.014 14:0.033 15:0.018 16:0.016 17:0.1806 18:0.1404 19:0.1437 
2048 1:0.025 2:0.029 3:0.048 4:0.023 5:0.037 6:0.043 7:0.025 8:0.031 9:0.045 10:0.039 11:0.062 12:0.023 13:0.014 14:0.027 15:0.035 16:0.019 17:0.1791 18:0.1491 19:0.147 
2048 1:0.061 2:0.036 3:0.044 4:0.031 5:0.063 6:0.025 7:0.002 8:0.031 9:0.027 10:0.027 11:0.019 12:0.025 13:0.021 14:0.033 15:0.031 16:0.034 17:0.1962 18:0.1543 19:0.1408 
2048 1:0.017 2:0.043 3:0.028 4:0.011 5:0.041 6:0.065 7:0.037 8:0.045 9:0.028 10:0.043 11:0.052 12:0.022 13:0.013 14:0.037 15:0.028 16:0.015 17:0.1835 18:0.1491 19:0.1424 
2048 1:0.065 2:0.025 3:0.049 4:0.025 5:0.038 6:0.036 7:0.002 8:0.029 9:0.042 10:0.016 11:0.04 12:0.031 13:0.018 14:0.027 15:0.04 16:0.051 17:0.1679 18:0.1477 19:0.1511 
2048 1:0.012 2:0.019 3:0.051 4:0.019 5:0.043 6:0.048 7:0.002 8:0.058 9:0.039 10:0.048 11:0.041 12:0.034 13:0.007 14:0.036 15:0.068 16:0.014 17:0.1753 18:0.152 19:0.1317 
2048 1:0.031 2:0.027 3:0.044 4:0.029 5:0.047 6:0.04 7:0.011 8:0.038 9:0.031 10:0.033 11:0.049 12:0.02 13:0.022 14:0.038 15:0.027 16:0.024 17:0.1827 18:0.1619 19:0.1436 
2048 1:0.011 2:0.021 3:0.038 4:0.017 5:0.047 6:0.098 7:0.019 8:0.051 9:0.015 10:0.051 11:0.024 12:0.019 13:0.015 14:0.045 15:0.026 16:0.041 17:0.1705 18:0.1533 19:0.1372 
2048 1:0.013 2:0.024 3:0.039 4:0.009 5:0.033 6:0.056 7:0.059 8:0.028 9:0.03 10:0.074 11:0.052 12:0.026 13:0.009 14:0.02 15:0.035 16:0.015 17:0.1925 18:0.1342 19:0.1532 
2048 1:0.038 2:0.033 3:0.043 4:0.021 5:0.057 6:0.067 7:0 8:0.052 9:0.029 10:0.036 11:0.033 12:0.019 13:0.012 14:0.04 15:0.04 16:0.017 17:0.1711 18:0.1465 19:0.1448 
2048 1:0.025 2:0.009 3:0.048 4:0.018 5:0.03 6:0.041 7:0.025 8:0.025 9:0.034 10:0.037 11:0.064 12:0.05 13:0.011 14:0.034 15:0.048 16:0.032 17:0.1764 18:0.153 19:0.1387 
-945.451929697541 1:0.083 2:0.015 3:0.038 4:0.043 5:0.017 6:0.028 7:0.002 8:0.038 9:0.041 10:0.013 11:0.024 12:0.021 13:0.041 14:0.03 15:0.034 16:0.043 17:0.1843 18:0.1455 19:0.1596 
-516.2297401624666 1:0.026 2:0.012 3:0.022 4:0.03 5:0.024 6:0.012 7:0.008 8:0.032 9:0.022 10:0.02 11:0.012 12:0.062 13:0.018 14:0.032 15:0.076 16:0.074 17:0.2078 18:0.1248 19:0.1865 
-2048 1:0.002 2:0.014 3:0.053 4:0.012 5:0.041 6:0.063 7:0.048 8:0.022 9:0.034 10:0.075 11:0.072 12:0.034 13:0.002 14:0.022 15:0.041 16:0.007 17:0.1844 18:0.1461 19:0.1281 
-2048 1:0.022 2:0.031 3:0.018 4:0.039 5:0.035 6:0.033 7:0.004 8:0.05 9:0.013 10:0.022 11:0.02 12:0.015 13:0.04 14:0.035 15:0.029 16:0.053 17:0.2009 18:0.1733 19:0.1659 
-2048 1:0.035 2:0.039 3:0.044 4:0.014 5:0.042 6:0.053 7:0.018 8:0.046 9:0.039 10:0.042 11:0.042 12:0.021 13:0.016 14:0.025 15:0.039 16:0.016 17:0.1846 18:0.1445 19:0.1396 
-987.8797054119802 1:0.019 2:0.021 3:0.019 4:0.033 5:0.042 6:0.048 7:0.01 8:0.063 9:0.013 10:0.029 11:0.008 12:0.031 13:0.017 14:0.067 15:0.044 16:0.058 17:0.1897 18:0.1323 19:0.1569 
-2048 1:0.045 2:0.029 3:0.039 4:0.035 5:0.035 6:0.014 7:0.006 8:0.031 9:0.029 10:0.016 11:0.025 12:0.031 13:0.039 14:0.029 15:0.029 16:0.045 17:0.2004 18:0.1688 19:0.156 
-2048 1:0.055 2:0.02 3:0.048 4:0.034 5:0.046 6:0.03 7:0.004 8:0.036 9:0.024 10:0.024 11:0.012 12:0.026 13:0.032 14:0.042 15:0.022 16:0.03 17:0.1899 18:0.1631 19:0.1581 
-2048 1:0.045 2:0.024 3:0.039 4:0.024 5:0.043 6:0.045 7:0.013 8:0.041 9:0.022 10:0.03 11:0.062 12:0.034 13:0.019 14:0.043 15:0.034 16:0.015 17:0.1813 18:0.1456 19:0.1395 
-2048 1:0.026 2:0.029 3:0.037 4:0.015 5:0.029 6:0.083 7:0.026 8:0.044 9:0.033 10:0.042 11:0.033 12:0.022 13:0.018 14:0.029 15:0.035 16:0.031 17:0.1778 18:0.1442 19:0.1468 
-2048 1:0.028 2:0.045 3:0.039 4:0.015 5:0.039 6:0.069 7:0.019 8:0.041 9:0.047 10:0.028 11:0.082 12:0.017 13:0.013 14:0.028 15:0.032 16:0.009 17:0.1656 18:0.1317 19:0.153 
-455.1725342571754 1:0.061 2:0.033 3:0.052 4:0.019 5:0.047 6:0.028 7:0.012 8:0.038 9:0.042 10:0.045 11:0.05 12:0.017 13:0.014 14:0.017 15:0.04 16:0.021 17:0.1791 18:0.1444 19:0.1411 
-2048 1:0.017 2:0.03 3:0.035 4:0.007 5:0.035 6:0.082 7:0.047 8:0.05 9:0.032 10:0.055 11:0.042 12:0.022 13:0.005 14:0.047 15:0.03 16:0.027 17:0.1707 18:0.1372 19:0.1279 
-2048 1:0.034 2:0.019 3:0.042 4:0.023 5:0.025 6:0.03 7:0.011 8:0.066 9:0.036 10:0.044 11:0.042 12:0.021 13:0.021 14:0.038 15:0.051 16:0.023 17:0.1839 18:0.1491 19:0.1394 
-2048 1:0.027 2:0.021 3:0.039 4:0.027 5:0.041 6:0.051 7:0.016 8:0.054 9:0.035 10:0.043 11:0.025 12:0.025 13:0.01 14:0.045 15:0.049 16:0.021 17:0.1833 18:0.1515 19:0.1359 
-2048 1:0.028 2:0.013 3:0.036 4:0.024 5:0.049 6:0.062 7:0.032 8:0.034 9:0.015 10:0.062 11:0.024 12:0.028 13:0.009 14:0.041 15:0.034 16:0.021 17:0.1871 18:0.15 19:0.1512 
-2048 1:0.017 2:0.032 3:0.041 4:0.013 5:0.035 6:0.091 7:0.037 8:0.039 9:0.048 10:0.061 11:0.045 12:0.013 13:0.006 14:0.017 15:0.041 16:0.011 17:0.1747 18:0.1367 19:0.1407 
-2048 1:0.044 2:0.029 3:0.029 4:0.046 5:0.038 6:0.022 7:0.004 8:0.024 9:0.016 10:0.022 11:0.011 12:0.015 13:0.049 14:0.016 15:0.02 16:0.047 17:0.2167 18:0.1732 19:0.1785 
-1259.487208169229 1:0.05 2:0.008 3:0.065 4:0.029 5:0.029 6:0.013 7:0.004 8:0.023 9:0.05 10:0.038 11:0.063 12:0.035 13:0.023 14:0.01 15:0.056 16:0.015 17:0.187 18:0.1504 19:0.151 
-2048 1:0.014 2:0.034 3:0.032 4:0.011 5:0.043 6:0.079 7:0.036 8:0.047 9:0.023 10:0.041 11:0.038 12:0.029 13:0.011 14:0.05 15:0.027 16:0.027 17:0.1783 18:0.145 19:0.1357 
-956.0685640693504 1:0.004 2:0.061 3:0.025 4:0.002 5:0.07 6:0.038 7:0.036 8:0.078 9:0.011 10:0.053 11:0.034 12:0.013 13:0.008 14:0.067 15:0.017 16:0.013 17:0.2013 18:0.0912 19:0.1787 
-199.6664885311632 1:0.047 2:0.049 3:0.039 4:0.03 5:0.058 6:0.024 7:0.019 8:0.021 9:0.032 10:0.024 11:0.021 12:0.024 13:0.028 14:0.024 15:0.021 16:0.019 17:0.218 18:0.1443 19:0.1574 
-2048 1:0.052 2:0.02 3:0.052 4:0.022 5:0.025 6:0.02 7:0.013 8:0.058 9:0.045 10:0.029 11:0.025 12:0.018 13:0.025 14:0.047 15:0.029 16:0.069 17:0.1701 18:0.1449 19:0.1359 
-2048 1:0.015 2:0.035 3:0.024 4:0.017 5:0.03 6:0.069 7:0.011 8:0.08 9:0.019 10:0.026 11:0.017 12:0.024 13:0.026 14:0.06 15:0.035 16:0.041 17:0.1788 18:0.1464 19:0.1457 
-2048 1:0.049 2:0.021 3:0.051 4:0.028 5:0.04 6:0.03 7:0.009 8:0.036 9:0.038 10:0.038 11:0.047 12:0.023 13:0.019 14:0.026 15:0.04 16:0.019 17:0.18 18:0.1607 19:0.1448 
-2048 1:0.044 2:0.019 3:0.033 4:0.038 5:0.021 6:0.021 7:0.019 8:0.031 9:0.044 10:0.025 11:0.035 12:0.029 13:0.025 14:0.027 15:0.046 16:0.038 17:0.1906 18:0.1623 19:0.1526 
-2048 1:0.024 2:0.01 3:0.029 4:0.022 5:0.012 6:0.057 7:0.031 8:0.05 9:0.022 10:0.026 11:0.034 12:0.036 13:0.026 14:0.057 15:0.024 16:0.077 17:0.171 18:0.1542 19:0.1386 
-77.22589585587487 1:0.041 2:0.032 3:0.036 4:0.029 5:0.05 6:0.029 7:0.007 8:0.045 9:0.018 10:0.029 11:0.02 12:0.02 13:0.027 14:0.043 15:0.025 16:0.054 17:0.1916 18:0.1523 19:0.1502 
-2048 1:0.036 2:0.044 3:0.04 4:0.02 5:0.06 6:0.046 7:0.022 8:0.024 9:0.02 10:0.024 11:0.042 12:0.034 13:0.022 14:0.04 15:0.016 16:0.018 17:0.2024 18:0.1353 19:0.1551 
-2048 1:0.027 2:0.018 3:0.043 4:0.011 5:0.036 6:0.057 7:0.023 8:0.057 9:0.027 10:0.059 11:0.054 12:0.025 13:0.009 14:0.036 15:0.045 16:0.02 17:0.1724 18:0.1288 19:0.1505 
-2048 1:0.04 2:0.044 3:0.042 4:0.021 5:0.055 6:0.04 7:0.017 8:0.034 9:0.032 10:0.034 11:0.023 12:0.023 13:0.021 14:0.027 15:0.03 16:0.019 17:0.1959 18:0.1474 19:0.154 
-2048 1:0.081 2:0.028 3:0.041 4:0.032 5:0.043 6:0.026 7:0.011 8:0.013 9:0.034 10:0.011 11:0.041 12:0.034 13:0.023 14:0.028 15:0.028 16:0.038 17:0.1867 18:0.1563 19:0.1468 
-1185.135185397976 1:0.047 2:0.023 3:0.027 4:0.049 5:0.035 6:0.039 7:0.006 8:0.047 9:0.031 10:0.01 11:0.014 12:0.012 13:0.035 14:0.055 15:0.021 16:0.057 17:0.1867 18:0.1501 19:0.1539 
-2048 1:0.019 2:0.026 3:0.037 4:0.014 5:0.026 6:0.037 7:0.023 8:0.044 9:0.037 10:0.035 11:0.049 12:0.042 13:0.014 14:0.03 15:0.056 16:0.035 17:0.1896 18:0.1401 19:0.145 
-2048 1:0.023 2:0.027 3:0.052 4:0.011 5:0.05 6:0.045 7:0.023 8:0.032 9:0.032 10:0.052 11:0.077 12:0.034 13:0.007 14:0.025 15:0.043 16:0.011 17:0.179 18:0.1494 19:0.129 
-2048 1:0.033 2:0.022 3:0.031 4:0.013 5:0.027 6:0.06 7:0.047 8:0.047 9:0.033 10:0.049 11:0.045 12:0.027 13:0.007 14:0.051 15:0.029 16:0.033 17:0.1692 18:0.1295 19:0.1457 
-151.2284023464709 1:0.068 2:0.012 3:0.08 4:0.038 5:0.032 6:0.01 7:0.002 8:0.012 9:0.068 10:0.026 11:0.056 12:0.014 13:0.028 14:0.008 15:0.028 16:0.04 17:0.1749 18:0.1614 19:0.1409 
-2048 1:0.024 2:0.02 3:0.044 4:0.026 5:0.026 6:0.028 7:0.01 8:0.032 9:0.034 10:0.026 11:0.06 12:0.038 13:0.03 14:0.022 15:0.042 16:0.036 17:0.1903 18:0.1688 19:0.1459 
-2048 1:0.026 2:0.022 3:0.057 4:0.013 5:0.042 6:0.074 7:0.013 8:0.039 9:0.037 10:0.035 11:0.055 12:0.031 13:0.013 14:0.037 15:0.033 16:0.028 17:0.1594 18:0.1465 19:0.1378 
-2048 1:0.028 2:0.025 3:0.03 4:0.012 5:0.03 6:0.051 7:0.051 8:0.032 9:0.023 10:0.053 11:0.067 12:0.032 13:0.014 14:0.035 15:0.028 16:0.014 17:0.1899 18:0.1369 19:0.15 
-2048 1:0.034 2:0.023 3:0.055 4:0.017 5:0.048 6:0.021 7:0.015 8:0.04 9:0.036 10:0.048 11:0.048 12:0.029 13:0.011 14:0.032 15:0.044 16:0.029 17:0.178 18:0.1463 19:0.1458 
-2048 1:0.011 2:0.024 3:0.061 4:0.011 5:0.039 6:0.065 7:0.017 8:0.048 9:0.046 10:0.046 11:0.052 12:0.026 13:0.011 14:0.035 15:0.039 16:0.015 17:0.1681 18:0.1469 19:0.1374 
-39.96216729669143 1:0.01 2:0.025 3:0.043 4:0.01 5:0.04 6:0.075 7:0.03 8:0.048 9:0.038 10:0.073 11:0.085 12:0.005 13:0.003 14:0.018 15:0.043 16:0.018 17:0.1607 18:0.1441 19:0.1337 
-17.69538613255385 1:0.033 2:0.012 3:0.043 4:0.047 5:0.014 6:0.006 7:0.002 8:0.023 9:0.041 10:0.016 11:0.043 12:0.035 13:0.047 14:0.012 15:0.047 16:0.039 17:0.2159 18:0.1405 19:0.1841 
-1629.889125734974 1:0.052 2:0.02 3:0.018 4:0.034 5:0.016 6:0.014 7:0.006 8:0.03 9:0.018 10:0.016 11:0.016 12:0.04 13:0.038 14:0.016 15:0.048 16:0.079 17:0.2061 18:0.1677 19:0.1627 
-2048 1:0.075 2:0.027 3:0.045 4:0.023 5:0.043 6:0.023 7:0.007 8:0.034 9:0.027 10:0.029 11:0.029 12:0.032 13:0.025 14:0.025 15:0.036 16:0.027 17:0.187 18:0.1647 19:0.1404 
-2048 1:0.034 2:0.019 3:0.03 4:0.026 5:0.03 6:0.03 7:0.011 8:0.047 9:0.019 10:0.039 11:0.043 12:0.032 13:0.026 14:0.03 15:0.052 16:0.041 17:0.197 18:0.1624 19:0.1313 
-2048 1:0.055 2:0.034 3:0.034 4:0.02 5:0.034 6:0.016 7:0.01 8:0.036 9:0.034 10:0.034 11:0.026 12:0.026 13:0.022 14:0.012 15:0.049 16:0.059 17:0.1906 18:0.1599 19:0.1455 
-2048 1:0.022 2:0.031 3:0.06 4:0.013 5:0.042 6:0.036 7:0.018 8:0.025 9:0.045 10:0.038 11:0.098 12:0.031 13:0.016 14:0.018 15:0.036 16:0.009 17:0.1782 18:0.1427 19:0.1404 
-217.9106508196216 1:0.048 2:0.021 3:0.046 4:0.028 5:0.046 6:0.009 7:0.009 8:0.044 9:0.028 10:0.023 11:0.023 12:0.039 13:0.018 14:0.055 15:0.037 16:0.041 17:0.1841 18:0.1552 19:0.145 
-2048 1:0.021 2:0.023 3:0.04 4:0.008 5:0.023 6:0.036 7:0.059 8:0.036 9:0.038 10:0.074 11:0.064 12:0.023 13:0.008 14:0.021 15:0.038 16:0.017 17:0.1854 18:0.1418 19:0.1414 
-2048 1:0.029 2:0.027 3:0.041 4:0.016 5:0.027 6:0.025 7:0.021 8:0.037 9:0.023 10:0.033 11:0.031 12:0.045 13:0.033 14:0.025 15:0.039 16:0.037 17:0.2036 18:0.1754 19:0.1327 
-2048 1:0.039 2:0.021 3:0.047 4:0.023 5:0.037 6:0.035 7:0.004 8:0.043 9:0.025 10:0.031 11:0.037 12:0.031 13:0.029 14:0.033 15:0.035 16:0.047 17:0.1832 18:0.1571 19:0.1431 
-2048 1:0.02 2:0.036 3:0.042 4:0.013 5:0.042 6:0.051 7:0.038 8:0.045 9:0.042 10:0.038 11:0.047 12:0.025 13:0.007 14:0.054 15:0.025 16:0.031 17:0.172 18:0.1413 19:0.1311 
-2048 1:0.021 2:0.019 3:0.051 4:0.012 5:0.028 6:0.037 7:0.049 8:0.035 9:0.04 10:0.075 11:0.054 12:0.019 13:0.014 14:0.021 15:0.033 16:0.023 17:0.1857 18:0.1513 19:0.1341 
-2048 1:0.047 2:0.027 3:0.04 4:0.022 5:0.031 6:0.031 7:0.013 8:0.034 9:0.038 10:0.011 11:0.034 12:0.045 13:0.02 14:0.04 15:0.038 16:0.058 17:0.1792 18:0.1484 19:0.14 
-2048 1:0.046 2:0.02 3:0.04 4:0.022 5:0.038 6:0.052 7:0.006 8:0.036 9:0.026 10:0.044 11:0.052 12:0.022 13:0.018 14:0.018 15:0.044 16:0.046 17:0.1754 18:0.15 19:0.1453 
-300.4244276310839 1:0.059 2:0.017 3:0.047 4:0.038 5:0.032 6:0.013 7:0.006 8:0.015 9:0.049 10:0.025 11:0.038 12:0.028 13:0.021 14:0.013 15:0.049 16:0.057 17:0.1873 18:0.1645 19:0.1421 
-2016.971579363304 1:0.025 2:0.032 3:0.069 4:0.014 5:0.039 6:0.023 7:0.018 8:0.032 9:0.064 10:0.037 11:0.094 12:0.025 13:0.011 14:0.021 15:0.037 16:0.016 17:0.1694 18:0.1347 19:0.1405 
-2048 1:0.035 2:0.039 3:0.047 4:0.022 5:0.047 6:0.053 7:0.01 8:0.033 9:0.022 10:0.027 11:0.018 12:0.031 13:0.037 14:0.024 15:0.022 16:0.014 17:0.2065 18:0.1499 19:0.1618 
-2048 1:0.031 2:0.033 3:0.042 4:0.007 5:0.038 6:0.075 7:0.049 8:0.031 9:0.038 10:0.055 11:0.055 12:0.02 13:0.007 14:0.027 15:0.024 16:0.018 17:0.1726 18:0.1384 19:0.1403 
-1757.72700526763 1:0.009 2:0.035 3:0.04 4:0.017 5:0.042 6:0.052 7:0.019 8:0.059 9:0.033 10:0.045 11:0.059 12:0.012 13:0.019 14:0.038 15:0.031 16:0.026 17:0.18 18:0.1447 19:0.1398 
-2048 1:0.002 2:0.028 3:0.036 4:0.016 5:0.038 6:0.05 7:0.038 8:0.036 9:0.042 10:0.056 11:0.056 12:0.03 13:0.002 14:0.028 15:0.052 16:0.018 17:0.1881 18:0.1336 19:0.1471 
-2048 1:0.027 2:0.02 3:0.052 4:0.011 5:0.045 6:0.036 7:0.016 8:0.058 9:0.031 10:0.056 11:0.067 12:0.027 13:0.007 14:0.043 15:0.045 16:0.011 17:0.1674 18:0.1351 19:0.1458 
-2048 1:0.012 2:0.052 3:0.029 4:0.002 5:0.047 6:0.093 7:0.052 8:0.037 9:0.032 10:0.054 11:0.057 12:0.012 13:0.005 14:0.032 15:0.015 16:0.025 17:0.1726 18:0.1385 19:0.1334 
-2048 1:0.007 2:0.016 3:0.044 4:0.009 5:0.028 6:0.069 7:0.016 8:0.053 9:0.037 10:0.049 11:0.097 12:0.03 13:0.005 14:0.035 15:0.053 16:0.028 17:0.1519 18:0.1404 19:0.1321 
-2048 1:0.048 2:0.024 3:0.03 4:0.05 5:0.036 6:0.014 7:0.006 8:0.022 9:0.02 10:0.014 11:0.026 12:0.018 13:0.048 14:0.024 15:0.018 16:0.058 17:0.2164 18:0.1557 19:0.1722 
-410.609459969045 1:0.053 2:0.033 3:0.044 4:0.024 5:0.051 6:0.024 7:0.013 8:0.022 9:0.029 10:0.018 11:0.024 12:0.038 13:0.022 14:0.033 15:0.026 16:0.042 17:0.1918 18:0.1502 19:0.1611 
-2048 1:0.052 2:0.024 3:0.032 4:0.036 5:0.036 6:0.028 7:0.01 8:0.036 9:0.032 10:0.018 11:0.024 12:0.028 13:0.026 14:0.04 15:0.034 16:0.05 17:0.1863 18:0.1494 19:0.1588 
-2048 1:0.012 2:0.017 3:0.042 4:0.007 5:0.03 6:0.057 7:0.015 8:0.062 9:0.027 10:0.037 11:0.039 12:0.047 13:0.012 14:0.049 15:0.054 16:0.044 17:0.1693 18:0.1479 19:0.1306 
-734.3761953860169 1:0.006 2:0.015 3:0.042 4:0.015 5:0.027 6:0.05 7:0.017 8:0.065 9:0.033 10:0.042 11:0.071 12:0.036 13:0.008 14:0.054 15:0.052 16:0.025 17:0.1659 18:0.14 19:0.1355 
-2048 1:0.071 2:0.02 3:0.042 4:0.005 5:0.032 6:0.103 7:0.051 8:0.054 9:0.029 10:0.066 11:0.024 12:0.015 13:0.005 14:0.049 15:0.017 16:0.005 17:0.1536 18:0.1255 19:0.1339 
-2048 1:0.042 2:0.026 3:0.062 4:0.022 5:0.036 6:0.034 7:0.01 8:0.036 9:0.054 10:0.032 11:0.042 12:0.026 13:0.02 14:0.022 15:0.04 16:0.03 17:0.1778 18:0.154 19:0.1359 
-2048 1:0.009 2:0.018 3:0.038 4:0.024 5:0.038 6:0.049 7:0.047 8:0.022 9:0.042 10:0.06 11:0.056 12:0.031 13:0.002 14:0.029 15:0.047 16:0.009 17:0.1891 18:0.1551 19:0.1359 
-2048 1:0.009 2:0.028 3:0.037 4:0.016 5:0.033 6:0.06 7:0.049 8:0.033 9:0.037 10:0.053 11:0.042 12:0.026 13:0.012 14:0.033 15:0.03 16:0.023 17:0.1831 18:0.1514 19:0.145 
-2048 1:0.036 2:0.011 3:0.04 4:0.036 5:0.038 6:0.009 7:0.004 8:0.023 9:0.026 10:0.015 11:0.081 12:0.045 13:0.023 14:0.04 15:0.043 16:0.021 17:0.1806 18:0.1688 19:0.1582 
-434.7852836008238 1:0.045 2:0.026 3:0.032 4:0.03 5:0.034 6:0.032 7:0.009 8:0.03 9:0.026 10:0.024 11:0.045 12:0.036 13:0.028 14:0.024 15:0.045 16:0.015 17:0.2012 18:0.1582 19:0.1599 
-2048 1:0.042 2:0.036 3:0.038 4:0.023 5:0.034 6:0.023 7:0.013 8:0.044 9:0.042 10:0.027 11:0.044 12:0.021 13:0.023 14:0.025 15:0.04 16:0.034 17:0.1841 18:0.1442 19:0.1635 
-2048 1:0.052 2:0.022 3:0.034 4:0.043 5:0.034 6:0.023 7:0.007 8:0.027 9:0.036 10:0.027 11:0.023 12:0.023 13:0.029 14:0.02 15:0.043 16:0.039 17:0.2028 18:0.1437 19:0.1713 
-2048 1:0.043 2:0.026 3:0.047 4:0.034 5:0.04 6:0.036 7:0.009 8:0.032 9:0.038 10:0.017 11:0.032 12:0.026 13:0.026 14:0.038 15:0.028 16:0.036 17:0.1779 18:0.1597 19:0.1552 
-2048 1:0.042 2:0.022 3:0.036 4:0.03 5:0.032 6:0.022 7:0.01 8:0.034 9:0.03 10:0.02 11:0.04 12:0.03 13:0.026 14:0.034 15:0.036 16:0.06 17:0.1844 18:0.1514 19:0.159 
-30.21016187902511 1:0.023 2:0.043 3:0.024 4:0.034 5:0.051 6:0.028 7:0.009 8:0.038 9:0.021 10:0.021 11:0.011 12:0.024 13:0.03 14:0.036 15:0.03 16:0.054 17:0.2077 18:0.1463 19:0.1693 
-772.455890129383 1:0.021 2:0.026 3:0.042 4:0.016 5:0.037 6:0.054 7:0.009 8:0.061 9:0.028 10:0.026 11:0.044 12:0.035 13:0.019 14:0.054 15:0.04 16:0.035 17:0.1715 18:0.1523 19:0.1315 
-2048 1:0.057 2:0.019 3:0.058 4:0.039 5:0.033 6:0.012 7:0.012 8:0.014 9:0.057 10:0.023 11:0.049 12:0.029 13:0.027 14:0.016 15:0.037 16:0.014 17:0.1955 18:0.1594 19:0.15 
-2048 1:0.016 2:0.038 3:0.036 4:0.011 5:0.053 6:0.067 7:0.051 8:0.022 9:0.024 10:0.069 11:0.044 12:0.024 13:0.004 14:0.02 15:0.031 16:0.007 17:0.1991 18:0.1443 19:0.1393 
-2048 1:0.012 2:0.024 3:0.03 4:0.022 5:0.03 6:0.044 7:0.022 8:0.042 9:0.036 10:0.034 11:0.062 12:0.042 13:0.01 14:0.038 15:0.058 16:0.024 17:0.1845 18:0.1552 19:0.1339 
-2048 1:0.043 2:0.03 3:0.036 4:0.03 5:0.032 6:0.038 7:0.006 8:0.045 9:0.028 10:0.02 11:0.022 12:0.028 13:0.034 14:0.034 15:0.036 16:0.038 17:0.1926 18:0.1514 19:0.1599 
-2048 1:0.034 2:0.015 3:0.066 4:0.019 5:0.038 6:0.036 7:0.015 8:0.047 9:0.051 10:0.051 11:0.053 12:0.019 13:0.011 14:0.034 15:0.038 16:0.03 17:0.1638 18:0.1416 19:0.139 
-2048 1:0.046 2:0.021 3:0.057 4:0.019 5:0.046 6:0.057 7:0.004 8:0.044 9:0.027 10:0.046 11:0.05 12:0.017 13:0.023 14:0.027 15:0.029 16:0.019 17:0.1713 18:0.1577 19:0.1393 
-1698.611773931703 1:0.054 2:0.029 3:0.036 4:0.025 5:0.042 6:0.031 7:0.009 8:0.042 9:0.025 10:0.029 11:0.016 12:0.029 13:0.022 14:0.034 15:0.04 16:0.04 17:0.1904 18:0.1487 19:0.158 
-2048 1:0.048 2:0.026 3:0.052 4:0.024 5:0.037 6:0.031 7:0.02 8:0.028 9:0.039 10:0.028 11:0.031 12:0.033 13:0.024 14:0.031 15:0.031 16:0.028 17:0.1899 18:0.1451 19:0.1538 
-2048 1:0.021 2:0.026 3:0.038 4:0.015 5:0.03 6:0.056 7:0.038 8:0.036 9:0.041 10:0.056 11:0.06 12:0.03 13:0.006 14:0.023 15:0.049 16:0.006 17:0.1827 18:0.1447 19:0.1409 
-2048 1:0.027 2:0.018 3:0.051 4:0.027 5:0.049 6:0.04 7:0.022 8:0.035 9:0.04 10:0.042 11:0.022 12:0.031 13:0.009 14:0.047 15:0.038 16:0.038 17:0.1815 18:0.1464 19:0.1377 
-250.7084186861425 1:0.039 2:0.056 3:0.041 4:0.011 5:0.058 6:0.067 7:0.021 8:0.039 9:0.041 10:0.032 11:0.047 12:0.015 13:0.009 14:0.03 15:0.026 16:0.013 17:0.176 18:0.1447 19:0.1362 
-97.47449625392191 1:0.046 2:0.02 3:0.056 4:0.034 5:0.036 6:0.02 7:0.004 8:0.03 9:0.04 10:0.022 11:0.032 12:0.024 13:0.034 14:0.026 15:0.028 16:0.04 17:0.1876 18:0.1664 19:0.1505 
-2048 1:0.034 2:0.009 3:0.053 4:0.025 5:0.039 6:0.032 7:0.03 8:0.037 9:0.032 10:0.057 11:0.039 12:0.025 13:0.014 14:0.039 15:0.032 16:0.034 17:0.1847 18:0.1454 19:0.1374 
-1054.391697337931 1:0.017 2:0.024 3:0.029 4:0.01 5:0.031 6:0.107 7:0.019 8:0.055 9:0.024 10:0.021 11:0.043 12:0.048 13:0.007 14:0.06 15:0.045 16:0.05 17:0.1618 18:0.1181 19:0.1313 
-2048 1:0.009 2:0.016 3:0.048 4:0.014 5:0.041 6:0.07 7:0.023 8:0.048 9:0.029 10:0.059 11:0.063 12:0.025 13:0.005 14:0.039 15:0.043 16:0.025 17:0.1646 18:0.1401 19:0.1399 
-1306.796319904443 1:0.048 2:0.026 3:0.035 4:0.041 5:0.028 6:0.022 7:0.009 8:0.022 9:0.048 10:0.019 11:0.019 12:0.026 13:0.026 14:0.013 15:0.048 16:0.056 17:0.197 18:0.1544 19:0.1642 
-2048 1:0.037 2:0.041 3:0.019 4:0.033 5:0.049 6:0.035 7:0.012 8:0.037 9:0.023 10:0.019 11:0.021 12:0.027 13:0.021 14:0.037 15:0.037 16:0.041 17:0.1975 18:0.1596 19:0.1521 
-2048 1:0.008 2:0.03 3:0.028 4:0.006 5:0.034 6:0.058 7:0.05 8:0.038 9:0.022 10:0.068 11:0.087 12:0.022 13:0.008 14:0.022 15:0.034 16:0.014 17:0.1802 18:0.154 19:0.1343 
-2048 1:0.052 2:0.021 3:0.025 4:0.044 5:0.031 6:0.008 7:0.004 8:0.033 9:0.021 10:0.027 11:0.017 12:0.021 13:0.04 14:0.021 15:0.04 16:0.063 17:0.2119 18:0.1604 19:0.1601 
-2048 1:0.054 2:0.018 3:0.07 4:0.025 5:0.036 6:0.02 7:0.002 8:0.027 9:0.047 10:0.025 11:0.068 12:0.023 13:0.029 14:0.023 15:0.023 16:0.047 17:0.1701 18:0.1521 19:0.1408 
-2048 1:0.019 2:0.023 3:0.029 4:0.027 5:0.021 6:0.033 7:0.014 8:0.043 9:0.021 10:0.033 11:0.031 12:0.029 13:0.035 14:0.023 15:0.041 16:0.06 17:0.2009 18:0.1552 19:0.1621 
-2048 1:0.018 2:0.025 3:0.045 4:0.014 5:0.036 6:0.063 7:0.027 8:0.047 9:0.027 10:0.045 11:0.075 12:0.018 13:0.02 14:0.038 15:0.02 16:0.02 17:0.169 18:0.1424 19:0.1486 
-2048 1:0.038 2:0.034 3:0.027 4:0.029 5:0.044 6:0.034 7:0.01 8:0.042 9:0.025 10:0.036 11:0.023 12:0.017 13:0.023 14:0.025 15:0.04 16:0.044 17:0.1924 18:0.1582 19:0.1586 
-2048 1:0.035 2:0.014 3:0.062 4:0.016 5:0.028 6:0.044 7:0.002 8:0.037 9:0.046 10:0.035 11:0.106 12:0.032 13:0.018 14:0.018 15:0.048 16:0.023 17:0.1629 18:0.1438 19:0.1296 
-2048 1:0.034 2:0.045 3:0.043 4:0.015 5:0.055 6:0.064 7:0.017 8:0.032 9:0.03 10:0.03 11:0.03 12:0.03 13:0.017 14:0.032 15:0.028 16:0.021 17:0.1882 18:0.1541 19:0.1363 
-2048 1:0.046 2:0.028 3:0.028 4:0.053 5:0.028 6:0.004 7:0.006 8:0.018 9:0.028 10:0.011 11:0.015 12:0.029 13:0.053 14:0.013 15:0.035 16:0.04 17:0.2368 18:0.1543 19:0.176 
-2048 1:0.045 2:0.023 3:0.019 4:0.053 5:0.03 6:0.009 7:0 8:0.04 9:0.013 10:0.023 11:0.004 12:0.013 13:0.049 14:0.025 15:0.03 16:0.063 17:0.2176 18:0.1678 19:0.1749 
-1150.726881091807 1:0.02 2:0.016 3:0.063 4:0.018 5:0.034 6:0.057 7:0.011 8:0.041 9:0.048 10:0.045 11:0.048 12:0.027 13:0.018 14:0.023 15:0.045 16:0.025 17:0.1737 18:0.1507 19:0.1369 
-597.7200576603095 1:0.061 2:0.034 3:0.02 4:0.045 5:0.038 6:0.016 7:0.007 8:0.023 9:0.023 10:0.018 11:0.016 12:0.021 13:0.038 14:0.016 15:0.036 16:0.043 17:0.2162 18:0.1601 19:0.1689 
-2048 1:0.055 2:0.02 3:0.023 4:0.043 5:0.021 6:0.014 7:0.005 8:0.034 9:0.014 10:0.012 11:0.007 12:0.034 13:0.052 14:0.027 15:0.032 16:0.053 17:0.2166 18:0.1773 19:0.1597 
-2048 1:0.033 2:0.031 3:0.031 4:0.022 5:0.037 6:0.066 7:0.015 8:0.048 9:0.035 10:0.037 11:0.042 12:0.024 13:0.011 14:0.035 15:0.048 16:0.022 17:0.1744 18:0.1481 19:0.1391 
-2048 1:0.044 2:0.031 3:0.057 4:0.011 5:0.046 6:0.052 7:0.013 8:0.041 9:0.035 10:0.039 11:0.039 12:0.031 13:0.017 14:0.033 15:0.033 16:0.011 17:0.1762 18:0.1464 19:0.1445 
-2048 1:0.015 2:0.031 3:0.031 4:0.018 5:0.055 6:0.07 7:0.037 8:0.033 9:0.018 10:0.062 11:0.033 12:0.026 13:0.007 14:0.031 15:0.04 16:0.007 17:0.1988 18:0.1558 19:0.1335 
-2048 1:0.046 2:0.028 3:0.037 4:0.024 5:0.03 6:0.02 7:0.009 8:0.039 9:0.033 10:0.028 11:0.022 12:0.033 13:0.026 14:0.022 15:0.048 16:0.048 17:0.1927 18:0.1612 19:0.1545 
-182.3324050745555 1:0.103 2:0.044 3:0.046 4:0.021 5:0.05 6:0.014 7:0.011 8:0.021 9:0.046 10:0.011 11:0.037 12:0.023 13:0.016 14:0.025 15:0.023 16:0.05 17:0.1697 18:0.1573 19:0.1326 
-2048 1:0.059 2:0.021 3:0.032 4:0.049 5:0.038 6:0.023 7:0.004 8:0.038 9:0.023 10:0.019 11:0.006 12:0.017 13:0.04 14:0.04 15:0.025 16:0.038 17:0.2092 18:0.137 19:0.18 
-2048 1:0.047 2:0.019 3:0.044 4:0.025 5:0.038 6:0.013 7:0.006 8:0.038 9:0.021 10:0.036 11:0.044 12:0.032 13:0.03 14:0.028 15:0.038 16:0.038 17:0.1933 18:0.1514 19:0.1574 
-2048 1:0.031 2:0.022 3:0.04 4:0.026 5:0.04 6:0.066 7:0.007 8:0.046 9:0.024 10:0.031 11:0.031 12:0.022 13:0.024 14:0.04 15:0.033 16:0.042 17:0.1733 18:0.1524 19:0.15 
-2048 1:0.022 2:0.018 3:0.026 4:0.024 5:0.035 6:0.075 7:0.026 8:0.044 9:0.024 10:0.037 11:0.046 12:0.033 13:0.009 14:0.049 15:0.042 16:0.024 17:0.1742 18:0.1653 19:0.1245 
-2048 1:0.023 2:0.028 3:0.04 4:0.009 5:0.04 6:0.084 7:0.019 8:0.065 9:0.028 10:0.04 11:0.065 12:0.016 13:0.009 14:0.054 15:0.028 16:0.033 17:0.1464 18:0.1356 19:0.137 
-2048 1:0.008 2:0.016 3:0.035 4:0.004 5:0.025 6:0.058 7:0.068 8:0.027 9:0.021 10:0.084 11:0.072 12:0.035 13:0.008 14:0.021 15:0.035 16:0.008 17:0.1936 18:0.1343 19:0.1468 
-2048 1:0.029 2:0.018 3:0.04 4:0.018 5:0.027 6:0.036 7:0.009 8:0.047 9:0.038 10:0.036 11:0.063 12:0.036 13:0.011 14:0.031 15:0.058 16:0.045 17:0.1655 18:0.1462 19:0.1469 
-2048 1:0.03 2:0.021 3:0.032 4:0.021 5:0.025 6:0.051 7:0.035 8:0.032 9:0.035 10:0.042 11:0.049 12:0.032 13:0.016 14:0.03 15:0.039 16:0.028 17:0.1899 18:0.1402 19:0.1509 
-290.9609043127051 1:0.028 2:0.015 3:0.057 4:0.013 5:0.028 6:0.017 7:0.004 8:0.039 9:0.046 10:0.037 11:0.109 12:0.037 13:0.013 14:0.017 15:0.059 16:0.033 17:0.166 18:0.1336 19:0.1448 
-2048 1:0.057 2:0.024 3:0.046 4:0.026 5:0.031 6:0.029 7:0.004 8:0.048 9:0.033 10:0.024 11:0.02 12:0.022 13:0.033 14:0.037 15:0.026 16:0.053 17:0.1771 18:0.1694 19:0.1394 
-2048 1:0.059 2:0.051 3:0.03 4:0.026 5:0.042 6:0.034 7:0.016 8:0.036 9:0.026 10:0.014 11:0.016 12:0.018 13:0.04 14:0.028 15:0.012 16:0.034 17:0.2011 18:0.1455 19:0.1746 
-260.110280312861 1:0.078 2:0.017 3:0.024 4:0.048 5:0.022 6:0.019 7:0.002 8:0.031 9:0.017 10:0.017 11:0.015 12:0.017 13:0.049 14:0.02 15:0.027 16:0.058 17:0.2047 18:0.1488 19:0.1854 
-2048 1:0.04 2:0.024 3:0.054 4:0.028 5:0.034 6:0.01 7:0.01 8:0.028 9:0.042 10:0.032 11:0.072 12:0.02 13:0.03 14:0.016 15:0.03 16:0.046 17:0.1897 18:0.1467 19:0.1505 
-2048 1:0.054 2:0.028 3:0.026 4:0.03 5:0.031 6:0.033 7:0.028 8:0.031 9:0.024 10:0.031 11:0.048 12:0.024 13:0.028 14:0.031 15:0.026 16:0.019 17:0.1928 18:0.1529 19:0.1617 
-2048 1:0.015 2:0.027 3:0.044 4:0.012 5:0.034 6:0.076 7:0.032 8:0.042 9:0.039 10:0.049 11:0.073 12:0.02 13:0.01 14:0.032 15:0.029 16:0.02 17:0.1635 18:0.1447 19:0.1386 
-2048 1:0.028 2:0.019 3:0.024 4:0.037 5:0.03 6:0.028 7:0.011 8:0.037 9:0.028 10:0.028 11:0.024 12:0.039 13:0.022 14:0.032 15:0.06 16:0.03 17:0.2059 18:0.1575 19:0.1575 
-2048 1:0.027 2:0.014 3:0.036 4:0.023 5:0.029 6:0.045 7:0.016 8:0.038 9:0.023 10:0.038 11:0.043 12:0.043 13:0.02 14:0.032 15:0.052 16:0.029 17:0.1893 18:0.1516 19:0.1505 
-2048 1:0.044 2:0.012 3:0.054 4:0.015 5:0.022 6:0.056 7:0.024 8:0.037 9:0.039 10:0.041 11:0.056 12:0.032 13:0.019 14:0.029 15:0.037 16:0.034 17:0.1688 18:0.1378 19:0.1429 
-271.5836597338235 1:0.035 2:0.026 3:0.046 4:0.013 5:0.028 6:0.057 7:0.002 8:0.059 9:0.037 10:0.035 11:0.059 12:0.022 13:0.02 14:0.028 15:0.046 16:0.037 17:0.1585 18:0.1479 19:0.1456 
-2048 1:0.04 2:0.025 3:0.05 4:0.033 5:0.046 6:0.033 7:0.015 8:0.029 9:0.046 10:0.048 11:0.046 12:0.012 13:0.017 14:0.017 15:0.04 16:0.023 17:0.1848 18:0.1549 19:0.1426 
-2048 1:0.046 2:0.027 3:0.037 4:0.037 5:0.039 6:0.01 7:0.008 8:0.035 9:0.033 10:0.027 11:0.027 12:0.021 13:0.029 14:0.029 15:0.037 16:0.046 17:0.2003 18:0.1482 19:0.1623 
-2048 1:0.033 2:0.015 3:0.035 4:0.035 5:0.031 6:0.068 7:0.022 8:0.046 9:0.048 10:0.037 11:0.052 12:0.013 13:0.007 14:0.046 15:0.041 16:0.022 17:0.1618 18:0.1528 19:0.1362 
-856.0056203029302 1:0.066 2:0.025 3:0.066 4:0.012 5:0.049 6:0.039 7:0.012 8:0.049 9:0.039 10:0.044 11:0.029 12:0.015 13:0.015 14:0.044 15:0.017 16:0.047 17:0.16 18:0.1346 19:0.1363 
-2048 1:0.062 2:0.037 3:0.044 4:0.027 5:0.044 6:0.025 7:0.029 8:0.019 9:0.039 10:0.039 11:0.021 12:0.015 13:0.025 14:0.017 15:0.021 16:0.033 17:0.1993 18:0.1629 19:0.1414 
-2048 1:0.002 2:0.026 3:0.02 4:0.01 5:0.032 6:0.077 7:0.079 8:0.026 9:0.014 10:0.083 11:0.053 12:0.024 13:0.01 14:0.028 15:0.022 16:0.002 17:0.2015 18:0.1581 19:0.1285 
-2048 1:0.016 2:0.018 3:0.032 4:0.014 5:0.023 6:0.044 7:0.023 8:0.062 9:0.037 10:0.055 11:0.092 12:0.021 13:0.005 14:0.034 15:0.057 16:0.03 17:0.1601 18:0.1425 19:0.1351 
-2048 1:0.032 2:0.021 3:0.043 4:0.019 5:0.034 6:0.043 7:0.017 8:0.043 9:0.028 10:0.058 11:0.026 12:0.026 13:0.019 14:0.015 15:0.053 16:0.026 17:0.1962 18:0.146 19:0.157 
-1041.265222622205 1:0.005 2:0.014 3:0.016 4:0.021 5:0.018 6:0.057 7:0.018 8:0.048 9:0.021 10:0.039 11:0.027 12:0.059 13:0.009 14:0.034 15:0.084 16:0.043 17:0.2013 18:0.1091 19:0.1765 
-38.38383568638405 1:0.014 2:0.09 3:0.004 4:0.031 5:0.105 6:0.014 7:0.006 8:0.051 9:0.002 10:0.02 11:0.002 12:0.008 13:0.02 14:0.051 15:0.02 16:0.014 17:0.2415 18:0.0941 19:0.2153 
-2048 1:0.028 2:0.019 3:0.037 4:0.021 5:0.021 6:0.033 7:0.03 8:0.04 9:0.042 10:0.044 11:0.051 12:0.033 13:0.012 14:0.028 15:0.053 16:0.035 17:0.1827 18:0.1443 19:0.1478 
-2048 1:0.026 2:0.028 3:0.03 4:0.032 5:0.043 6:0.036 7:0.013 8:0.049 9:0.026 10:0.028 11:0.028 12:0.026 13:0.019 14:0.049 15:0.038 16:0.055 17:0.1882 18:0.1355 19:0.1513 
-2048 1:0.048 2:0.036 3:0.053 4:0.021 5:0.05 6:0.027 7:0.015 8:0.038 9:0.04 10:0.029 11:0.023 12:0.019 13:0.019 14:0.038 15:0.021 16:0.044 17:0.172 18:0.1546 19:0.1521 
-2048 1:0.047 2:0.042 3:0.02 4:0.029 5:0.051 6:0.027 7:0.024 8:0.031 9:0.016 10:0.033 11:0.033 12:0.018 13:0.024 14:0.031 15:0.024 16:0.029 17:0.2059 18:0.1536 19:0.1603 
-2048 1:0.015 2:0.02 3:0.035 4:0.022 5:0.024 6:0.062 7:0.02 8:0.051 9:0.04 10:0.044 11:0.042 12:0.026 13:0.013 14:0.029 15:0.057 16:0.04 17:0.1761 18:0.145 19:0.1399 
-597.8093983914007 1:0.064 2:0.021 3:0.028 4:0.053 5:0.026 6:0.004 7:0.004 8:0.026 9:0.034 10:0.015 11:0.013 12:0.025 13:0.043 14:0.021 15:0.04 16:0.04 17:0.217 18:0.1725 19:0.1538 
-231.2412683782919 1:0.031 2:0.025 3:0.033 4:0.027 5:0.044 6:0.044 7:0.017 8:0.023 9:0.027 10:0.035 11:0.035 12:0.038 13:0.015 14:0.023 15:0.05 16:0.031 17:0.1984 18:0.1442 19:0.1586 
-2048 1:0.012 2:0.017 3:0.015 4:0.015 5:0.01 6:0.082 7:0.057 8:0.06 9:0.027 10:0.06 11:0.075 12:0.017 13:0.01 14:0.047 15:0.032 16:0.02 17:0.1676 18:0.1301 19:0.1436 
-24.39290360273971 1:0.045 2:0.015 3:0.081 4:0.032 5:0.036 6:0.015 7:0.009 8:0.011 9:0.068 10:0.023 11:0.049 12:0.03 13:0.023 14:0.019 15:0.03 16:0.032 17:0.1787 18:0.1477 19:0.1564 
-2048 1:0.06 2:0.027 3:0.031 4:0.033 5:0.033 6:0.029 7:0.005 8:0.033 9:0.018 10:0.022 11:0.022 12:0.027 13:0.038 14:0.022 15:0.031 16:0.054 17:0.1979 18:0.1686 19:0.1504 
-2048 1:0.018 2:0.025 3:0.04 4:0.01 5:0.03 6:0.078 7:0.06 8:0.045 9:0.043 10:0.063 11:0.04 12:0.018 13:0.003 14:0.048 15:0.023 16:0.02 17:0.1709 18:0.1393 19:0.1276 
-2048 1:0.017 2:0.027 3:0.056 4:0.006 5:0.058 6:0.052 7:0.033 8:0.042 9:0.025 10:0.073 11:0.061 12:0.015 13:0.004 14:0.033 15:0.025 16:0.021 17:0.1719 18:0.1388 19:0.1399 
-2048 1:0.039 2:0.026 3:0.026 4:0.041 5:0.026 6:0.03 7:0.009 8:0.03 9:0.045 10:0.017 11:0.063 12:0.024 13:0.022 14:0.024 15:0.05 16:0.032 17:0.1857 18:0.1489 19:0.1619 
-2048 1:0.027 2:0.034 3:0.044 4:0.021 5:0.052 6:0.059 7:0.017 8:0.044 9:0.034 10:0.044 11:0.036 12:0.017 13:0.013 14:0.036 15:0.034 16:0.023 17:0.1821 18:0.1479 19:0.1374 
-2048 1:0.01 2:0.017 3:0.037 4:0.007 5:0.032 6:0.087 7:0.047 8:0.065 9:0.022 10:0.062 11:0.047 12:0.02 13:0.007 14:0.067 15:0.017 16:0.03 17:0.1623 18:0.1437 19:0.1158 
-2048 1:0.036 2:0.027 3:0.061 4:0.015 5:0.027 6:0.041 7:0.039 8:0.036 9:0.058 10:0.046 11:0.053 12:0.019 13:0.015 14:0.029 15:0.024 16:0.027 17:0.1694 18:0.1411 19:0.1375 
-2048 1:0.073 2:0.017 3:0.025 4:0.052 5:0.033 6:0.019 7:0.006 8:0.019 9:0.019 10:0.015 11:0.006 12:0.025 13:0.04 14:0.027 15:0.029 16:0.069 17:0.2099 18:0.1606 19:0.1574 
-2048 1:0.038 2:0.025 3:0.044 4:0.031 5:0.027 6:0.025 7:0.015 8:0.033 9:0.054 10:0.027 11:0.054 12:0.023 13:0.019 14:0.023 15:0.046 16:0.036 17:0.1791 18:0.1476 19:0.1525 
-2048 1:0.037 2:0.039 3:0.024 4:0.03 5:0.058 6:0.084 7:0.009 8:0.035 9:0.017 10:0.03 11:0.022 12:0.013 13:0.017 14:0.032 15:0.028 16:0.035 17:0.183 18:0.1537 19:0.152 
-2048 1:0.04 2:0.023 3:0.042 4:0.021 5:0.037 6:0.048 7:0.042 8:0.027 9:0.033 10:0.06 11:0.067 12:0.01 13:0.015 14:0.023 15:0.021 16:0.021 17:0.1796 18:0.1429 19:0.1493 
-2048 1:0.052 2:0.031 3:0.049 4:0.022 5:0.047 6:0.04 7:0.013 8:0.029 9:0.034 10:0.038 11:0.027 12:0.025 13:0.02 14:0.022 15:0.034 16:0.029 17:0.19 18:0.1518 19:0.1452 
-2048 1:0.039 2:0.039 3:0.009 4:0.039 5:0.036 6:0.03 7:0.006 8:0.056 9:0.015 10:0.017 11:0.004 12:0.015 13:0.032 14:0.043 15:0.032 16:0.069 17:0.1953 18:0.1633 19:0.1618 
-2048 1:0.015 2:0.017 3:0.057 4:0.005 5:0.022 6:0.06 7:0.067 8:0.027 9:0.055 10:0.08 11:0.089 12:0.015 13:0.002 14:0.02 15:0.025 16:0.01 17:0.1673 18:0.1248 19:0.1413 
-461.1715904439644 1:0.031 2:0.02 3:0.024 4:0.049 5:0.033 6:0.051 7:0.002 8:0.048 9:0.022 10:0.022 11:0.016 12:0.007 13:0.038 14:0.04 15:0.026 16:0.051 17:0.1937 18:0.153 19:0.1712 
-2048 1:0.019 2:0.033 3:0.031 4:0.014 5:0.037 6:0.072 7:0.041 8:0.054 9:0.031 10:0.052 11:0.041 12:0.017 13:0.01 14:0.046 15:0.029 16:0.012 17:0.1794 18:0.1418 19:0.1388 
