svm_type c_svc
kernel_type rbf
gamma 0.0078125
nr_class 2
total_sv 316
rho -3.36988
label 1 -1
probA -1.25426
probB 0.190272
nr_sv 148 168
SV
32768 1:-0.251 2:-0.109 3:0.106 4:0.104 5:-0.236 6:-0.389 7:-0.188 8:-0.344 9:-0.079 10:-0.253 11:-0.215 12:-0.194 13:-0.161 14:-0.063 15:-0.254 16:-0.162 17:-0.05 18:-0.008 19:0.025 20:0.025 21:-0.142 22:-0.015 23:0.034 24:-0.103 25:-0.097 26:-0.012 27:-0.289 28:-0.308 29:-0.33 30:-0.185 31:-0.277 32:-0.317 33:-0.293 34:-0.224 35:-0.184 36:-0.281 
32768 1:-0.233 2:-0.124 3:0.161 4:-0.027 5:-0.235 6:-0.341 7:-0.164 8:-0.255 9:-0.078 10:-0.245 11:-0.199 12:-0.241 13:-0.163 14:-0.057 15:-0.275 16:-0.205 17:-0.01 18:0.066 19:0.039 20:-0.001 21:-0.064 22:-0.128 23:-0.06 24:-0.093 25:-0.164 26:-0.067 27:-0.239 28:-0.21 29:-0.358 30:-0.059 31:-0.242 32:-0.223 33:-0.175 34:-0.219 35:-0.06 36:-0.236 
32768 1:-0.259 2:-0.139 3:0.05 4:0.015 5:-0.146 6:-0.437 7:-0.248 8:-0.282 9:-0.087 10:-0.223 11:-0.322 12:-0.189 13:-0.157 14:-0.037 15:-0.193 16:-0.234 17:-0.028 18:-0.051 19:-0.035 20:-0.067 21:-0.155 22:-0.067 23:-0.057 24:-0.12 25:-0.074 26:-0.092 27:-0.206 28:-0.229 29:-0.226 30:-0.09 31:-0.284 32:-0.223 33:-0.233 34:-0.197 35:-0.059 36:-0.219 
32768 1:-0.243 2:-0.114 3:0.011 4:-0.102 5:-0.128 6:-0.361 7:-0.161 8:-0.301 9:-0.058 10:-0.211 11:-0.188 12:-0.226 13:-0.151 14:-0.074 15:-0.232 16:-0.169 17:0.034 18:0.141 19:0.159 20:0.048 21:-0.02 22:-0.116 23:-0.09 24:-0.069 25:-0.125 26:-0.037 27:-0.256 28:-0.226 29:-0.308 30:-0.079 31:-0.223 32:-0.291 33:-0.218 34:-0.221 35:-0.081 36:-0.243 
32768 1:-0.164 2:-0.102 3:0.114 4:0.038 5:-0.078 6:-0.441 7:-0.173 8:-0.222 9:-0.057 10:-0.093 11:-0.19 12:-0.132 13:-0.138 14:-0.024 15:-0.101 16:-0.171 17:-0.036 18:-0.074 19:-0.069 20:-0.07 21:-0.191 22:-0.042 23:-0.035 24:-0.156 25:0.009 26:-0.012 27:-0.117 28:-0.144 29:-0.134 30:-0.064 31:-0.197 32:-0.175 33:-0.203 34:-0.164 35:-0.052 36:-0.185 
32768 1:-0.328 2:-0.147 3:-0.022 4:-0.058 5:-0.135 6:-0.312 7:-0.269 8:-0.196 9:-0.156 10:-0.17 11:-0.22 12:-0.24 13:-0.097 14:-0.077 15:-0.162 16:-0.171 17:-0.052 18:-0.004 19:0.016 20:-0.052 21:-0.089 22:-0.165 23:-0.125 24:-0.061 25:-0.107 26:-0.115 27:-0.229 28:-0.188 29:-0.204 30:-0.084 31:-0.207 32:-0.248 33:-0.186 34:-0.159 35:-0.066 36:-0.184 
32768 1:-0.26 2:-0.137 3:-0.104 4:-0.041 5:-0.2 6:-0.306 7:-0.235 8:-0.283 9:-0.154 10:-0.215 11:-0.225 12:-0.17 13:-0.146 14:-0.117 15:-0.153 16:-0.179 17:-0.045 18:-0.058 19:-0.012 20:-0.042 21:-0.135 22:-0.038 23:-0.045 24:-0.052 25:-0.017 26:-0.04 27:-0.242 28:-0.214 29:-0.216 30:-0.153 31:-0.186 32:-0.233 33:-0.197 34:-0.192 35:-0.124 36:-0.201 
32768 1:-0.302 2:-0.105 3:0.119 4:0.01 5:-0.165 6:-0.254 7:-0.208 8:-0.26 9:-0.126 10:-0.179 11:-0.156 12:-0.225 13:-0.094 14:-0.098 15:-0.127 16:-0.048 17:-0.067 18:-0.081 19:-0.105 20:-0.055 21:-0.098 22:-0.088 23:-0.008 24:-0.089 25:-0.033 26:0.024 27:-0.287 28:-0.268 29:-0.316 30:-0.116 31:-0.261 32:-0.316 33:-0.258 34:-0.191 35:-0.154 36:-0.172 
32768 1:-0.211 2:-0.118 3:0.049 4:-0.071 5:-0.136 6:-0.306 7:-0.223 8:-0.288 9:-0.157 10:-0.153 11:-0.203 12:-0.149 13:-0.146 14:-0.135 15:-0.128 16:-0.152 17:0.035 18:0.051 19:0.006 20:-0.024 21:-0.026 22:-0.041 23:-0.062 24:-0.087 25:0.029 26:-0.03 27:-0.225 28:-0.254 29:-0.258 30:-0.163 31:-0.211 32:-0.208 33:-0.191 34:-0.207 35:-0.133 36:-0.204 
32768 1:-0.303 2:-0.084 3:-0.013 4:0.027 5:-0.138 6:-0.349 7:-0.211 8:-0.292 9:-0.048 10:-0.302 11:-0.332 12:-0.161 13:-0.169 14:0.023 15:-0.258 16:-0.288 17:-0.046 18:-0.032 19:0.007 20:-0.069 21:-0.155 22:-0.054 23:-0.035 24:-0.08 25:-0.096 26:-0.121 27:-0.213 28:-0.174 29:-0.231 30:-0.068 31:-0.171 32:-0.166 33:-0.104 34:-0.206 35:0.027 36:-0.259 
32768 1:-0.34 2:-0.187 3:-0.03 4:-0.031 5:-0.305 6:-0.355 7:-0.309 8:-0.323 9:-0.186 10:-0.342 11:-0.35 12:-0.228 13:-0.192 14:-0.11 15:-0.278 16:-0.268 17:-0 18:0.052 19:0.088 20:-0.025 21:-0.075 22:-0.084 23:-0.093 24:-0.101 25:-0.095 26:-0.108 27:-0.324 28:-0.299 29:-0.25 30:-0.203 31:-0.298 32:-0.251 33:-0.201 34:-0.207 35:-0.101 36:-0.31 
32768 1:-0.308 2:-0.17 3:-0.132 4:-0.031 5:-0.146 6:-0.475 7:-0.249 8:-0.276 9:-0.11 10:-0.243 11:-0.341 12:-0.28 13:-0.171 14:-0.075 15:-0.191 16:-0.259 17:-0.101 18:-0.066 19:0.002 20:-0.115 21:-0.21 22:-0.143 23:-0.087 24:-0.087 25:-0.077 26:-0.094 27:-0.189 28:-0.182 29:-0.172 30:-0.083 31:-0.25 32:-0.302 33:-0.235 34:-0.265 35:-0.067 36:-0.258 
32768 1:-0.345 2:-0.126 3:0.186 4:0.106 5:-0.31 6:-0.35 7:-0.217 8:-0.345 9:-0.122 10:-0.401 11:-0.287 12:-0.311 13:-0.237 14:-0.04 15:-0.366 16:-0.266 17:-0.038 18:-0.087 19:-0.111 20:-0.056 21:-0.132 22:-0.097 23:0.052 24:-0.127 25:-0.103 26:-0.056 27:-0.296 28:-0.286 29:-0.38 30:-0.155 31:-0.255 32:-0.326 33:-0.229 34:-0.261 35:-0.112 36:-0.368 
6073.280740387848 1:-0.217 2:-0.178 3:-0.046 4:-0.042 5:-0.122 6:-0.438 7:-0.234 8:-0.219 9:-0.097 10:-0.189 11:-0.346 12:-0.228 13:-0.192 14:-0.078 15:-0.218 16:-0.33 17:-0.08 18:-0.055 19:-0.005 20:-0.088 21:-0.198 22:-0.064 23:-0.102 24:-0.092 25:-0.066 26:-0.134 27:-0.086 28:-0.085 29:-0.127 30:-0.021 31:-0.17 32:-0.204 33:-0.156 34:-0.227 35:-0.021 36:-0.246 
32768 1:-0.326 2:-0.173 3:0.102 4:-0.033 5:-0.28 6:-0.382 7:-0.208 8:-0.55 9:0.025 10:-0.31 11:-0.334 12:-0.244 13:-0.338 14:0.031 15:-0.328 16:-0.342 17:0.235 18:0.282 19:0.266 20:0.113 21:0.09 22:-0.225 23:-0.191 24:-0.25 25:-0.23 26:-0.234 27:-0.314 28:-0.194 29:-0.451 30:0.004 31:-0.284 32:-0.203 33:-0.124 34:-0.328 35:0.072 36:-0.326 
32768 1:-0.364 2:-0.158 3:0.339 4:0.133 5:-0.314 6:-0.336 7:-0.243 8:-0.37 9:-0.097 10:-0.373 11:-0.286 12:-0.311 13:-0.261 14:-0.016 15:-0.365 16:-0.248 17:0.072 18:0.103 19:0.078 20:0.05 21:-0.028 22:-0.212 23:-0.064 24:-0.245 25:-0.254 26:-0.151 27:-0.322 28:-0.271 29:-0.381 30:-0.103 31:-0.296 32:-0.264 33:-0.198 34:-0.248 35:-0.056 36:-0.319 
32768 1:-0.264 2:-0.179 3:0.056 4:-0.084 5:-0.205 6:-0.32 7:-0.238 8:-0.334 9:-0.112 10:-0.219 11:-0.282 12:-0.198 13:-0.151 14:-0.122 15:-0.164 16:-0.199 17:0.046 18:0.06 19:0.049 20:0.014 21:-0.041 22:-0.075 23:-0.112 24:-0.08 25:-0.061 26:-0.098 27:-0.244 28:-0.213 29:-0.349 30:-0.067 31:-0.277 32:-0.217 33:-0.207 34:-0.215 35:-0.082 36:-0.163 
32768 1:-0.215 2:-0.129 3:-0.09 4:0.004 5:-0.157 6:-0.419 7:-0.173 8:-0.214 9:-0.083 10:-0.212 11:-0.248 12:-0.202 13:-0.18 14:-0.041 15:-0.227 16:-0.298 17:-0.033 18:0.02 19:0.073 20:-0.075 21:-0.15 22:-0.068 23:-0.049 24:-0.07 25:-0.068 26:-0.088 27:-0.108 28:-0.124 29:-0.126 30:-0.069 31:-0.158 32:-0.161 33:-0.121 34:-0.233 35:-0.004 36:-0.272 
32768 1:-0.301 2:-0.253 3:0.616 4:-0.09 5:-0.448 6:-0.357 7:-0.287 8:-0.455 9:-0.178 10:-0.395 11:-0.303 12:-0.272 13:-0.41 14:-0.15 15:-0.371 16:-0.29 17:0.185 18:0.146 19:-0.012 20:0.197 21:0.131 22:-0.089 23:-0.123 24:-0.248 25:-0.105 26:-0.107 27:-0.343 28:-0.311 29:-0.623 30:-0.171 31:-0.319 32:-0.328 33:-0.277 34:-0.385 35:-0.143 36:-0.423 
32768 1:-0.275 2:-0.097 3:0.226 4:0.062 5:-0.116 6:-0.263 7:-0.246 8:-0.226 9:-0.131 10:-0.155 11:-0.234 12:-0.148 13:-0.088 14:-0.062 15:-0.1 16:-0.098 17:0.002 18:0.035 19:-0.003 20:0.011 21:-0.014 22:-0.071 23:-0.058 24:-0.045 25:0.013 26:-0.056 27:-0.233 28:-0.248 29:-0.33 30:-0.065 31:-0.254 32:-0.225 33:-0.234 34:-0.184 35:-0.123 36:-0.133 
32768 1:-0.306 2:-0.171 3:-0.095 4:-0.001 5:-0.184 6:-0.352 7:-0.295 8:-0.26 9:-0.177 10:-0.168 11:-0.267 12:-0.21 13:-0.099 14:-0.097 15:-0.084 16:-0.165 17:-0.038 18:-0.047 19:0.027 20:-0.036 21:-0.158 22:-0.111 23:-0.08 24:-0.057 25:-0.044 26:-0.072 27:-0.238 28:-0.236 29:-0.21 30:-0.137 31:-0.264 32:-0.222 33:-0.237 34:-0.172 35:-0.099 36:-0.145 
32768 1:-0.33 2:-0.164 3:0.117 4:-0.054 5:-0.239 6:-0.375 7:-0.222 8:-0.403 9:-0.046 10:-0.316 11:-0.304 12:-0.289 13:-0.247 14:-0.027 15:-0.318 16:-0.286 17:0.087 18:0.117 19:0.084 20:0.004 21:-0.008 22:-0.241 23:-0.166 24:-0.207 25:-0.271 26:-0.216 27:-0.275 28:-0.19 29:-0.392 30:-0.015 31:-0.266 32:-0.268 33:-0.183 34:-0.276 35:-0.008 36:-0.266 
32768 1:-0.327 2:-0.124 3:-0.018 4:-0.075 5:-0.149 6:-0.31 7:-0.141 8:-0.258 9:-0.056 10:-0.3 11:-0.185 12:-0.314 13:-0.177 14:-0.062 15:-0.325 16:-0.246 17:0.009 18:0.1 19:0.081 20:-0.083 21:-0.021 22:-0.199 23:-0.113 24:-0.115 25:-0.158 26:-0.13 27:-0.183 28:-0.1 29:-0.182 30:-0.039 31:-0.109 32:-0.275 33:-0.094 34:-0.204 35:-0.01 36:-0.35 
32768 1:-0.296 2:-0.146 3:0.13 4:-0.053 5:-0.17 6:-0.264 7:-0.275 8:-0.322 9:-0.132 10:-0.188 11:-0.242 12:-0.18 13:-0.128 14:-0.1 15:-0.131 16:-0.124 17:0.081 18:0.058 19:0.017 20:0.005 21:-0.009 22:-0.085 23:-0.098 24:-0.138 25:-0.015 26:-0.061 27:-0.265 28:-0.271 29:-0.283 30:-0.142 31:-0.261 32:-0.218 33:-0.206 34:-0.139 35:-0.1 36:-0.185 
32768 1:-0.285 2:-0.141 3:-0.009 4:0.042 5:-0.132 6:-0.391 7:-0.204 8:-0.345 9:-0.042 10:-0.202 11:-0.304 12:-0.233 13:-0.188 14:-0.046 15:-0.206 16:-0.256 17:-0.103 18:-0.07 19:-0.027 20:-0.067 21:-0.198 22:-0.075 23:-0.048 24:-0.148 25:-0.085 26:-0.11 27:-0.181 28:-0.139 29:-0.225 30:-0.047 31:-0.2 32:-0.301 33:-0.203 34:-0.236 35:-0.073 36:-0.253 
32768 1:-0.237 2:-0.156 3:0.033 4:0.018 5:-0.173 6:-0.385 7:-0.162 8:-0.294 9:-0.026 10:-0.294 11:-0.266 12:-0.304 13:-0.212 14:-0.052 15:-0.308 16:-0.288 17:-0.046 18:-0.053 19:-0.032 20:-0.117 21:-0.183 22:-0.142 23:-0.047 24:-0.151 25:-0.14 26:-0.079 27:-0.081 28:-0.07 29:-0.187 30:0.009 31:-0.141 32:-0.222 33:-0.116 34:-0.22 35:0.008 36:-0.33 
32768 1:-0.309 2:-0.137 3:0.011 4:-0.059 5:-0.194 6:-0.345 7:-0.214 8:-0.229 9:-0.194 10:-0.242 11:-0.17 12:-0.219 13:-0.132 14:-0.134 15:-0.185 16:-0.147 17:-0.06 18:-0.051 19:-0.042 20:-0.067 21:-0.11 22:-0.044 23:-0.016 24:-0.005 25:0.001 26:0.022 27:-0.259 28:-0.241 29:-0.306 30:-0.138 31:-0.248 32:-0.282 33:-0.242 34:-0.24 35:-0.137 36:-0.257 
32768 1:-0.224 2:-0.08 3:0.139 4:-0.042 5:-0.148 6:-0.305 7:-0.185 8:-0.309 9:-0.073 10:-0.18 11:-0.212 12:-0.174 13:-0.109 14:-0.072 15:-0.177 16:-0.101 17:0.033 18:0.077 19:0.07 20:0.052 21:-0.039 22:-0.076 23:-0.055 24:-0.1 25:-0.109 26:-0.042 27:-0.225 28:-0.271 29:-0.365 30:-0.097 31:-0.291 32:-0.242 33:-0.252 34:-0.199 35:-0.113 36:-0.141 
32768 1:-0.323 2:-0.171 3:-0.032 4:-0.031 5:-0.206 6:-0.421 7:-0.257 8:-0.34 9:-0.083 10:-0.32 11:-0.389 12:-0.295 13:-0.207 14:-0.067 15:-0.279 16:-0.305 17:-0.03 18:0.003 19:0.018 20:-0.107 21:-0.12 22:-0.149 23:-0.092 24:-0.13 25:-0.133 26:-0.163 27:-0.216 28:-0.224 29:-0.272 30:-0.074 31:-0.299 32:-0.269 33:-0.191 34:-0.283 35:-0.019 36:-0.284 
32768 1:-0.223 2:-0.165 3:-0.077 4:-0.124 5:-0.111 6:-0.327 7:-0.167 8:-0.247 9:-0.091 10:-0.199 11:-0.242 12:-0.242 13:-0.167 14:-0.109 15:-0.183 16:-0.268 17:0.01 18:0.04 19:0.065 20:-0.053 21:-0.1 22:-0.118 23:-0.137 24:-0.054 25:-0.004 26:-0.107 27:-0.042 28:0.002 29:-0.143 30:0.01 31:-0.031 32:-0.168 33:-0.097 34:-0.204 35:-0.018 36:-0.238 
32768 1:-0.162 2:-0.047 3:0.289 4:-0.045 5:-0.07 6:-0.157 7:-0.12 8:-0.169 9:-0.16 10:-0.088 11:-0.025 12:-0.097 13:-0.072 14:-0.146 15:-0.074 16:0 17:0.05 18:0.038 19:-0.044 20:-0.019 21:-0.038 22:-0.041 23:-0.031 24:-0.145 25:0.018 26:0.031 27:-0.109 28:-0.148 29:-0.193 30:-0.09 31:-0.131 32:-0.071 33:-0.072 34:-0.099 35:-0.07 36:-0.104 
32768 1:-0.237 2:-0.142 3:-0.031 4:-0.053 5:-0.17 6:-0.324 7:-0.243 8:-0.322 9:-0.091 10:-0.175 11:-0.258 12:-0.25 13:-0.161 14:-0.064 15:-0.196 16:-0.184 17:0.048 18:0.08 19:0.115 20:-0.005 21:-0.072 22:-0.19 23:-0.14 24:-0.153 25:-0.133 26:-0.121 27:-0.199 28:-0.207 29:-0.203 30:-0.093 31:-0.238 32:-0.236 33:-0.185 34:-0.13 35:-0.076 36:-0.225 
32768 1:-0.311 2:-0.166 3:-0.013 4:-0.04 5:-0.168 6:-0.439 7:-0.178 8:-0.31 9:-0.053 10:-0.307 11:-0.298 12:-0.338 13:-0.205 14:-0.08 15:-0.348 16:-0.31 17:-0.065 18:0.033 19:0.06 20:-0.065 21:-0.132 22:-0.171 23:-0.113 24:-0.106 25:-0.196 26:-0.148 27:-0.174 28:-0.096 29:-0.26 30:0.005 31:-0.188 32:-0.339 33:-0.183 34:-0.268 35:-0.056 36:-0.345 
32768 1:-0.299 2:-0.209 3:0.098 4:-0.082 5:-0.36 6:-0.389 7:-0.256 8:-0.439 9:-0.099 10:-0.331 11:-0.274 12:-0.297 13:-0.285 14:-0.077 15:-0.383 16:-0.295 17:0.078 18:0.064 19:0.086 20:0.073 21:-0.057 22:-0.142 23:-0.104 24:-0.051 25:-0.156 26:-0.087 27:-0.323 28:-0.258 29:-0.624 30:-0.037 31:-0.322 32:-0.306 33:-0.207 34:-0.408 35:-0.007 36:-0.397 
32768 1:-0.308 2:-0.197 3:0.171 4:-0.046 5:-0.266 6:-0.388 7:-0.308 8:-0.357 9:-0.135 10:-0.288 11:-0.329 12:-0.201 13:-0.193 14:-0.09 15:-0.196 16:-0.231 17:0.049 18:0.051 19:0.011 20:0.009 21:-0.015 22:-0.063 23:-0.103 24:-0.12 25:-0.065 26:-0.109 27:-0.319 28:-0.311 29:-0.405 30:-0.15 31:-0.321 32:-0.299 33:-0.285 34:-0.269 35:-0.097 36:-0.264 
9590.613588370077 1:-0.305 2:-0.166 3:-0.111 4:-0.067 5:-0.198 6:-0.45 7:-0.258 8:-0.282 9:-0.142 10:-0.254 11:-0.323 12:-0.191 13:-0.148 14:-0.115 15:-0.172 16:-0.219 17:-0.111 18:-0.057 19:0.02 20:-0.056 21:-0.181 22:-0.044 23:-0.083 24:-0.042 25:-0.089 26:-0.107 27:-0.259 28:-0.24 29:-0.261 30:-0.131 31:-0.284 32:-0.325 33:-0.316 34:-0.261 35:-0.152 36:-0.222 
32768 1:-0.259 2:-0.173 3:0.107 4:-0.082 5:-0.163 6:-0.38 7:-0.21 8:-0.279 9:-0.104 10:-0.243 11:-0.268 12:-0.217 13:-0.185 14:-0.117 15:-0.17 16:-0.228 17:-0.022 18:-0.022 19:-0.058 20:-0.084 21:-0.103 22:-0.078 23:-0.091 24:-0.144 25:-0.025 26:-0.056 27:-0.173 28:-0.141 29:-0.213 30:-0.07 31:-0.183 32:-0.243 33:-0.187 34:-0.232 35:-0.051 36:-0.23 
32768 1:-0.243 2:-0.061 3:0.318 4:0.032 5:-0.128 6:-0.205 7:-0.201 8:-0.356 9:-0.047 10:-0.196 11:-0.25 12:-0.191 13:-0.177 14:0.004 15:-0.251 16:-0.18 17:0.076 18:0.087 19:-0 20:0.019 21:-0.035 22:-0.154 23:-0.079 24:-0.226 25:-0.182 26:-0.105 27:-0.225 28:-0.19 29:-0.381 30:-0.01 31:-0.194 32:-0.136 33:-0.058 34:-0.172 35:0.019 36:-0.143 
32768 1:-0.268 2:-0.198 3:0.292 4:-0.207 5:-0.299 6:-0.27 7:-0.293 8:-0.402 9:-0.209 10:-0.287 11:-0.282 12:-0.144 13:-0.24 14:-0.221 15:-0.161 16:-0.179 17:0.206 18:0.131 19:0.04 20:0.15 21:0.064 22:-0.044 23:-0.118 24:-0.09 25:-0.013 26:-0.045 27:-0.284 28:-0.309 29:-0.563 30:-0.161 31:-0.316 32:-0.132 33:-0.201 34:-0.295 35:-0.123 36:-0.166 
32768 1:-0.365 2:-0.258 3:0.403 4:-0.158 5:-0.44 6:-0.326 7:-0.271 8:-0.492 9:-0.008 10:-0.412 11:-0.342 12:-0.288 13:-0.362 14:-0.05 15:-0.381 16:-0.299 17:0.267 18:0.347 19:0.22 20:0.25 21:0.228 22:-0.279 23:-0.302 24:-0.271 25:-0.351 26:-0.276 27:-0.441 28:-0.292 29:-0.734 30:0.018 31:-0.382 32:-0.264 33:-0.219 34:-0.403 35:0.027 36:-0.302 
32768 1:-0.26 2:-0.111 3:0.027 4:-0.034 5:-0.15 6:-0.357 7:-0.17 8:-0.191 9:-0.088 10:-0.242 11:-0.195 12:-0.215 13:-0.128 14:-0.076 15:-0.219 16:-0.179 17:-0.051 18:-0.046 19:-0.024 20:-0.073 21:-0.128 22:-0.103 23:-0.044 24:-0.092 25:-0.092 26:-0.05 27:-0.173 28:-0.186 29:-0.16 30:-0.095 31:-0.189 32:-0.221 33:-0.195 34:-0.167 35:-0.076 36:-0.239 
32768 1:-0.226 2:-0.102 3:-0.02 4:-0.053 5:-0.154 6:-0.301 7:-0.22 8:-0.244 9:-0.086 10:-0.194 11:-0.247 12:-0.119 13:-0.105 14:-0.023 15:-0.146 16:-0.2 17:0.053 18:0.073 19:0.084 20:-0.021 21:-0.038 22:-0.056 23:-0.095 24:0.008 25:-0.063 26:-0.113 27:-0.189 28:-0.177 29:-0.315 30:-0.036 31:-0.199 32:-0.122 33:-0.122 34:-0.209 35:0.029 36:-0.148 
32768 1:-0.294 2:-0.18 3:0.263 4:0.038 5:-0.321 6:-0.333 7:-0.226 8:-0.342 9:-0.114 10:-0.326 11:-0.269 12:-0.269 13:-0.229 14:-0.045 15:-0.301 16:-0.257 17:0.111 18:0.079 19:0.068 20:0.049 21:-0.046 22:-0.198 23:-0.093 24:-0.187 25:-0.234 26:-0.168 27:-0.268 28:-0.221 29:-0.416 30:-0.072 31:-0.306 32:-0.201 33:-0.18 34:-0.231 35:-0.027 36:-0.254 
32768 1:-0.228 2:-0.175 3:-0.019 4:-0.132 5:-0.178 6:-0.369 7:-0.164 8:-0.311 9:-0.081 10:-0.182 11:-0.148 12:-0.211 13:-0.169 14:-0.145 15:-0.161 16:-0.191 17:0.017 18:0.052 19:0.073 20:0.025 21:-0.07 22:-0.086 23:-0.107 24:-0.05 25:-0.041 26:-0.042 27:-0.197 28:-0.14 29:-0.319 30:-0.055 31:-0.138 32:-0.277 33:-0.228 34:-0.269 35:-0.103 36:-0.232 
32768 1:-0.334 2:-0.192 3:0.238 4:-0.174 5:-0.169 6:-0.287 7:-0.307 8:-0.336 9:-0.207 10:-0.216 11:-0.247 12:-0.233 13:-0.179 14:-0.163 15:-0.152 16:-0.14 17:0.078 18:0.062 19:0.008 20:0.027 21:-0.028 22:-0.132 23:-0.152 24:-0.099 25:-0.001 26:-0.014 27:-0.227 28:-0.213 29:-0.422 30:-0.096 31:-0.218 32:-0.221 33:-0.166 34:-0.252 35:-0.058 36:-0.226 
32768 1:-0.344 2:-0.136 3:0.073 4:0.156 5:-0.351 6:-0.331 7:-0.224 8:-0.312 9:-0.131 10:-0.387 11:-0.253 12:-0.298 13:-0.199 14:-0.015 15:-0.352 16:-0.229 17:-0.034 18:-0.077 19:-0.046 20:-0.051 21:-0.13 22:-0.089 23:0.056 24:-0.095 25:-0.121 26:-0.038 27:-0.334 28:-0.3 29:-0.312 30:-0.158 31:-0.288 32:-0.317 33:-0.257 34:-0.224 35:-0.115 36:-0.33 
32768 1:-0.327 2:-0.191 3:0.174 4:-0.158 5:-0.222 6:-0.35 7:-0.3 8:-0.308 9:-0.214 10:-0.331 11:-0.32 12:-0.189 13:-0.189 14:-0.179 15:-0.195 16:-0.201 17:0.01 18:-0.049 19:-0.075 20:-0.025 21:-0.113 22:-0.068 23:-0.095 24:-0.069 25:-0.054 26:-0.032 27:-0.256 28:-0.246 29:-0.421 30:-0.104 31:-0.299 32:-0.174 33:-0.204 34:-0.278 35:-0.069 36:-0.191 
32768 1:-0.304 2:-0.153 3:0.076 4:0.012 5:-0.195 6:-0.421 7:-0.232 8:-0.297 9:-0.105 10:-0.255 11:-0.277 12:-0.256 13:-0.178 14:-0.064 15:-0.223 16:-0.216 17:-0.062 18:-0.059 19:-0.05 20:-0.072 21:-0.15 22:-0.146 23:-0.064 24:-0.158 25:-0.137 26:-0.106 27:-0.231 28:-0.218 29:-0.268 30:-0.088 31:-0.286 32:-0.283 33:-0.262 34:-0.243 35:-0.089 36:-0.231 
32768 1:-0.31 2:-0.11 3:0.503 4:0.033 5:-0.171 6:-0.255 7:-0.223 8:-0.315 9:-0.102 10:-0.202 11:-0.211 12:-0.165 13:-0.176 14:-0.029 15:-0.175 16:-0.146 17:0.003 18:0.015 19:-0.09 20:0.035 21:-0.053 22:-0.077 23:-0.076 24:-0.282 25:-0.089 26:-0.062 27:-0.272 28:-0.187 29:-0.31 30:-0.066 31:-0.194 32:-0.216 33:-0.165 34:-0.129 35:-0.064 36:-0.173 
32768 1:-0.233 2:-0.111 3:0.076 4:0.037 5:-0.163 6:-0.307 7:-0.163 8:-0.308 9:-0.058 10:-0.189 11:-0.192 12:-0.173 13:-0.148 14:-0.039 15:-0.163 16:-0.158 17:0.06 18:0.079 19:0.081 20:0.007 21:-0.018 22:-0.066 23:-0.054 24:-0.094 25:-0.036 26:-0.071 27:-0.183 28:-0.177 29:-0.261 30:-0.065 31:-0.202 32:-0.224 33:-0.2 34:-0.182 35:-0.071 36:-0.207 
32768 1:-0.403 2:-0.189 3:0.082 4:-0.022 5:-0.307 6:-0.365 7:-0.353 8:-0.326 9:-0.21 10:-0.38 11:-0.366 12:-0.329 13:-0.205 14:-0.102 15:-0.366 16:-0.266 17:-0.064 18:-0.035 19:-0.04 20:-0.101 21:-0.113 22:-0.126 23:-0.075 24:-0.13 25:-0.15 26:-0.094 27:-0.327 28:-0.318 29:-0.316 30:-0.177 31:-0.308 32:-0.34 33:-0.214 34:-0.265 35:-0.075 36:-0.376 
23299.76219605076 1:-0.241 2:-0.099 3:0.381 4:0.018 5:-0.128 6:-0.32 7:-0.11 8:-0.4 9:0.039 10:-0.316 11:-0.3 12:-0.281 13:-0.302 14:0.028 15:-0.365 16:-0.359 17:0.087 18:0.1 19:-0.005 20:-0.057 21:-0.08 22:-0.241 23:-0.134 24:-0.396 25:-0.233 26:-0.231 27:-0.08 28:-0.005 29:-0.217 30:0.062 31:-0.059 32:-0.15 33:0.009 34:-0.151 35:0.087 36:-0.329 
32768 1:-0.264 2:-0.103 3:-0.021 4:-0.02 5:-0.172 6:-0.435 7:-0.156 8:-0.295 9:-0.052 10:-0.301 11:-0.261 12:-0.23 13:-0.189 14:-0.048 15:-0.288 16:-0.247 17:-0.08 18:-0.032 19:0.02 20:-0.06 21:-0.172 22:-0.093 23:-0.032 24:-0.091 25:-0.135 26:-0.065 27:-0.237 28:-0.189 29:-0.262 30:-0.07 31:-0.219 32:-0.294 33:-0.213 34:-0.259 35:-0.07 36:-0.309 
32768 1:-0.185 2:-0.116 3:0.225 4:-0.013 5:-0.104 6:-0.277 7:-0.167 8:-0.277 9:-0.037 10:-0.161 11:-0.225 12:-0.186 13:-0.163 14:-0.03 15:-0.192 16:-0.22 17:0.023 18:0.051 19:-0.014 20:-0.044 21:-0.06 22:-0.114 23:-0.113 24:-0.159 25:-0.066 26:-0.13 27:-0.09 28:-0.061 29:-0.271 30:0.046 31:-0.108 32:-0.142 33:-0.08 34:-0.188 35:0.018 36:-0.212 
32768 1:-0.334 2:-0.146 3:0.399 4:-0.045 5:-0.258 6:-0.312 7:-0.181 8:-0.306 9:-0.067 10:-0.275 11:-0.131 12:-0.304 13:-0.203 14:-0.053 15:-0.254 16:-0.092 17:0.127 18:0.194 19:0.092 20:0.093 21:0.091 22:-0.249 23:-0.12 24:-0.258 25:-0.171 26:-0.019 27:-0.353 28:-0.302 29:-0.374 30:-0.124 31:-0.269 32:-0.277 33:-0.247 34:-0.178 35:-0.078 36:-0.244 
32768 1:-0.358 2:-0.186 3:0.161 4:-0.124 5:-0.206 6:-0.326 7:-0.248 8:-0.304 9:-0.2 10:-0.255 11:-0.213 12:-0.262 13:-0.2 14:-0.18 15:-0.197 16:-0.189 17:-0.04 18:0.002 19:-0.042 20:0.001 21:-0.063 22:-0.101 23:-0.096 24:-0.104 25:-0.054 26:-0.021 27:-0.315 28:-0.223 29:-0.371 30:-0.125 31:-0.218 32:-0.317 33:-0.216 34:-0.303 35:-0.134 36:-0.227 
32768 1:-0.22 2:-0.17 3:-0.009 4:-0.013 5:-0.228 6:-0.392 7:-0.228 8:-0.199 9:-0.137 10:-0.207 11:-0.222 12:-0.204 13:-0.109 14:-0.124 15:-0.138 16:-0.167 17:-0.118 18:-0.098 19:-0.074 20:-0.094 21:-0.163 22:0.005 23:-0.002 24:-0.019 25:0.038 26:0.037 27:-0.225 28:-0.249 29:-0.215 30:-0.175 31:-0.221 32:-0.327 33:-0.291 34:-0.221 35:-0.162 36:-0.263 
32768 1:-0.37 2:-0.168 3:-0.076 4:-0.094 5:-0.185 6:-0.321 7:-0.287 8:-0.146 9:-0.223 10:-0.242 11:-0.234 12:-0.264 13:-0.084 14:-0.142 15:-0.188 16:-0.168 17:-0.066 18:-0.031 19:-0.008 20:-0.117 21:-0.124 22:-0.148 23:-0.098 24:-0.007 25:-0.06 26:-0.046 27:-0.209 28:-0.21 29:-0.169 30:-0.144 31:-0.241 32:-0.202 33:-0.143 34:-0.177 35:-0.061 36:-0.25 
17285.05965936862 1:-0.372 2:-0.207 3:-0.039 4:-0.084 5:-0.168 6:-0.452 7:-0.232 8:-0.336 9:-0.059 10:-0.306 11:-0.353 12:-0.394 13:-0.227 14:-0.089 15:-0.309 16:-0.323 17:-0.124 18:-0.054 19:-0.007 20:-0.108 21:-0.209 22:-0.249 23:-0.146 24:-0.168 25:-0.187 26:-0.151 27:-0.21 28:-0.109 29:-0.22 30:-0.007 31:-0.2 32:-0.367 33:-0.175 34:-0.27 35:-0.014 36:-0.327 
32768 1:-0.268 2:-0.146 3:-0.097 4:-0.058 5:-0.152 6:-0.453 7:-0.237 8:-0.272 9:-0.149 10:-0.193 11:-0.244 12:-0.204 13:-0.15 14:-0.112 15:-0.164 16:-0.184 17:-0.051 18:-0.076 19:0.002 20:-0.029 21:-0.191 22:-0.068 23:-0.05 24:-0.052 25:-0.046 26:-0.007 27:-0.22 28:-0.231 29:-0.205 30:-0.137 31:-0.264 32:-0.263 33:-0.287 34:-0.202 35:-0.139 36:-0.195 
32768 1:-0.327 2:-0.148 3:0.007 4:-0.153 5:-0.182 6:-0.342 7:-0.267 8:-0.274 9:-0.157 10:-0.263 11:-0.292 12:-0.191 13:-0.151 14:-0.12 15:-0.218 16:-0.208 17:-0.038 18:-0.015 19:0.036 20:-0.004 21:-0.138 22:-0.092 23:-0.122 24:-0.074 25:-0.081 26:-0.078 27:-0.215 28:-0.198 29:-0.265 30:-0.092 31:-0.226 32:-0.194 33:-0.178 34:-0.207 35:-0.057 36:-0.214 
32768 1:-0.349 2:-0.068 3:-0.017 4:-0.022 5:-0.158 6:-0.252 7:-0.297 8:-0.142 9:-0.227 10:-0.22 11:-0.216 12:-0.2 13:-0.011 14:-0.09 15:-0.125 16:0.019 17:-0.137 18:-0.111 19:-0.07 20:-0.06 21:-0.132 22:-0.087 23:-0 24:-0.013 25:-0.073 26:0.061 27:-0.329 28:-0.372 29:-0.175 30:-0.229 31:-0.325 32:-0.277 33:-0.269 34:-0.106 35:-0.155 36:-0.107 
32768 1:-0.291 2:-0.092 3:0.065 4:-0.028 5:-0.15 6:-0.264 7:-0.131 8:-0.184 9:-0.094 10:-0.263 11:-0.118 12:-0.244 13:-0.107 14:-0.066 15:-0.218 16:-0.112 17:0.007 18:0.044 19:0.037 20:-0.032 21:-0.03 22:-0.139 23:-0.051 24:-0.105 25:-0.087 26:-0.021 27:-0.191 28:-0.164 29:-0.124 30:-0.115 31:-0.141 32:-0.219 33:-0.167 34:-0.1 35:-0.073 36:-0.219 
32768 1:-0.325 2:-0.117 3:0.095 4:0.01 5:-0.101 6:-0.355 7:-0.132 8:-0.367 9:0.003 10:-0.31 11:-0.285 12:-0.291 13:-0.26 14:0.006 15:-0.303 16:-0.345 17:-0.042 18:-0.054 19:-0.042 20:-0.099 21:-0.214 22:-0.211 23:-0.086 24:-0.259 25:-0.191 26:-0.166 27:-0.073 28:0.022 29:-0.155 30:0.051 31:-0.029 32:-0.172 33:-0.024 34:-0.177 35:0.075 36:-0.285 
32768 1:-0.3 2:-0.141 3:-0.041 4:0.032 5:-0.146 6:-0.489 7:-0.269 8:-0.348 9:-0.051 10:-0.21 11:-0.372 12:-0.214 13:-0.198 14:0.003 15:-0.22 16:-0.295 17:-0.112 18:-0.139 19:-0.055 20:-0.078 21:-0.281 22:-0.128 23:-0.061 24:-0.169 25:-0.136 26:-0.111 27:-0.26 28:-0.206 29:-0.209 30:-0.068 31:-0.267 32:-0.274 33:-0.226 34:-0.208 35:-0.039 36:-0.252 
32768 1:-0.31 2:-0.219 3:0.016 4:-0.211 5:-0.169 6:-0.325 7:-0.356 8:-0.372 9:-0.183 10:-0.111 11:-0.316 12:-0.143 13:-0.114 14:-0.199 15:0.013 16:-0.117 17:0.05 18:0.067 19:0.076 20:0.091 21:-0.035 22:-0.052 23:-0.156 24:-0.015 25:0.063 26:-0.012 27:-0.327 28:-0.316 29:-0.456 30:-0.12 31:-0.349 32:-0.234 33:-0.28 34:-0.255 35:-0.135 36:-0.067 
32768 1:-0.184 2:-0.099 3:0.104 4:-0.102 5:-0.102 6:-0.209 7:-0.13 8:-0.142 9:-0.157 10:-0.152 11:-0.078 12:-0.143 13:-0.095 14:-0.157 15:-0.112 16:-0.092 17:-0.042 18:-0.014 19:-0.057 20:-0.03 21:-0.059 22:-0.023 23:-0.065 24:-0.112 25:0.025 26:-0.002 27:-0.131 28:-0.091 29:-0.058 30:-0.129 31:-0.033 32:-0.189 33:-0.148 34:-0.063 35:-0.158 36:-0.158 
32768 1:-0.484 2:-0.205 3:0.329 4:0.171 5:-0.487 6:-0.425 7:-0.387 8:-0.391 9:-0.286 10:-0.499 11:-0.398 12:-0.346 13:-0.315 14:-0.083 15:-0.457 16:-0.338 17:-0.03 18:-0.048 19:-0.085 20:-0.022 21:-0.097 22:-0.103 23:0.039 24:-0.169 25:-0.178 26:-0.115 27:-0.457 28:-0.439 29:-0.468 30:-0.296 31:-0.409 32:-0.397 33:-0.321 34:-0.339 35:-0.207 36:-0.468 
32768 1:-0.27 2:-0.101 3:0.195 4:0.017 5:-0.181 6:-0.33 7:-0.21 8:-0.217 9:-0.097 10:-0.184 11:-0.17 12:-0.194 13:-0.114 14:-0.035 15:-0.174 16:-0.128 17:0.039 18:0.037 19:-0.01 20:-0.028 21:-0.036 22:-0.122 23:-0.04 24:-0.166 25:-0.097 26:-0.028 27:-0.268 28:-0.297 29:-0.215 30:-0.163 31:-0.273 32:-0.209 33:-0.221 34:-0.106 35:-0.09 36:-0.204 
32768 1:-0.34 2:-0.195 3:0.361 4:0.006 5:-0.45 6:-0.434 7:-0.283 8:-0.358 9:-0.15 10:-0.381 11:-0.315 12:-0.265 13:-0.281 14:-0.098 15:-0.338 16:-0.249 17:0.092 18:0.116 19:0.038 20:0.086 21:0.027 22:-0.091 23:-0.035 24:-0.252 25:-0.159 26:-0.058 27:-0.461 28:-0.492 29:-0.411 30:-0.296 31:-0.486 32:-0.323 33:-0.345 34:-0.216 35:-0.189 36:-0.34 
32768 1:-0.314 2:-0.126 3:0.264 4:-0.001 5:-0.222 6:-0.316 7:-0.163 8:-0.403 9:0 10:-0.318 11:-0.246 12:-0.217 13:-0.245 14:0.012 15:-0.321 16:-0.26 17:0.094 18:0.087 19:0.055 20:0.06 21:-0.035 22:-0.139 23:-0.109 24:-0.23 25:-0.21 26:-0.145 27:-0.257 28:-0.127 29:-0.363 30:0.014 31:-0.169 32:-0.236 33:-0.141 34:-0.214 35:0.012 36:-0.298 
32768 1:-0.288 2:-0.15 3:-0.029 4:-0.04 5:-0.182 6:-0.394 7:-0.269 8:-0.299 9:-0.149 10:-0.199 11:-0.306 12:-0.171 13:-0.162 14:-0.11 15:-0.127 16:-0.204 17:-0.09 18:-0.101 19:-0.04 20:-0.034 21:-0.208 22:-0.021 23:-0.023 24:-0.096 25:-0.049 26:-0.036 27:-0.273 28:-0.276 29:-0.256 30:-0.157 31:-0.3 32:-0.235 33:-0.255 34:-0.224 35:-0.117 36:-0.155 
12085.58761732829 1:-0.328 2:-0.174 3:-0.038 4:0.07 5:-0.23 6:-0.543 7:-0.329 8:-0.268 9:-0.177 10:-0.221 11:-0.34 12:-0.228 13:-0.144 14:-0.063 15:-0.151 16:-0.205 17:-0.192 18:-0.176 19:-0.105 20:-0.087 21:-0.242 22:-0.007 23:0.012 24:-0.059 25:0.008 26:-0.004 27:-0.354 28:-0.379 29:-0.251 30:-0.236 31:-0.369 32:-0.443 33:-0.432 34:-0.281 35:-0.198 36:-0.254 
32768 1:-0.235 2:-0.154 3:-0.079 4:-0.096 5:-0.083 6:-0.33 7:-0.164 8:-0.094 9:-0.193 10:-0.135 11:-0.107 12:-0.214 13:-0.084 14:-0.186 15:-0.084 16:-0.105 17:-0.108 18:-0.095 19:-0.064 20:-0.075 21:-0.146 22:-0.009 23:-0.029 24:0.011 25:0.083 26:0.059 27:-0.119 28:-0.109 29:-0.069 30:-0.101 31:-0.102 32:-0.254 33:-0.231 34:-0.178 35:-0.152 36:-0.161 
32768 1:-0.419 2:-0.204 3:0.345 4:0.161 5:-0.524 6:-0.44 7:-0.293 8:-0.397 9:-0.126 10:-0.459 11:-0.306 12:-0.343 13:-0.314 14:0.029 15:-0.475 16:-0.329 17:0.044 18:0.045 19:-0.04 20:-0.024 21:0.016 22:-0.165 23:-0.032 24:-0.215 25:-0.259 26:-0.159 27:-0.469 28:-0.401 29:-0.533 30:-0.172 31:-0.411 32:-0.389 33:-0.304 34:-0.371 35:-0.063 36:-0.469 
32768 1:-0.219 2:-0.083 3:-0.046 4:-0.026 5:-0.091 6:-0.313 7:-0.156 8:-0.215 9:-0.073 10:-0.182 11:-0.191 12:-0.156 13:-0.105 14:-0.056 15:-0.161 16:-0.143 17:-0.057 18:-0.046 19:-0.001 20:-0.036 21:-0.135 22:-0.057 23:-0.038 24:-0.035 25:-0.068 26:-0.035 27:-0.155 28:-0.154 29:-0.194 30:-0.05 31:-0.165 32:-0.203 33:-0.187 34:-0.189 35:-0.075 36:-0.142 
32768 1:-0.194 2:-0.109 3:0.077 4:-0.042 5:-0.122 6:-0.263 7:-0.08 8:-0.213 9:-0.05 10:-0.212 11:-0.121 12:-0.226 13:-0.135 14:-0.077 15:-0.212 16:-0.173 17:0.098 18:0.135 19:0.088 20:-0.029 21:0.015 22:-0.136 23:-0.089 24:-0.112 25:-0.073 26:-0.092 27:-0.09 28:-0.058 29:-0.153 30:-0.007 31:-0.109 32:-0.136 33:-0.09 34:-0.111 35:-0.033 36:-0.203 
32768 1:-0.308 2:-0.198 3:-0.1 4:-0.035 5:-0.18 6:-0.514 7:-0.307 8:-0.289 9:-0.144 10:-0.208 11:-0.355 12:-0.27 13:-0.191 14:-0.084 15:-0.198 16:-0.282 17:-0.122 18:-0.082 19:-0.009 20:-0.115 21:-0.227 22:-0.12 23:-0.099 24:-0.07 25:-0.08 26:-0.102 27:-0.226 28:-0.218 29:-0.259 30:-0.076 31:-0.283 32:-0.341 33:-0.266 34:-0.331 35:-0.069 36:-0.299 
32768 1:-0.383 2:-0.168 3:0.257 4:0.09 5:-0.376 6:-0.387 7:-0.303 8:-0.342 9:-0.138 10:-0.362 11:-0.275 12:-0.297 13:-0.23 14:-0.001 15:-0.359 16:-0.241 17:-0.001 18:-0.064 19:-0.098 20:-0.056 21:-0.102 22:-0.174 23:-0.035 24:-0.169 25:-0.157 26:-0.08 27:-0.376 28:-0.354 29:-0.445 30:-0.175 31:-0.335 32:-0.314 33:-0.259 34:-0.259 35:-0.06 36:-0.39 
32768 1:-0.365 2:-0.103 3:0.157 4:-0.048 5:-0.111 6:-0.31 7:-0.223 8:-0.336 9:-0.1 10:-0.225 11:-0.226 12:-0.261 13:-0.17 14:-0.054 15:-0.199 16:-0.161 17:-0.002 18:0.013 19:-0.027 20:-0.037 21:-0.072 22:-0.216 23:-0.108 24:-0.177 25:-0.149 26:-0.099 27:-0.238 28:-0.18 29:-0.33 30:-0.041 31:-0.2 32:-0.245 33:-0.149 34:-0.234 35:-0.017 36:-0.179 
32768 1:-0.344 2:-0.099 3:-0.057 4:-0.074 5:-0.162 6:-0.293 7:-0.21 8:-0.247 9:-0.143 10:-0.253 11:-0.222 12:-0.231 13:-0.128 14:-0.113 15:-0.207 16:-0.138 17:-0.017 18:0.035 19:0.04 20:-0.055 21:-0.055 22:-0.145 23:-0.072 24:-0.091 25:-0.093 26:-0.062 27:-0.236 28:-0.248 29:-0.165 30:-0.179 31:-0.236 32:-0.244 33:-0.185 34:-0.149 35:-0.128 36:-0.227 
32768 1:-0.221 2:-0.09 3:0.275 4:-0.053 5:-0.12 6:-0.245 7:-0.164 8:-0.265 9:-0.085 10:-0.2 11:-0.165 12:-0.223 13:-0.171 14:-0.056 15:-0.209 16:-0.148 17:0.068 18:0.044 19:-0.017 20:-0.008 21:-0.059 22:-0.184 23:-0.097 24:-0.202 25:-0.127 26:-0.066 27:-0.124 28:-0.129 29:-0.27 30:-0.016 31:-0.139 32:-0.109 33:-0.084 34:-0.161 35:0.01 36:-0.164 
32768 1:-0.429 2:-0.277 3:0.246 4:0.039 5:-0.573 6:-0.483 7:-0.286 8:-0.58 9:0.014 10:-0.56 11:-0.455 12:-0.45 13:-0.458 14:0.019 15:-0.596 16:-0.465 17:0.15 18:0.16 19:0.121 20:0.13 21:0.046 22:-0.31 23:-0.178 24:-0.262 25:-0.42 26:-0.294 27:-0.43 28:-0.308 29:-0.718 30:0.012 31:-0.439 32:-0.405 33:-0.269 34:-0.494 35:0.017 36:-0.527 
32768 1:-0.226 2:-0.11 3:0.034 4:0.016 5:-0.136 6:-0.265 7:-0.192 8:-0.134 9:-0.147 10:-0.128 11:-0.113 12:-0.161 13:-0.044 14:-0.096 15:-0.058 16:-0.048 17:-0.028 18:-0.023 19:-0.012 20:-0.024 21:-0.074 22:-0.022 23:0.003 24:0.019 25:0.046 26:0.062 27:-0.21 28:-0.22 29:-0.217 30:-0.119 31:-0.212 32:-0.197 33:-0.214 34:-0.156 35:-0.096 36:-0.103 
32768 1:-0.243 2:-0.136 3:-0.033 4:-0.108 5:-0.12 6:-0.284 7:-0.196 8:-0.244 9:-0.085 10:-0.19 11:-0.24 12:-0.244 13:-0.143 14:-0.073 15:-0.199 16:-0.2 17:-0.034 18:0.037 19:0.06 20:-0.05 21:-0.094 22:-0.15 23:-0.12 24:-0.065 25:-0.103 26:-0.068 27:-0.156 28:-0.096 29:-0.211 30:-0.01 31:-0.141 32:-0.19 33:-0.091 34:-0.197 35:0.016 36:-0.2 
32768 1:-0.636 2:-0.226 3:-0.041 4:-0.104 5:-0.365 6:-0.483 7:-0.439 8:-0.408 9:-0.323 10:-0.509 11:-0.436 12:-0.405 13:-0.253 14:-0.186 15:-0.381 16:-0.306 17:-0.073 18:-0.062 19:-0.033 20:-0.062 21:-0.113 22:-0.168 23:-0.045 24:-0.065 25:-0.093 26:-0.043 27:-0.528 28:-0.493 29:-0.411 30:-0.349 31:-0.413 32:-0.489 33:-0.37 34:-0.349 35:-0.213 36:-0.429 
32768 1:-0.38 2:-0.148 3:-0.018 4:-0.069 5:-0.171 6:-0.285 7:-0.311 8:-0.329 9:-0.121 10:-0.255 11:-0.36 12:-0.223 13:-0.171 14:-0.082 15:-0.197 16:-0.217 17:-0.026 18:-0.011 19:0.036 20:-0.037 21:-0.137 22:-0.151 23:-0.112 24:-0.102 25:-0.105 26:-0.101 27:-0.244 28:-0.226 29:-0.296 30:-0.063 31:-0.279 32:-0.151 33:-0.107 34:-0.243 35:0.005 36:-0.19 
32768 1:-0.244 2:-0.048 3:0.599 4:0.083 5:-0.076 6:-0.331 7:-0.166 8:-0.397 9:0.026 10:-0.214 11:-0.283 12:-0.134 13:-0.213 14:0.076 15:-0.209 16:-0.222 17:0.155 18:0.071 19:-0.092 20:-0.007 21:-0.03 22:-0.141 23:-0.074 24:-0.354 25:-0.14 26:-0.147 27:-0.154 28:-0.168 29:-0.355 30:0.006 31:-0.211 32:-0.105 33:-0.109 34:-0.129 35:0.043 36:-0.164 
32768 1:-0.283 2:-0.129 3:0.26 4:0.003 5:-0.127 6:-0.376 7:-0.242 8:-0.325 9:-0.054 10:-0.187 11:-0.3 12:-0.189 13:-0.18 14:-0.015 15:-0.167 16:-0.215 17:0.023 18:0.016 19:-0.03 20:-0.023 21:-0.09 22:-0.13 23:-0.109 24:-0.22 25:-0.089 26:-0.113 27:-0.195 28:-0.182 29:-0.283 30:-0.017 31:-0.254 32:-0.177 33:-0.171 34:-0.198 35:0.006 36:-0.175 
32768 1:-0.4 2:-0.189 3:0.141 4:-0.013 5:-0.237 6:-0.503 7:-0.337 8:-0.4 9:-0.163 10:-0.347 11:-0.449 12:-0.3 13:-0.292 14:-0.068 15:-0.298 16:-0.354 17:-0.08 18:-0.099 19:-0.11 20:-0.095 21:-0.203 22:-0.145 23:-0.076 24:-0.213 25:-0.111 26:-0.128 27:-0.317 28:-0.272 29:-0.317 30:-0.129 31:-0.301 32:-0.312 33:-0.234 34:-0.307 35:-0.067 36:-0.336 
32768 1:-0.331 2:-0.15 3:0.104 4:-0.009 5:-0.326 6:-0.409 7:-0.28 8:-0.336 9:-0.159 10:-0.315 11:-0.251 12:-0.246 13:-0.22 14:-0.077 15:-0.334 16:-0.243 17:0.037 18:0.091 19:0.051 20:-0.017 21:-0.003 22:-0.138 23:-0.082 24:-0.15 25:-0.157 26:-0.104 27:-0.368 28:-0.366 29:-0.349 30:-0.223 31:-0.308 32:-0.309 33:-0.265 34:-0.271 35:-0.145 36:-0.359 
32768 1:-0.432 2:-0.219 3:0.015 4:-0.102 5:-0.347 6:-0.399 7:-0.368 8:-0.366 9:-0.2 10:-0.391 11:-0.366 12:-0.335 13:-0.224 14:-0.123 15:-0.366 16:-0.282 17:0.067 18:0.099 19:0.109 20:0.001 21:-0.017 22:-0.21 23:-0.15 24:-0.11 25:-0.211 26:-0.153 27:-0.408 28:-0.391 29:-0.394 30:-0.21 31:-0.372 32:-0.315 33:-0.252 34:-0.253 35:-0.097 36:-0.359 
32768 1:-0.448 2:-0.172 3:0.104 4:0.004 5:-0.221 6:-0.43 7:-0.357 8:-0.456 9:-0.14 10:-0.309 11:-0.429 12:-0.273 13:-0.247 14:-0.05 15:-0.243 16:-0.283 17:-0.057 18:-0.105 19:-0.105 20:-0.054 21:-0.169 22:-0.175 23:-0.089 24:-0.233 25:-0.138 26:-0.133 27:-0.356 28:-0.307 29:-0.339 30:-0.128 31:-0.333 32:-0.33 33:-0.278 34:-0.247 35:-0.114 36:-0.26 
32768 1:-0.306 2:-0.102 3:-0.014 4:-0.016 5:-0.224 6:-0.271 7:-0.236 8:-0.249 9:-0.148 10:-0.297 11:-0.237 12:-0.207 13:-0.107 14:-0.069 15:-0.255 16:-0.141 17:0.003 18:0.052 19:0.057 20:-0.037 21:-0.024 22:-0.079 23:-0.047 24:-0.023 25:-0.141 26:-0.072 27:-0.282 28:-0.282 29:-0.282 30:-0.157 31:-0.246 32:-0.258 33:-0.209 34:-0.192 35:-0.094 36:-0.216 
1917.56676589384 1:-0.29 2:-0.205 3:-0.129 4:-0.112 5:-0.127 6:-0.461 7:-0.337 8:-0.21 9:-0.179 10:-0.101 11:-0.303 12:-0.208 13:-0.094 14:-0.116 15:-0.048 16:-0.189 17:-0.104 18:-0.123 19:-0.022 20:-0.058 21:-0.255 22:-0.142 23:-0.137 24:-0.006 25:-0.018 26:-0.045 27:-0.203 28:-0.19 29:-0.241 30:-0.054 31:-0.288 32:-0.217 33:-0.248 34:-0.243 35:-0.055 36:-0.11 
32768 1:-0.208 2:-0.136 3:0.028 4:-0.013 5:-0.086 6:-0.414 7:-0.169 8:-0.215 9:-0.065 10:-0.136 11:-0.219 12:-0.207 13:-0.144 14:-0.072 15:-0.128 16:-0.198 17:-0.081 18:-0.086 19:-0.061 20:-0.085 21:-0.205 22:-0.093 23:-0.06 24:-0.13 25:-0.034 26:-0.041 27:-0.088 28:-0.089 29:-0.12 30:-0.022 31:-0.163 32:-0.212 33:-0.192 34:-0.18 35:-0.065 36:-0.189 
32768 1:-0.342 2:-0.137 3:-0.01 4:0.018 5:-0.193 6:-0.484 7:-0.232 8:-0.331 9:-0.076 10:-0.318 11:-0.358 12:-0.282 13:-0.195 14:-0.023 15:-0.255 16:-0.265 17:-0.074 18:-0.047 19:-0.026 20:-0.1 21:-0.165 22:-0.132 23:-0.046 24:-0.154 25:-0.109 26:-0.089 27:-0.262 28:-0.24 29:-0.189 30:-0.143 31:-0.27 32:-0.357 33:-0.267 34:-0.203 35:-0.095 36:-0.311 
32768 1:-0.221 2:-0.079 3:0.073 4:-0.004 5:-0.131 6:-0.368 7:-0.118 8:-0.21 9:-0.072 10:-0.205 11:-0.155 12:-0.198 13:-0.148 14:-0.046 15:-0.222 16:-0.193 17:-0.037 18:0.006 19:-0.022 20:-0.07 21:-0.078 22:-0.097 23:-0.037 24:-0.102 25:-0.112 26:-0.068 27:-0.177 28:-0.155 29:-0.206 30:-0.071 31:-0.173 32:-0.249 33:-0.189 34:-0.207 35:-0.086 36:-0.233 
32768 1:-0.471 2:-0.276 3:0.002 4:-0.153 5:-0.422 6:-0.501 7:-0.316 8:-0.527 9:-0.116 10:-0.487 11:-0.356 12:-0.421 13:-0.332 14:-0.139 15:-0.462 16:-0.329 17:0.093 18:0.15 19:0.174 20:0.054 21:0.01 22:-0.218 23:-0.162 24:-0.092 25:-0.217 26:-0.128 27:-0.4 28:-0.352 29:-0.602 30:-0.159 31:-0.378 32:-0.445 33:-0.333 34:-0.458 35:-0.091 36:-0.519 
32768 1:-0.316 2:-0.236 3:0.317 4:0.012 5:-0.239 6:-0.439 7:-0.273 8:-0.321 9:-0.132 10:-0.222 11:-0.283 12:-0.28 13:-0.242 14:-0.085 15:-0.183 16:-0.267 17:0.017 18:0.041 19:-0.038 20:-0.042 21:-0.074 22:-0.204 23:-0.154 24:-0.286 25:-0.118 26:-0.136 27:-0.243 28:-0.168 29:-0.244 30:-0.075 31:-0.249 32:-0.246 33:-0.229 34:-0.188 35:-0.088 36:-0.254 
32768 1:-0.624 2:-0.244 3:0.238 4:0.006 5:-0.37 6:-0.51 7:-0.427 8:-0.477 9:-0.213 10:-0.547 11:-0.54 12:-0.43 13:-0.348 14:-0.09 15:-0.473 16:-0.403 17:-0.076 18:-0.121 19:-0.102 20:-0.027 21:-0.201 22:-0.209 23:-0.074 24:-0.19 25:-0.268 26:-0.163 27:-0.44 28:-0.34 29:-0.524 30:-0.114 31:-0.421 32:-0.451 33:-0.307 34:-0.392 35:-0.094 36:-0.433 
32768 1:-0.359 2:-0.178 3:-0.101 4:0.008 5:-0.205 6:-0.426 7:-0.207 8:-0.288 9:-0.104 10:-0.364 11:-0.323 12:-0.357 13:-0.205 14:-0.079 15:-0.34 16:-0.32 17:-0.139 18:-0.1 19:-0.035 20:-0.146 21:-0.234 22:-0.15 23:-0.051 24:-0.042 25:-0.139 26:-0.115 27:-0.175 28:-0.098 29:-0.272 30:-0.008 31:-0.183 32:-0.334 33:-0.18 34:-0.313 35:-0.041 36:-0.36 
32768 1:-0.271 2:-0.121 3:0.226 4:-0.013 5:-0.125 6:-0.369 7:-0.184 8:-0.349 9:-0.052 10:-0.212 11:-0.248 12:-0.204 13:-0.213 14:-0.022 15:-0.191 16:-0.225 17:0.031 18:0.068 19:0.032 20:0.008 21:-0.046 22:-0.118 23:-0.101 24:-0.178 25:-0.115 26:-0.112 27:-0.209 28:-0.148 29:-0.34 30:-0.009 31:-0.213 32:-0.241 33:-0.153 34:-0.264 35:0.018 36:-0.192 
32768 1:-0.241 2:-0.169 3:-0.039 4:-0.096 5:-0.11 6:-0.392 7:-0.176 8:-0.187 9:-0.152 10:-0.18 11:-0.197 12:-0.232 13:-0.127 14:-0.167 15:-0.144 16:-0.185 17:-0.056 18:-0.001 19:0.016 20:-0.075 21:-0.138 22:-0.061 23:-0.08 24:-0.028 25:-0.002 26:-0.025 27:-0.11 28:-0.106 29:-0.17 30:-0.065 31:-0.156 32:-0.24 33:-0.186 34:-0.23 35:-0.101 36:-0.245 
32768 1:-0.337 2:-0.211 3:0.592 4:-0.047 5:-0.27 6:-0.34 7:-0.17 8:-0.523 9:0.036 10:-0.32 11:-0.293 12:-0.35 13:-0.395 14:-0.021 15:-0.325 16:-0.314 17:0.134 18:0.174 19:-0.002 20:0.123 21:0.081 22:-0.292 23:-0.216 24:-0.415 25:-0.248 26:-0.234 27:-0.268 28:-0.1 29:-0.603 30:0.102 31:-0.22 32:-0.299 33:-0.146 34:-0.388 35:0.055 36:-0.292 
32768 1:-0.215 2:-0.091 3:0.056 4:-0.111 5:-0.129 6:-0.252 7:-0.257 8:-0.285 9:-0.133 10:-0.172 11:-0.237 12:-0.108 13:-0.106 14:-0.093 15:-0.133 16:-0.114 17:0.069 18:0.012 19:-0.012 20:-0.01 21:-0.043 22:-0.035 23:-0.071 24:-0.036 25:0.019 26:-0.003 27:-0.222 28:-0.281 29:-0.335 30:-0.145 31:-0.249 32:-0.152 33:-0.156 34:-0.173 35:-0.062 36:-0.174 
32768 1:-0.282 2:-0.161 3:-0.026 4:0.007 5:-0.195 6:-0.41 7:-0.26 8:-0.23 9:-0.178 10:-0.21 11:-0.234 12:-0.237 13:-0.107 14:-0.136 15:-0.147 16:-0.128 17:-0.132 18:-0.147 19:-0.107 20:-0.089 21:-0.202 22:-0.072 23:-0.024 24:-0.066 25:-0.032 26:0.012 27:-0.244 28:-0.263 29:-0.205 30:-0.16 31:-0.282 32:-0.344 33:-0.345 34:-0.21 35:-0.221 36:-0.213 
32768 1:-0.324 2:-0.189 3:0.27 4:-0.051 5:-0.33 6:-0.349 7:-0.245 8:-0.335 9:-0.168 10:-0.295 11:-0.225 12:-0.246 13:-0.23 14:-0.141 15:-0.234 16:-0.201 17:0.057 18:0.037 19:-0.021 20:0.041 21:-0.023 22:-0.126 23:-0.074 24:-0.222 25:-0.112 26:-0.065 27:-0.368 28:-0.325 29:-0.366 30:-0.211 31:-0.31 32:-0.312 33:-0.295 34:-0.227 35:-0.184 36:-0.27 
32768 1:-0.376 2:-0.23 3:0.225 4:-0.082 5:-0.359 6:-0.339 7:-0.346 8:-0.437 9:-0.187 10:-0.361 11:-0.35 12:-0.274 13:-0.264 14:-0.112 15:-0.305 16:-0.251 17:0.086 18:0.036 19:0.044 20:0.105 21:-0.065 22:-0.117 23:-0.11 24:-0.092 25:-0.171 26:-0.085 27:-0.38 28:-0.302 29:-0.611 30:-0.077 31:-0.375 32:-0.292 33:-0.239 34:-0.354 35:-0.052 36:-0.283 
32768 1:-0.275 2:-0.154 3:0.064 4:-0.126 5:-0.183 6:-0.284 7:-0.271 8:-0.197 9:-0.205 10:-0.181 11:-0.189 12:-0.183 13:-0.087 14:-0.167 15:-0.088 16:-0.08 17:0.007 18:0.069 19:0.047 20:0 21:-0.021 22:-0.096 23:-0.107 24:-0.092 25:-0.004 26:0.011 27:-0.26 28:-0.281 29:-0.16 30:-0.228 31:-0.217 32:-0.224 33:-0.231 34:-0.117 35:-0.163 36:-0.169 
32768 1:-0.166 2:-0.098 3:-0.085 4:-0.036 5:-0.1 6:-0.303 7:-0.131 8:-0.203 9:-0.037 10:-0.173 11:-0.22 12:-0.163 13:-0.151 14:-0.022 15:-0.2 16:-0.245 17:-0.022 18:0.011 19:0.043 20:-0.1 21:-0.139 22:-0.093 23:-0.073 24:-0.062 25:-0.097 26:-0.106 27:-0.061 28:-0.027 29:-0.138 30:0.022 31:-0.1 32:-0.103 33:-0.029 34:-0.183 35:0.057 36:-0.233 
32768 1:-0.318 2:-0.215 3:0.431 4:-0.107 5:-0.343 6:-0.349 7:-0.253 8:-0.373 9:-0.162 10:-0.308 11:-0.216 12:-0.249 13:-0.267 14:-0.163 15:-0.241 16:-0.169 17:0.103 18:0.112 19:0.02 20:0.138 21:0.04 22:-0.109 23:-0.106 24:-0.162 25:-0.073 26:-0.003 27:-0.36 28:-0.305 29:-0.571 30:-0.115 31:-0.322 32:-0.271 33:-0.266 34:-0.357 35:-0.123 36:-0.28 
32768 1:-0.28 2:-0.14 3:0.029 4:-0.072 5:-0.113 6:-0.321 7:-0.255 8:-0.287 9:-0.153 10:-0.156 11:-0.264 12:-0.188 13:-0.135 14:-0.113 15:-0.106 16:-0.161 17:-0.061 18:-0.066 19:-0.044 20:-0.028 21:-0.17 22:-0.035 23:-0.058 24:-0.038 25:0.029 26:0.012 27:-0.193 28:-0.166 29:-0.294 30:-0.064 31:-0.2 32:-0.197 33:-0.156 34:-0.232 35:-0.048 36:-0.135 
32768 1:-0.213 2:-0.117 3:0.193 4:-0.064 5:-0.096 6:-0.245 7:-0.171 8:-0.257 9:-0.092 10:-0.091 11:-0.098 12:-0.161 13:-0.107 14:-0.11 15:-0.086 16:-0.05 17:0.04 18:-0.005 19:-0.06 20:-0.046 21:-0.067 22:-0.106 23:-0.08 24:-0.163 25:-0.002 26:0.018 27:-0.149 28:-0.152 29:-0.247 30:-0.048 31:-0.18 32:-0.163 33:-0.155 34:-0.154 35:-0.064 36:-0.16 
8153.633628128244 1:-0.252 2:-0.114 3:0.033 4:0.005 5:-0.094 6:-0.452 7:-0.176 8:-0.287 9:-0.033 10:-0.215 11:-0.29 12:-0.227 13:-0.218 14:-0.017 15:-0.256 16:-0.31 17:-0.07 18:-0.048 19:-0.02 20:-0.09 21:-0.212 22:-0.134 23:-0.067 24:-0.197 25:-0.15 26:-0.13 27:-0.12 28:-0.111 29:-0.128 30:-0.028 31:-0.147 32:-0.192 33:-0.122 34:-0.216 35:0.006 36:-0.263 
12203.70638228157 1:-0.3 2:-0.196 3:-0.122 4:-0.099 5:-0.169 6:-0.464 7:-0.238 8:-0.244 9:-0.105 10:-0.262 11:-0.33 12:-0.294 13:-0.145 14:-0.099 15:-0.224 16:-0.298 17:-0.105 18:-0.068 19:-0.005 20:-0.117 21:-0.202 22:-0.149 23:-0.105 24:-0.019 25:-0.084 26:-0.107 27:-0.165 28:-0.136 29:-0.246 30:-0.038 31:-0.216 32:-0.294 33:-0.219 34:-0.267 35:-0.048 36:-0.275 
32768 1:-0.255 2:-0.068 3:-0.029 4:-0.041 5:-0.167 6:-0.264 7:-0.237 8:-0.123 9:-0.189 10:-0.156 11:-0.128 12:-0.132 13:-0.001 14:-0.091 15:-0.078 16:0.015 17:-0.036 18:0.007 19:0.051 20:0.006 21:-0.052 22:-0.025 23:0.002 24:0.037 25:-0.017 26:0.066 27:-0.328 28:-0.392 29:-0.225 30:-0.247 31:-0.341 32:-0.22 33:-0.267 34:-0.097 35:-0.128 36:-0.093 
32768 1:-0.323 2:-0.123 3:0.107 4:-0.072 5:-0.166 6:-0.334 7:-0.2 8:-0.257 9:-0.101 10:-0.241 11:-0.19 12:-0.285 13:-0.132 14:-0.075 15:-0.238 16:-0.137 17:-0.048 18:0.021 19:0.024 20:-0.03 21:-0.098 22:-0.147 23:-0.072 24:-0.064 25:-0.119 26:-0.018 27:-0.234 28:-0.201 29:-0.338 30:-0.06 31:-0.216 32:-0.304 33:-0.205 34:-0.222 35:-0.067 36:-0.275 
32768 1:-0.246 2:-0.134 3:0.062 4:-0.059 5:-0.233 6:-0.332 7:-0.19 8:-0.377 9:-0.067 10:-0.192 11:-0.187 12:-0.16 13:-0.2 14:-0.041 15:-0.188 16:-0.199 17:0.14 18:0.172 19:0.15 20:0.059 21:0.042 22:-0.14 23:-0.13 24:-0.14 25:-0.103 26:-0.117 27:-0.292 28:-0.222 29:-0.358 30:-0.092 31:-0.231 32:-0.229 33:-0.205 34:-0.224 35:-0.08 36:-0.239 
32768 1:-0.171 2:-0.064 3:0.072 4:0 5:-0.037 6:-0.226 7:-0.16 8:-0.183 9:-0.046 10:-0.068 11:-0.151 12:-0.088 13:-0.061 14:-0.017 15:-0.044 16:-0.083 17:-0.038 18:-0.069 19:-0.051 20:-0.041 21:-0.141 22:-0.063 23:-0.048 24:-0.096 25:-0.007 26:-0.022 27:-0.091 28:-0.118 29:-0.156 30:-0.015 31:-0.15 32:-0.053 33:-0.097 34:-0.101 35:0.018 36:-0.051 
32768 1:-0.222 2:-0.071 3:0.03 4:-0.025 5:-0.101 6:-0.336 7:-0.154 8:-0.142 9:-0.073 10:-0.167 11:-0.147 12:-0.219 13:-0.095 14:0 15:-0.229 16:-0.147 17:-0.078 18:-0.005 19:0.017 20:-0.041 21:-0.092 22:-0.13 23:-0.068 24:-0.036 25:-0.158 26:-0.066 27:-0.202 28:-0.163 29:-0.218 30:-0.03 31:-0.191 32:-0.248 33:-0.16 34:-0.198 35:0.011 36:-0.174 
32768 1:-0.374 2:-0.187 3:-0.08 4:-0.022 5:-0.243 6:-0.392 7:-0.316 8:-0.268 9:-0.214 10:-0.262 11:-0.311 12:-0.267 13:-0.165 14:-0.098 15:-0.197 16:-0.253 17:-0.036 18:0.023 19:0.049 20:-0.072 21:-0.08 22:-0.102 23:-0.081 24:-0.058 25:-0.043 26:-0.106 27:-0.312 28:-0.269 29:-0.226 30:-0.185 31:-0.277 32:-0.309 33:-0.226 34:-0.232 35:-0.081 36:-0.268 
32768 1:-0.294 2:-0.196 3:0.223 4:-0.137 5:-0.355 6:-0.313 7:-0.226 8:-0.4 9:-0.126 10:-0.35 11:-0.226 12:-0.257 13:-0.272 14:-0.144 15:-0.316 16:-0.195 17:0.167 18:0.221 19:0.19 20:0.166 21:0.073 22:-0.094 23:-0.11 24:-0.144 25:-0.099 26:-0.026 27:-0.33 28:-0.321 29:-0.454 30:-0.2 31:-0.279 32:-0.268 33:-0.22 34:-0.272 35:-0.089 36:-0.325 
32768 1:-0.344 2:-0.226 3:-0.055 4:-0.114 5:-0.224 6:-0.453 7:-0.254 8:-0.245 9:-0.137 10:-0.31 11:-0.271 12:-0.341 13:-0.165 14:-0.136 15:-0.276 16:-0.264 17:-0.085 18:-0.009 19:0.014 20:-0.107 21:-0.11 22:-0.143 23:-0.134 24:-0.051 25:-0.099 26:-0.101 27:-0.239 28:-0.164 29:-0.241 30:-0.069 31:-0.206 32:-0.391 33:-0.265 34:-0.293 35:-0.082 36:-0.343 
32768 1:-0.339 2:-0.105 3:0.065 4:0.019 5:-0.247 6:-0.256 7:-0.218 8:-0.228 9:-0.166 10:-0.338 11:-0.209 12:-0.205 13:-0.151 14:-0.05 15:-0.306 16:-0.201 17:0.021 18:0.038 19:0.051 20:-0.019 21:-0.063 22:-0.098 23:-0.054 24:-0.131 25:-0.15 26:-0.088 27:-0.26 28:-0.21 29:-0.118 30:-0.168 31:-0.172 32:-0.182 33:-0.135 34:-0.058 35:-0.086 36:-0.262 
32768 1:-0.217 2:-0.1 3:-0.031 4:-0.066 5:-0.08 6:-0.36 7:-0.166 8:-0.181 9:-0.079 10:-0.126 11:-0.191 12:-0.141 13:-0.113 14:-0.031 15:-0.122 16:-0.209 17:0.004 18:-0.001 19:0.031 20:-0.053 21:-0.132 22:-0.11 23:-0.097 24:-0.056 25:-0.048 26:-0.088 27:-0.11 28:-0.083 29:-0.166 30:-0.007 31:-0.144 32:-0.072 33:-0.079 34:-0.192 35:0.06 36:-0.147 
32768 1:-0.24 2:-0.089 3:0.298 4:-0.004 5:-0.131 6:-0.259 7:-0.116 8:-0.22 9:-0.046 10:-0.185 11:-0.162 12:-0.232 13:-0.176 14:-0.029 15:-0.206 16:-0.173 17:0.032 18:0.056 19:-0.016 20:-0.033 21:-0.046 22:-0.183 23:-0.082 24:-0.27 25:-0.126 26:-0.098 27:-0.151 28:-0.109 29:-0.148 30:-0.044 31:-0.144 32:-0.194 33:-0.105 34:-0.092 35:-0.027 36:-0.221 
32768 1:-0.188 2:-0.08 3:-0.1 4:0.022 5:-0.064 6:-0.356 7:-0.197 8:-0.131 9:-0.103 10:-0.09 11:-0.201 12:-0.09 13:-0.038 14:-0.052 15:-0.044 16:-0.065 17:-0.151 18:-0.18 19:-0.08 20:-0.036 21:-0.231 22:0.005 23:0.018 24:-0.005 25:-0.028 26:0.022 27:-0.21 28:-0.242 29:-0.137 30:-0.112 31:-0.275 32:-0.204 33:-0.29 34:-0.145 35:-0.12 36:-0.036 
32768 1:-0.26 2:-0.124 3:0.157 4:-0.071 5:-0.211 6:-0.272 7:-0.194 8:-0.385 9:-0.092 10:-0.293 11:-0.259 12:-0.19 13:-0.236 14:-0.106 15:-0.251 16:-0.211 17:0.11 18:0.064 19:0.025 20:0.04 21:-0.032 22:-0.099 23:-0.068 24:-0.178 25:-0.119 26:-0.097 27:-0.246 28:-0.225 29:-0.364 30:-0.118 31:-0.219 32:-0.167 33:-0.139 34:-0.238 35:-0.057 36:-0.217 
32768 1:-0.321 2:-0.117 3:-0.024 4:-0.066 5:-0.218 6:-0.322 7:-0.198 8:-0.25 9:-0.126 10:-0.318 11:-0.232 12:-0.281 13:-0.173 14:-0.082 15:-0.306 16:-0.226 17:-0.027 18:0.048 19:0.051 20:-0.093 21:-0.091 22:-0.168 23:-0.079 24:-0.132 25:-0.16 26:-0.094 27:-0.208 28:-0.183 29:-0.141 30:-0.15 31:-0.16 32:-0.229 33:-0.108 34:-0.171 35:-0.039 36:-0.313 
21023.52977434801 1:-0.349 2:-0.093 3:-0.07 4:0.117 5:-0.147 6:-0.626 7:-0.284 8:-0.34 9:-0.115 10:-0.218 11:-0.393 12:-0.202 13:-0.21 14:0.003 15:-0.23 16:-0.273 17:-0.218 18:-0.206 19:-0.104 20:-0.066 21:-0.306 22:0.001 23:0.043 24:-0.103 25:-0.099 26:-0.072 27:-0.38 28:-0.379 29:-0.273 30:-0.191 31:-0.383 32:-0.463 33:-0.417 34:-0.353 35:-0.179 36:-0.244 
32768 1:-0.367 2:-0.23 3:0.073 4:-0.05 5:-0.425 6:-0.439 7:-0.306 8:-0.366 9:-0.162 10:-0.414 11:-0.364 12:-0.377 13:-0.251 14:-0.137 15:-0.433 16:-0.313 17:-0.011 18:0.111 19:0.106 20:-0.005 21:-0.021 22:-0.123 23:-0.068 24:-0.067 25:-0.135 26:-0.083 27:-0.4 28:-0.433 29:-0.484 30:-0.245 31:-0.423 32:-0.422 33:-0.307 34:-0.357 35:-0.151 36:-0.482 
32768 1:-0.248 2:-0.13 3:-0.019 4:0.02 5:-0.172 6:-0.455 7:-0.22 8:-0.265 9:-0.123 10:-0.205 11:-0.256 12:-0.179 13:-0.166 14:-0.057 15:-0.207 16:-0.226 17:-0.11 18:-0.077 19:-0.006 20:-0.05 21:-0.213 22:-0.031 23:-0.029 24:-0.055 25:-0.097 26:-0.062 27:-0.241 28:-0.206 29:-0.273 30:-0.077 31:-0.254 32:-0.29 33:-0.257 34:-0.259 35:-0.102 36:-0.248 
32768 1:-0.266 2:-0.213 3:0.365 4:-0.059 5:-0.314 6:-0.35 7:-0.253 8:-0.317 9:-0.2 10:-0.246 11:-0.206 12:-0.279 13:-0.225 14:-0.184 15:-0.238 16:-0.181 17:0.045 18:0.098 19:-0.004 20:0.041 21:0.029 22:-0.071 23:-0.077 24:-0.183 25:-0.08 26:-0.055 27:-0.328 28:-0.33 29:-0.445 30:-0.207 31:-0.325 32:-0.361 33:-0.293 34:-0.316 35:-0.181 36:-0.312 
32768 1:-0.307 2:-0.14 3:0.005 4:-0.041 5:-0.189 6:-0.317 7:-0.192 8:-0.263 9:-0.117 10:-0.231 11:-0.152 12:-0.213 13:-0.122 14:-0.07 15:-0.17 16:-0.151 17:0.038 18:0.041 19:0.06 20:-0.014 21:-0.046 22:-0.09 23:-0.052 24:-0.015 25:-0.018 26:-0.005 27:-0.27 28:-0.205 29:-0.317 30:-0.086 31:-0.22 32:-0.209 33:-0.164 34:-0.23 35:-0.007 36:-0.22 
32768 1:-0.32 2:-0.16 3:-0.007 4:0.007 5:-0.202 6:-0.438 7:-0.235 8:-0.332 9:-0.087 10:-0.326 11:-0.312 12:-0.322 13:-0.214 14:-0.037 15:-0.335 16:-0.273 17:-0.019 18:0.023 19:0.048 20:-0.081 21:-0.115 22:-0.171 23:-0.079 24:-0.104 25:-0.149 26:-0.109 27:-0.225 28:-0.21 29:-0.292 30:-0.053 31:-0.265 32:-0.306 33:-0.19 34:-0.29 35:-0.007 36:-0.339 
32768 1:-0.337 2:-0.101 3:0.005 4:0.012 5:-0.183 6:-0.392 7:-0.199 8:-0.205 9:-0.144 10:-0.304 11:-0.206 12:-0.245 13:-0.155 14:-0.052 15:-0.297 16:-0.217 17:-0.102 18:-0.086 19:-0.067 20:-0.119 21:-0.154 22:-0.096 23:-0.024 24:-0.09 25:-0.117 26:-0.056 27:-0.253 28:-0.203 29:-0.162 30:-0.145 31:-0.192 32:-0.303 33:-0.207 34:-0.194 35:-0.092 36:-0.325 
32768 1:-0.296 2:-0.139 3:0.153 4:-0.066 5:-0.178 6:-0.298 7:-0.246 8:-0.169 9:-0.212 10:-0.214 11:-0.201 12:-0.183 13:-0.078 14:-0.157 15:-0.095 16:-0.084 17:-0.114 18:-0.135 19:-0.18 20:-0.083 21:-0.134 22:-0.04 23:-0.019 24:-0.074 25:0.055 26:0.053 27:-0.256 28:-0.257 29:-0.211 30:-0.191 31:-0.225 32:-0.252 33:-0.264 34:-0.142 35:-0.19 36:-0.157 
32768 1:-0.379 2:-0.184 3:0.04 4:0.002 5:-0.261 6:-0.374 7:-0.244 8:-0.342 9:-0.124 10:-0.331 11:-0.249 12:-0.325 13:-0.196 14:-0.079 15:-0.283 16:-0.21 17:-0.005 18:0.011 19:0.049 20:-0.02 21:-0.09 22:-0.14 23:-0.051 24:-0.013 25:-0.098 26:-0.036 27:-0.281 28:-0.21 29:-0.442 30:-0.05 31:-0.262 32:-0.353 33:-0.246 34:-0.339 35:-0.064 36:-0.329 
32768 1:-0.342 2:-0.161 3:0.021 4:-0.099 5:-0.145 6:-0.355 7:-0.234 8:-0.259 9:-0.121 10:-0.269 11:-0.318 12:-0.273 13:-0.18 14:-0.096 15:-0.239 16:-0.264 17:-0.057 18:0.03 19:0.025 20:-0.072 21:-0.096 22:-0.155 23:-0.128 24:-0.136 25:-0.117 26:-0.135 27:-0.2 28:-0.143 29:-0.169 30:-0.081 31:-0.191 32:-0.259 33:-0.144 34:-0.195 35:-0.039 36:-0.242 
32768 1:-0.3 2:-0.179 3:-0.056 4:-0.035 5:-0.174 6:-0.469 7:-0.315 8:-0.234 9:-0.179 10:-0.185 11:-0.321 12:-0.238 13:-0.144 14:-0.102 15:-0.149 16:-0.222 17:-0.109 18:-0.101 19:-0.051 20:-0.099 21:-0.202 22:-0.105 23:-0.082 24:-0.09 25:-0.046 26:-0.052 27:-0.256 28:-0.253 29:-0.168 30:-0.143 31:-0.302 32:-0.284 33:-0.266 34:-0.208 35:-0.11 36:-0.216 
32768 1:-0.236 2:-0.108 3:0.253 4:-0.058 5:-0.101 6:-0.249 7:-0.15 8:-0.33 9:-0.061 10:-0.201 11:-0.164 12:-0.197 13:-0.15 14:-0.079 15:-0.165 16:-0.104 17:0.136 18:0.152 19:0.098 20:0.072 21:0.047 22:-0.088 23:-0.073 24:-0.079 25:0.001 26:0.002 27:-0.184 28:-0.176 29:-0.393 30:-0.037 31:-0.178 32:-0.199 33:-0.152 34:-0.236 35:-0.019 36:-0.189 
32768 1:-0.282 2:-0.122 3:-0.032 4:-0.007 5:-0.187 6:-0.313 7:-0.253 8:-0.221 9:-0.128 10:-0.191 11:-0.244 12:-0.165 13:-0.125 14:-0.035 15:-0.177 16:-0.194 17:-0.042 18:-0.045 19:-0.01 20:-0.081 21:-0.122 22:-0.085 23:-0.058 24:-0.08 25:-0.072 26:-0.07 27:-0.255 28:-0.252 29:-0.195 30:-0.126 31:-0.258 32:-0.167 33:-0.141 34:-0.18 35:-0.019 36:-0.218 
32768 1:-0.301 2:-0.151 3:0.01 4:-0.121 5:-0.204 6:-0.236 7:-0.225 8:-0.23 9:-0.181 10:-0.224 11:-0.13 12:-0.235 13:-0.101 14:-0.171 15:-0.187 16:-0.079 17:-0.032 18:-0.011 19:-0.004 20:-0.019 21:-0.083 22:-0.082 23:-0.06 24:-0.019 25:-0.05 26:0.043 27:-0.254 28:-0.226 29:-0.298 30:-0.131 31:-0.214 32:-0.249 33:-0.187 34:-0.191 35:-0.12 36:-0.194 
32768 1:-0.241 2:-0.126 3:0.091 4:-0.044 5:-0.165 6:-0.236 7:-0.087 8:-0.294 9:-0.009 10:-0.224 11:-0.131 12:-0.288 13:-0.165 14:-0.067 15:-0.267 16:-0.196 17:0.014 18:0.101 19:0.065 20:-0.041 21:-0.067 22:-0.193 23:-0.109 24:-0.201 25:-0.165 26:-0.096 27:-0.133 28:-0.027 29:-0.176 30:0.004 31:-0.072 32:-0.223 33:-0.051 34:-0.101 35:-0.028 36:-0.275 
21647.09657029199 1:-0.198 2:-0.064 3:0.096 4:0.003 5:-0.111 6:-0.297 7:-0.226 8:-0.237 9:-0.089 10:-0.102 11:-0.216 12:-0.066 13:-0.088 14:-0.016 15:-0.071 16:-0.112 17:-0.088 18:-0.069 19:-0.08 20:-0.06 21:-0.132 22:-0.03 23:-0.032 24:-0.114 25:-0.024 26:-0.022 27:-0.239 28:-0.245 29:-0.25 30:-0.104 31:-0.229 32:-0.173 33:-0.181 34:-0.194 35:-0.044 36:-0.114 
32768 1:-0.281 2:-0.064 3:0.004 4:-0.019 5:-0.145 6:-0.304 7:-0.153 8:-0.228 9:-0.1 10:-0.311 11:-0.223 12:-0.195 13:-0.148 14:-0.029 15:-0.285 16:-0.201 17:-0.099 18:-0.095 19:-0.066 20:-0.105 21:-0.162 22:-0.062 23:-0.016 24:-0.047 25:-0.109 26:-0.053 27:-0.199 28:-0.136 29:-0.244 30:-0.043 31:-0.165 32:-0.23 33:-0.119 34:-0.215 35:-0.011 36:-0.276 
32768 1:-0.252 2:-0.174 3:0.099 4:-0.079 5:-0.138 6:-0.272 7:-0.246 8:-0.272 9:-0.154 10:-0.131 11:-0.176 12:-0.211 13:-0.133 14:-0.143 15:-0.103 16:-0.135 17:0.008 18:0.019 19:-0.023 20:-0.021 21:-0.044 22:-0.097 23:-0.121 24:-0.136 25:0.009 26:-0.051 27:-0.201 28:-0.157 29:-0.214 30:-0.08 31:-0.134 32:-0.247 33:-0.195 34:-0.188 35:-0.121 36:-0.184 
-32768 1:-0.292 2:-0.135 3:0.411 4:0.021 5:-0.262 6:-0.311 7:-0.133 8:-0.455 9:0.061 10:-0.364 11:-0.233 12:-0.3 13:-0.322 14:0.034 15:-0.413 16:-0.263 17:0.147 18:0.18 19:0.076 20:0.082 21:0.052 22:-0.215 23:-0.126 24:-0.324 25:-0.293 26:-0.171 27:-0.253 28:-0.132 29:-0.457 30:0.053 31:-0.208 32:-0.258 33:-0.116 34:-0.266 35:0.058 36:-0.346 
-5651.796474059835 1:-0.276 2:-0.134 3:-0.121 4:-0.041 5:-0.134 6:-0.46 7:-0.219 8:-0.153 9:-0.128 10:-0.126 11:-0.185 12:-0.236 13:-0.104 14:-0.095 15:-0.126 16:-0.154 17:-0.164 18:-0.142 19:-0.06 20:-0.097 21:-0.215 22:-0.092 23:-0.028 24:0.003 25:-0.03 26:0.014 27:-0.246 28:-0.247 29:-0.19 30:-0.117 31:-0.261 32:-0.358 33:-0.311 34:-0.262 35:-0.144 36:-0.22 
-2796.477802158107 1:-0.335 2:-0.209 3:0.499 4:-0.037 5:-0.406 6:-0.373 7:-0.22 8:-0.349 9:-0.046 10:-0.408 11:-0.307 12:-0.36 13:-0.322 14:-0.012 15:-0.524 16:-0.358 17:0.092 18:0.194 19:0.077 20:0.063 21:0.043 22:-0.28 23:-0.206 24:-0.335 25:-0.411 26:-0.252 27:-0.312 28:-0.205 29:-0.5 30:0.035 31:-0.333 32:-0.261 33:-0.163 34:-0.275 35:0.018 36:-0.395 
-32768 1:-0.376 2:-0.132 3:-0.056 4:-0.032 5:-0.175 6:-0.369 7:-0.327 8:-0.254 9:-0.217 10:-0.224 11:-0.309 12:-0.204 13:-0.129 14:-0.093 15:-0.18 16:-0.194 17:-0.089 18:-0.082 19:-0.027 20:-0.064 21:-0.18 22:-0.083 23:-0.042 24:-0.043 25:-0.053 26:-0.026 27:-0.299 28:-0.301 29:-0.245 30:-0.179 31:-0.302 32:-0.221 33:-0.197 34:-0.217 35:-0.08 36:-0.207 
-16457.75731492581 1:-0.186 2:-0.084 3:0.262 4:-0.015 5:-0.12 6:-0.228 7:-0.166 8:-0.287 9:-0.102 10:-0.175 11:-0.12 12:-0.172 13:-0.139 14:-0.077 15:-0.167 16:-0.055 17:0.079 18:0.006 19:-0.03 20:0.015 21:-0.066 22:-0.075 23:-0.026 24:-0.121 25:-0.031 26:0.042 27:-0.161 28:-0.185 29:-0.335 30:-0.057 31:-0.17 32:-0.18 33:-0.152 34:-0.176 35:-0.052 36:-0.185 
-32768 1:-0.279 2:-0.169 3:0.133 4:-0.091 5:-0.253 6:-0.324 7:-0.196 8:-0.281 9:-0.182 10:-0.311 11:-0.168 12:-0.244 13:-0.195 14:-0.151 15:-0.278 16:-0.188 17:0.006 18:0.021 19:0.006 20:-0.017 21:-0.071 22:-0.068 23:-0.054 24:-0.071 25:-0.059 26:0.001 27:-0.246 28:-0.184 29:-0.351 30:-0.11 31:-0.171 32:-0.261 33:-0.184 34:-0.276 35:-0.082 36:-0.32 
-32768 1:-0.275 2:-0.101 3:0.1 4:-0.01 5:-0.126 6:-0.347 7:-0.192 8:-0.254 9:-0.113 10:-0.172 11:-0.201 12:-0.191 13:-0.12 14:-0.087 15:-0.137 16:-0.122 17:-0.044 18:-0.052 19:-0.056 20:-0.044 21:-0.117 22:-0.073 23:-0.025 24:-0.096 25:-0.058 26:-0.014 27:-0.233 28:-0.232 29:-0.265 30:-0.079 31:-0.264 32:-0.267 33:-0.248 34:-0.191 35:-0.134 36:-0.171 
-32768 1:-0.309 2:-0.169 3:-0.021 4:-0.119 5:-0.217 6:-0.303 7:-0.231 8:-0.273 9:-0.152 10:-0.244 11:-0.23 12:-0.225 13:-0.122 14:-0.128 15:-0.169 16:-0.164 17:0.031 18:0.091 19:0.103 20:-0.006 21:-0.031 22:-0.119 23:-0.109 24:-0.032 25:-0.037 26:-0.042 27:-0.274 28:-0.221 29:-0.304 30:-0.116 31:-0.247 32:-0.233 33:-0.193 34:-0.197 35:-0.075 36:-0.221 
-32768 1:-0.271 2:-0.135 3:0.165 4:-0.105 5:-0.154 6:-0.323 7:-0.192 8:-0.26 9:-0.111 10:-0.223 11:-0.24 12:-0.215 13:-0.171 14:-0.122 15:-0.194 16:-0.23 17:0.003 18:0.08 19:0.023 20:-0.036 21:-0.061 22:-0.102 23:-0.101 24:-0.16 25:-0.064 26:-0.086 27:-0.152 28:-0.152 29:-0.224 30:-0.101 31:-0.17 32:-0.196 33:-0.117 34:-0.174 35:-0.064 36:-0.24 
-17755.81551865667 1:-0.311 2:-0.074 3:-0.01 4:-0.017 5:-0.129 6:-0.234 7:-0.218 8:-0.158 9:-0.164 10:-0.238 11:-0.222 12:-0.227 13:-0.071 14:-0.083 15:-0.203 16:-0.096 17:-0.075 18:-0.076 19:-0.051 20:-0.073 21:-0.125 22:-0.082 23:0.001 24:-0.03 25:-0.075 26:0.013 27:-0.196 28:-0.242 29:-0.143 30:-0.142 31:-0.239 32:-0.196 33:-0.159 34:-0.096 35:-0.088 36:-0.15 
-32768 1:-0.29 2:-0.132 3:0.143 4:0.037 5:-0.289 6:-0.327 7:-0.269 8:-0.309 9:-0.166 10:-0.28 11:-0.242 12:-0.229 13:-0.181 14:-0.074 15:-0.271 16:-0.177 17:0.009 18:0.025 19:-0.001 20:-0.005 21:-0.031 22:-0.052 23:-0.014 24:-0.082 25:-0.079 26:-0.05 27:-0.328 28:-0.36 29:-0.39 30:-0.192 31:-0.317 32:-0.313 33:-0.271 34:-0.274 35:-0.147 36:-0.297 
-32768 1:-0.277 2:-0.119 3:0.125 4:-0.043 5:-0.169 6:-0.269 7:-0.216 8:-0.256 9:-0.162 10:-0.219 11:-0.192 12:-0.143 13:-0.146 14:-0.081 15:-0.127 16:-0.142 17:0.016 18:-0.033 19:-0.038 20:-0.018 21:-0.091 22:-0.08 23:-0.062 24:-0.16 25:-0.031 26:-0.045 27:-0.248 28:-0.191 29:-0.17 30:-0.147 31:-0.167 32:-0.172 33:-0.171 34:-0.088 35:-0.074 36:-0.163 
-32768 1:-0.289 2:-0.101 3:0.167 4:0.044 5:-0.093 6:-0.388 7:-0.17 8:-0.252 9:-0.044 10:-0.202 11:-0.247 12:-0.234 13:-0.175 14:0.001 15:-0.206 16:-0.237 17:-0.058 18:-0.023 19:-0.05 20:-0.081 21:-0.131 22:-0.113 23:-0.049 24:-0.197 25:-0.09 26:-0.085 27:-0.17 28:-0.132 29:-0.147 30:-0.052 31:-0.159 32:-0.251 33:-0.147 34:-0.178 35:-0.008 36:-0.236 
-2763.961551582147 1:-0.316 2:-0.12 3:-0.026 4:-0.113 5:-0.167 6:-0.364 7:-0.264 8:-0.288 9:-0.151 10:-0.281 11:-0.285 12:-0.18 13:-0.163 14:-0.083 15:-0.248 16:-0.219 17:0.064 18:0.038 19:0.085 20:-0.029 21:-0.122 22:-0.099 23:-0.079 24:-0.087 25:-0.082 26:-0.054 27:-0.185 28:-0.245 29:-0.222 30:-0.159 31:-0.247 32:-0.088 33:-0.11 34:-0.17 35:0.028 36:-0.25 
-3001.166114968724 1:-0.29 2:-0.163 3:-0.092 4:-0.071 5:-0.188 6:-0.367 7:-0.214 8:-0.259 9:-0.116 10:-0.233 11:-0.222 12:-0.218 13:-0.163 14:-0.076 15:-0.231 16:-0.263 17:-0.018 18:-0.017 19:0.03 20:-0.065 21:-0.135 22:-0.091 23:-0.086 24:-0.02 25:-0.062 26:-0.062 27:-0.191 28:-0.127 29:-0.249 30:-0.042 31:-0.169 32:-0.21 33:-0.138 34:-0.221 35:-0.023 36:-0.273 
-32768 1:-0.424 2:-0.214 3:0.204 4:-0.004 5:-0.413 6:-0.413 7:-0.308 8:-0.433 9:-0.106 10:-0.419 11:-0.389 12:-0.33 13:-0.289 14:-0.052 15:-0.351 16:-0.331 17:0.043 18:0.058 19:-0.015 20:-0.002 21:0.005 22:-0.15 23:-0.086 24:-0.166 25:-0.157 26:-0.148 27:-0.43 28:-0.362 29:-0.527 30:-0.132 31:-0.399 32:-0.364 33:-0.277 34:-0.356 35:-0.075 36:-0.356 
-8268.448118479921 1:-0.26 2:-0.126 3:1.005 4:0.008 5:-0.158 6:-0.249 7:-0.203 8:-0.24 9:-0.173 10:-0.205 11:-0.144 12:-0.207 13:-0.242 14:-0.104 15:-0.159 16:-0.11 17:0.025 18:-0.073 19:-0.399 20:-0.046 21:-0.002 22:-0.1 23:-0.048 24:-0.442 25:0.032 26:0.021 27:-0.212 28:-0.172 29:-0.371 30:-0.073 31:-0.164 32:-0.2 33:-0.153 34:-0.181 35:-0.094 36:-0.22 
-32768 1:-0.285 2:-0.201 3:-0.065 4:-0.112 5:-0.155 6:-0.39 7:-0.187 8:-0.273 9:-0.111 10:-0.22 11:-0.19 12:-0.297 13:-0.205 14:-0.142 15:-0.238 16:-0.269 17:-0.057 18:0.012 19:0.026 20:-0.082 21:-0.132 22:-0.119 23:-0.114 24:-0.046 25:-0.037 26:-0.062 27:-0.137 28:-0.061 29:-0.256 30:-0.006 31:-0.114 32:-0.306 33:-0.146 34:-0.293 35:-0.063 36:-0.338 
-32768 1:-0.263 2:-0.1 3:-0.034 4:-0.026 5:-0.119 6:-0.399 7:-0.224 8:-0.213 9:-0.101 10:-0.211 11:-0.306 12:-0.198 13:-0.175 14:-0.015 15:-0.214 16:-0.28 17:-0.046 18:-0.021 19:0.002 20:-0.094 21:-0.141 22:-0.106 23:-0.068 24:-0.095 25:-0.053 26:-0.111 27:-0.165 28:-0.183 29:-0.136 30:-0.102 31:-0.201 32:-0.161 33:-0.114 34:-0.2 35:0.017 36:-0.243 
-1818.872309990592 1:-0.458 2:-0.22 3:0.21 4:0.024 5:-0.463 6:-0.502 7:-0.297 8:-0.453 9:-0.131 10:-0.514 11:-0.378 12:-0.437 13:-0.367 14:-0.095 15:-0.534 16:-0.381 17:-0.012 18:-0.046 19:-0.078 20:-0.027 21:-0.121 22:-0.196 23:-0.02 24:-0.251 25:-0.196 26:-0.098 27:-0.418 28:-0.415 29:-0.451 30:-0.251 31:-0.394 32:-0.445 33:-0.317 34:-0.338 35:-0.155 36:-0.568 
-32768 1:-0.388 2:-0.301 3:0.285 4:-0.252 5:-0.431 6:-0.363 7:-0.285 8:-0.449 9:-0.153 10:-0.447 11:-0.317 12:-0.398 13:-0.322 14:-0.238 15:-0.383 16:-0.263 17:0.141 18:0.251 19:0.161 20:0.133 21:0.118 22:-0.227 23:-0.219 24:-0.156 25:-0.151 26:-0.096 27:-0.354 28:-0.333 29:-0.629 30:-0.168 31:-0.342 32:-0.347 33:-0.271 34:-0.396 35:-0.125 36:-0.422 
-32768 1:-0.334 2:-0.121 3:-0.008 4:0.013 5:-0.161 6:-0.35 7:-0.222 8:-0.258 9:-0.1 10:-0.225 11:-0.231 12:-0.26 13:-0.155 14:-0.034 15:-0.232 16:-0.221 17:-0.133 18:-0.122 19:-0.074 20:-0.078 21:-0.206 22:-0.132 23:-0.056 24:-0.146 25:-0.116 26:-0.064 27:-0.261 28:-0.156 29:-0.136 30:-0.087 31:-0.153 32:-0.328 33:-0.188 34:-0.129 35:-0.083 36:-0.25 
-17027.15570179862 1:-0.538 2:-0.194 3:-0.083 4:-0.037 5:-0.223 6:-0.619 7:-0.353 8:-0.324 9:-0.192 10:-0.387 11:-0.43 12:-0.392 13:-0.242 14:-0.09 15:-0.34 16:-0.352 17:-0.186 18:-0.147 19:-0.061 20:-0.14 21:-0.274 22:-0.234 23:-0.071 24:-0.165 25:-0.213 26:-0.118 27:-0.364 28:-0.318 29:-0.179 30:-0.194 31:-0.344 32:-0.413 33:-0.342 34:-0.275 35:-0.13 36:-0.358 
-24943.42690857936 1:-0.205 2:-0.103 3:0.338 4:-0.122 5:-0.089 6:-0.274 7:-0.184 8:-0.319 9:-0.133 10:-0.112 11:-0.128 12:-0.107 13:-0.178 14:-0.122 15:-0.076 16:-0.1 17:0.146 18:0.057 19:0.002 20:0.096 21:-0.055 22:-0.075 23:-0.072 24:-0.168 25:0.025 26:0.03 27:-0.179 28:-0.189 29:-0.335 30:-0.112 31:-0.154 32:-0.078 33:-0.137 34:-0.136 35:-0.068 36:-0.111 
-32768 1:-0.291 2:-0.122 3:0.015 4:-0.029 5:-0.21 6:-0.295 7:-0.248 8:-0.247 9:-0.173 10:-0.247 11:-0.225 12:-0.184 13:-0.133 14:-0.076 15:-0.218 16:-0.162 17:-0.018 18:0.012 19:0.017 20:-0.056 21:-0.062 22:-0.086 23:-0.073 24:-0.028 25:-0.079 26:-0.079 27:-0.231 28:-0.212 29:-0.314 30:-0.087 31:-0.231 32:-0.197 33:-0.193 34:-0.235 35:-0.078 36:-0.228 
-32768 1:-0.293 2:-0.186 3:0.244 4:-0.035 5:-0.267 6:-0.32 7:-0.278 8:-0.314 9:-0.12 10:-0.294 11:-0.292 12:-0.2 13:-0.184 14:-0.079 15:-0.222 16:-0.223 17:0.066 18:0.072 19:-0.005 20:-0.002 21:0.015 22:-0.085 23:-0.125 24:-0.133 25:-0.06 26:-0.116 27:-0.245 28:-0.227 29:-0.358 30:-0.115 31:-0.217 32:-0.207 33:-0.195 34:-0.233 35:-0.049 36:-0.261 
-32768 1:-0.208 2:-0.098 3:0.333 4:-0.084 5:-0.102 6:-0.267 7:-0.126 8:-0.441 9:0.028 10:-0.187 11:-0.174 12:-0.218 13:-0.262 14:-0.028 15:-0.264 16:-0.234 17:0.144 18:0.173 19:0.085 20:0.078 21:-0.005 22:-0.182 23:-0.147 24:-0.297 25:-0.168 26:-0.138 27:-0.122 28:-0.077 29:-0.408 30:0.039 31:-0.07 32:-0.157 33:-0.039 34:-0.25 35:0.067 36:-0.237 
-32768 1:-0.369 2:-0.145 3:0.033 4:-0.112 5:-0.132 6:-0.291 7:-0.235 8:-0.217 9:-0.193 10:-0.311 11:-0.263 12:-0.254 13:-0.143 14:-0.139 15:-0.212 16:-0.174 17:-0.062 18:-0.016 19:-0.028 20:-0.084 21:-0.098 22:-0.108 23:-0.08 24:-0.075 25:-0.06 26:-0.027 27:-0.169 28:-0.155 29:-0.159 30:-0.126 31:-0.174 32:-0.201 33:-0.119 34:-0.179 35:-0.031 36:-0.215 
-32768 1:-0.26 2:-0.137 3:0.228 4:-0.056 5:-0.215 6:-0.274 7:-0.191 8:-0.307 9:-0.077 10:-0.24 11:-0.201 12:-0.214 13:-0.186 14:-0.07 15:-0.174 16:-0.16 17:0.071 18:0.045 19:-0.032 20:0.016 21:-0.009 22:-0.137 23:-0.092 24:-0.156 25:-0.052 26:-0.059 27:-0.225 28:-0.179 29:-0.346 30:-0.06 31:-0.18 32:-0.194 33:-0.165 34:-0.205 35:-0.051 36:-0.182 
-32768 1:-0.275 2:-0.1 3:0.359 4:0.1 5:-0.316 6:-0.293 7:-0.172 8:-0.347 9:-0.038 10:-0.377 11:-0.239 12:-0.243 13:-0.27 14:0.046 15:-0.458 16:-0.293 17:0.042 18:0.016 19:-0.044 20:0.017 21:-0.076 22:-0.127 23:-0.038 24:-0.265 25:-0.284 26:-0.163 27:-0.285 28:-0.183 29:-0.387 30:-0.027 31:-0.199 32:-0.199 33:-0.106 34:-0.218 35:0.033 36:-0.34 
-32768 1:-0.426 2:-0.166 3:0.143 4:-0.019 5:-0.193 6:-0.412 7:-0.315 8:-0.333 9:-0.146 10:-0.303 11:-0.353 12:-0.29 13:-0.193 14:-0.083 15:-0.221 16:-0.227 17:-0.052 18:-0.077 19:-0.085 20:-0.058 21:-0.149 22:-0.164 23:-0.069 24:-0.198 25:-0.107 26:-0.066 27:-0.307 28:-0.305 29:-0.246 30:-0.17 31:-0.307 32:-0.304 33:-0.264 34:-0.188 35:-0.112 36:-0.245 
-32768 1:-0.286 2:-0.122 3:-0.097 4:-0.059 5:-0.131 6:-0.367 7:-0.184 8:-0.211 9:-0.094 10:-0.208 11:-0.193 12:-0.234 13:-0.1 14:-0.088 15:-0.17 16:-0.133 17:-0.095 18:-0.043 19:0.012 20:-0.071 21:-0.123 22:-0.088 23:-0.056 24:-0.013 25:-0.056 26:-0.016 27:-0.212 28:-0.197 29:-0.216 30:-0.084 31:-0.228 32:-0.329 33:-0.249 34:-0.232 35:-0.092 36:-0.234 
-32768 1:-0.256 2:-0.121 3:0.076 4:0.064 5:-0.121 6:-0.373 7:-0.145 8:-0.306 9:-0.021 10:-0.23 11:-0.244 12:-0.238 13:-0.202 14:-0.009 15:-0.221 16:-0.271 17:-0.074 18:-0.069 19:-0.057 20:-0.081 21:-0.183 22:-0.103 23:-0.047 24:-0.212 25:-0.085 26:-0.122 27:-0.14 28:-0.087 29:-0.107 30:-0.047 31:-0.101 32:-0.25 33:-0.147 34:-0.141 35:-0.036 36:-0.261 
-30373.91631710027 1:-0.333 2:-0.151 3:0.128 4:-0.172 5:-0.216 6:-0.278 7:-0.312 8:-0.307 9:-0.193 10:-0.207 11:-0.226 12:-0.18 13:-0.122 14:-0.129 15:-0.137 16:-0.098 17:0.055 18:0.114 19:0.073 20:0.052 21:0.035 22:-0.147 23:-0.161 24:-0.045 25:-0.088 26:-0.046 27:-0.373 28:-0.335 29:-0.479 30:-0.134 31:-0.295 32:-0.236 33:-0.245 34:-0.27 35:-0.11 36:-0.162 
-32768 1:-0.219 2:-0.068 3:0.088 4:-0.096 5:-0.065 6:-0.2 7:-0.138 8:-0.239 9:-0.086 10:-0.157 11:-0.135 12:-0.166 13:-0.125 14:-0.08 15:-0.153 16:-0.113 17:0.007 18:0.046 19:0.017 20:-0.03 21:-0.053 22:-0.093 23:-0.078 24:-0.076 25:-0.057 26:-0.035 27:-0.131 28:-0.094 29:-0.259 30:-0.009 31:-0.09 32:-0.145 33:-0.054 34:-0.2 35:0.009 36:-0.161 
-32768 1:-0.329 2:-0.16 3:-0.178 4:0.001 5:-0.17 6:-0.498 7:-0.3 8:-0.332 9:-0.15 10:-0.256 11:-0.359 12:-0.25 13:-0.187 14:-0.104 15:-0.214 16:-0.251 17:-0.167 18:-0.194 19:-0.072 20:-0.104 21:-0.311 22:-0.072 23:-0.015 24:-0.067 25:-0.085 26:-0.049 27:-0.252 28:-0.271 29:-0.243 30:-0.15 31:-0.285 32:-0.339 33:-0.306 34:-0.321 35:-0.133 36:-0.269 
-13747.00854464026 1:-0.223 2:-0.081 3:0.242 4:-0.04 5:-0.091 6:-0.204 7:-0.148 8:-0.319 9:-0.014 10:-0.163 11:-0.185 12:-0.171 13:-0.148 14:-0.024 15:-0.175 16:-0.162 17:0.159 18:0.17 19:0.054 20:-0.001 21:0.077 22:-0.171 23:-0.133 24:-0.209 25:-0.101 26:-0.133 27:-0.136 28:-0.117 29:-0.285 30:0.015 31:-0.147 32:-0.093 33:-0.054 34:-0.155 35:0.03 36:-0.144 
-32768 1:-0.291 2:-0.12 3:0.028 4:-0.02 5:-0.186 6:-0.326 7:-0.187 8:-0.198 9:-0.172 10:-0.245 11:-0.136 12:-0.273 13:-0.123 14:-0.124 15:-0.257 16:-0.123 17:-0.063 18:-0.029 19:-0.036 20:-0.084 21:-0.09 22:-0.08 23:-0.017 24:-0.07 25:-0.062 26:0.022 27:-0.234 28:-0.23 29:-0.185 30:-0.155 31:-0.211 32:-0.32 33:-0.221 34:-0.191 35:-0.147 36:-0.309 
-32768 1:-0.341 2:-0.196 3:0.02 4:-0.15 5:-0.228 6:-0.326 7:-0.232 8:-0.399 9:-0.033 10:-0.339 11:-0.317 12:-0.327 13:-0.246 14:-0.032 15:-0.377 16:-0.333 17:0.127 18:0.175 19:0.183 20:0.02 21:-0.005 22:-0.302 23:-0.246 24:-0.116 25:-0.289 26:-0.237 27:-0.211 28:-0.092 29:-0.449 30:0.093 31:-0.204 32:-0.184 33:-0.051 34:-0.282 35:0.117 36:-0.3 
-32768 1:-0.272 2:-0.115 3:-0.062 4:-0.133 5:-0.108 6:-0.309 7:-0.163 8:-0.19 9:-0.101 10:-0.174 11:-0.133 12:-0.245 13:-0.094 14:-0.096 15:-0.175 16:-0.129 17:0.019 18:0.078 19:0.099 20:-0.028 21:-0.038 22:-0.177 23:-0.108 24:-0.013 25:-0.096 26:-0.031 27:-0.158 28:-0.147 29:-0.219 30:-0.047 31:-0.171 32:-0.18 33:-0.142 34:-0.195 35:-0.02 36:-0.185 
-32768 1:-0.243 2:-0.061 3:-0.002 4:-0.027 5:-0.092 6:-0.27 7:-0.156 8:-0.23 9:-0.064 10:-0.168 11:-0.228 12:-0.169 13:-0.112 14:-0.042 15:-0.141 16:-0.131 17:0.024 18:0.043 19:0.036 20:-0.054 21:-0.074 22:-0.132 23:-0.064 24:-0.107 25:-0.083 26:-0.085 27:-0.133 28:-0.157 29:-0.154 30:-0.065 31:-0.21 32:-0.122 33:-0.114 34:-0.114 35:-0.043 36:-0.127 
-16794.23570465806 1:-0.348 2:-0.251 3:0.362 4:-0.17 5:-0.303 6:-0.337 7:-0.255 8:-0.63 9:-0.013 10:-0.354 11:-0.383 12:-0.286 13:-0.422 14:-0.101 15:-0.322 16:-0.324 17:0.31 18:0.368 19:0.273 20:0.247 21:0.198 22:-0.233 23:-0.271 24:-0.305 25:-0.234 26:-0.239 27:-0.313 28:-0.199 29:-0.645 30:0.014 31:-0.308 32:-0.238 33:-0.141 34:-0.45 35:0.05 36:-0.295 
-32768 1:-0.29 2:-0.158 3:0.011 4:-0.096 5:-0.171 6:-0.312 7:-0.241 8:-0.303 9:-0.182 10:-0.234 11:-0.206 12:-0.204 13:-0.156 14:-0.148 15:-0.181 16:-0.136 17:0.035 18:0.082 19:0.111 20:0.035 21:-0.034 22:-0.034 23:-0.07 24:-0.012 25:-0.026 26:0.006 27:-0.245 28:-0.229 29:-0.331 30:-0.114 31:-0.239 32:-0.256 33:-0.202 34:-0.277 35:-0.076 36:-0.216 
-32768 1:-0.318 2:-0.174 3:0.2 4:-0.098 5:-0.221 6:-0.37 7:-0.32 8:-0.375 9:-0.157 10:-0.276 11:-0.335 12:-0.205 13:-0.194 14:-0.127 15:-0.199 16:-0.179 17:0.03 18:-0.005 19:-0.039 20:-0.019 21:-0.094 22:-0.081 23:-0.087 24:-0.136 25:-0.059 26:-0.035 27:-0.274 28:-0.321 29:-0.433 30:-0.154 31:-0.336 32:-0.242 33:-0.24 34:-0.282 35:-0.079 36:-0.256 
-16962.03232743213 1:-0.208 2:-0.062 3:-0.014 4:-0.062 5:-0.086 6:-0.222 7:-0.133 8:-0.255 9:-0.067 10:-0.176 11:-0.136 12:-0.13 13:-0.091 14:-0.066 15:-0.158 16:-0.105 17:0.072 18:0.067 19:0.063 20:-0.017 21:-0.041 22:-0.081 23:-0.058 24:-0.055 25:-0.055 26:-0.021 27:-0.167 28:-0.152 29:-0.205 30:-0.061 31:-0.15 32:-0.136 33:-0.107 34:-0.08 35:-0.066 36:-0.171 
-32768 1:-0.292 2:-0.187 3:0.421 4:-0.048 5:-0.211 6:-0.387 7:-0.263 8:-0.434 9:-0.107 10:-0.262 11:-0.351 12:-0.198 13:-0.282 14:-0.12 15:-0.161 16:-0.24 17:0.128 18:0.081 19:-0.031 20:0.049 21:0.013 22:-0.111 23:-0.107 24:-0.247 25:-0.049 26:-0.114 27:-0.233 28:-0.257 29:-0.452 30:-0.106 31:-0.321 32:-0.201 33:-0.229 34:-0.321 35:-0.086 36:-0.211 
-12754.82187656712 1:-0.423 2:-0.195 3:0.353 4:0.182 5:-0.54 6:-0.47 7:-0.318 8:-0.407 9:-0.113 10:-0.503 11:-0.384 12:-0.375 13:-0.327 14:0.063 15:-0.523 16:-0.336 17:0.01 18:-0.017 19:-0.044 20:-0.025 21:-0.101 22:-0.19 23:-0.009 24:-0.287 25:-0.353 26:-0.146 27:-0.493 28:-0.461 29:-0.517 30:-0.191 31:-0.507 32:-0.381 33:-0.315 34:-0.331 35:-0.031 36:-0.459 
-32768 1:-0.293 2:-0.144 3:0.133 4:-0.093 5:-0.245 6:-0.245 7:-0.192 8:-0.259 9:-0.135 10:-0.325 11:-0.204 12:-0.244 13:-0.168 14:-0.102 15:-0.315 16:-0.2 17:-0.016 18:0.074 19:0.009 20:-0.05 21:0.009 22:-0.107 23:-0.119 24:-0.14 25:-0.117 26:-0.118 27:-0.261 28:-0.152 29:-0.256 30:-0.09 31:-0.15 32:-0.282 33:-0.156 34:-0.193 35:-0.083 36:-0.31 
-32768 1:-0.254 2:-0.198 3:0.181 4:-0.06 5:-0.354 6:-0.31 7:-0.291 8:-0.393 9:-0.236 10:-0.292 11:-0.271 12:-0.187 13:-0.237 14:-0.177 15:-0.206 16:-0.188 17:0.141 18:0.091 19:0.084 20:0.124 21:-0.001 22:-0.052 23:-0.046 24:-0.029 25:-0.028 26:-0.019 27:-0.314 28:-0.335 29:-0.527 30:-0.215 31:-0.311 32:-0.224 33:-0.255 34:-0.305 35:-0.181 36:-0.253 
-32768 1:-0.22 2:-0.15 3:-0.075 4:-0.001 5:-0.142 6:-0.531 7:-0.235 8:-0.279 9:-0.078 10:-0.177 11:-0.333 12:-0.182 13:-0.139 14:-0.063 15:-0.14 16:-0.224 17:-0.095 18:-0.082 19:-0.033 20:-0.071 21:-0.196 22:-0.055 23:-0.056 24:-0.08 25:-0.051 26:-0.079 27:-0.244 28:-0.251 29:-0.234 30:-0.119 31:-0.323 32:-0.328 33:-0.328 34:-0.255 35:-0.133 36:-0.211 
-32768 1:-0.344 2:-0.227 3:0.108 4:-0.172 5:-0.239 6:-0.396 7:-0.33 8:-0.375 9:-0.184 10:-0.268 11:-0.313 12:-0.299 13:-0.219 14:-0.164 15:-0.252 16:-0.232 17:0.041 18:0.06 19:0.038 20:0.003 21:-0.039 22:-0.2 23:-0.197 24:-0.147 25:-0.133 26:-0.137 27:-0.291 28:-0.261 29:-0.424 30:-0.127 31:-0.286 32:-0.334 33:-0.255 34:-0.324 35:-0.092 36:-0.306 
-32768 1:-0.252 2:-0.144 3:-0.039 4:-0.053 5:-0.107 6:-0.337 7:-0.184 8:-0.29 9:-0.073 10:-0.157 11:-0.195 12:-0.203 13:-0.138 14:-0.095 15:-0.141 16:-0.17 17:-0.055 18:-0.078 19:-0.016 20:-0.015 21:-0.186 22:-0.093 23:-0.065 24:-0.053 25:-0.075 26:-0.02 27:-0.161 28:-0.116 29:-0.264 30:-0.005 31:-0.156 32:-0.223 33:-0.199 34:-0.215 35:-0.082 36:-0.151 
-32768 1:-0.243 2:-0.163 3:0.04 4:-0.043 5:-0.128 6:-0.474 7:-0.226 8:-0.251 9:-0.102 10:-0.154 11:-0.232 12:-0.219 13:-0.154 14:-0.077 15:-0.15 16:-0.203 17:-0.063 18:-0.047 19:-0.023 20:-0.053 21:-0.167 22:-0.106 23:-0.098 24:-0.096 25:-0.072 26:-0.059 27:-0.188 28:-0.172 29:-0.254 30:-0.049 31:-0.241 32:-0.268 33:-0.237 34:-0.267 35:-0.048 36:-0.194 
-4070.306526492488 1:-0.221 2:-0.167 3:0.271 4:-0.091 5:-0.228 6:-0.33 7:-0.21 8:-0.411 9:-0.049 10:-0.21 11:-0.253 12:-0.134 13:-0.201 14:-0.066 15:-0.159 16:-0.199 17:0.195 18:0.237 19:0.141 20:0.116 21:0.143 22:-0.064 23:-0.14 24:-0.066 25:-0.083 26:-0.147 27:-0.284 28:-0.25 29:-0.615 30:-0.025 31:-0.325 32:-0.225 33:-0.236 34:-0.35 35:-0.04 36:-0.199 
-28074.13191887246 1:-0.313 2:-0.099 3:-0.053 4:0.007 5:-0.167 6:-0.296 7:-0.24 8:-0.192 9:-0.158 10:-0.195 11:-0.188 12:-0.179 13:-0.043 14:-0.082 15:-0.09 16:-0.032 17:-0.054 18:-0.081 19:-0.028 20:-0.042 21:-0.125 22:-0.065 23:0.014 24:-0.044 25:-0.043 26:0.046 27:-0.304 28:-0.342 29:-0.157 30:-0.219 31:-0.326 32:-0.244 33:-0.3 34:-0.07 35:-0.165 36:-0.107 
-2779.591239738842 1:-0.311 2:-0.147 3:0.604 4:0.095 5:-0.309 6:-0.351 7:-0.25 8:-0.448 9:-0.042 10:-0.311 11:-0.288 12:-0.271 13:-0.322 14:0.019 15:-0.345 16:-0.248 17:0.202 18:0.174 19:-0.019 20:0.092 21:0.137 22:-0.187 23:-0.091 24:-0.396 25:-0.191 26:-0.166 27:-0.361 28:-0.362 29:-0.481 30:-0.146 31:-0.346 32:-0.307 33:-0.241 34:-0.275 35:-0.059 36:-0.346 
-32768 1:-0.441 2:-0.214 3:-0.095 4:-0.032 5:-0.378 6:-0.373 7:-0.298 8:-0.256 9:-0.252 10:-0.433 11:-0.27 12:-0.403 13:-0.168 14:-0.174 15:-0.398 16:-0.24 17:-0.122 18:-0.071 19:-0.038 20:-0.138 21:-0.147 22:-0.186 23:-0.055 24:-0.059 25:-0.184 26:-0.051 27:-0.348 28:-0.307 29:-0.227 30:-0.256 31:-0.272 32:-0.415 33:-0.272 34:-0.215 35:-0.201 36:-0.422 
-32768 1:-0.239 2:-0.141 3:0.016 4:-0.027 5:-0.102 6:-0.364 7:-0.205 8:-0.256 9:-0.123 10:-0.152 11:-0.264 12:-0.165 13:-0.156 14:-0.103 15:-0.107 16:-0.212 17:-0.098 18:-0.11 19:-0.09 20:-0.081 21:-0.199 22:-0.041 23:-0.055 24:-0.099 25:-0.007 26:-0.065 27:-0.159 28:-0.12 29:-0.203 30:-0.048 31:-0.169 32:-0.193 33:-0.18 34:-0.236 35:-0.074 36:-0.159 
-32768 1:-0.211 2:-0.085 3:0.084 4:-0.007 5:-0.134 6:-0.252 7:-0.186 8:-0.196 9:-0.103 10:-0.122 11:-0.162 12:-0.102 13:-0.047 14:-0.066 15:-0.053 16:-0.052 17:0.049 18:0.041 19:0.033 20:0.026 21:-0.033 22:-0.041 23:-0.014 24:-0.033 25:-0.046 26:-0.013 27:-0.253 28:-0.299 29:-0.293 30:-0.127 31:-0.324 32:-0.122 33:-0.231 34:-0.105 35:-0.104 36:-0.014 
-22451.83615282602 1:-0.378 2:-0.213 3:0.445 4:0.131 5:-0.487 6:-0.403 7:-0.289 8:-0.435 9:-0.091 10:-0.428 11:-0.357 12:-0.323 13:-0.343 14:0.011 15:-0.369 16:-0.31 17:0.119 18:0.149 19:0.075 20:0.145 21:0.081 22:-0.132 23:-0.046 24:-0.225 25:-0.163 26:-0.117 27:-0.459 28:-0.392 29:-0.536 30:-0.168 31:-0.426 32:-0.352 33:-0.287 34:-0.351 35:-0.064 36:-0.373 
-32768 1:-0.357 2:-0.174 3:-0.095 4:-0.028 5:-0.189 6:-0.457 7:-0.281 8:-0.297 9:-0.091 10:-0.22 11:-0.361 12:-0.257 13:-0.153 14:-0.064 15:-0.16 16:-0.26 17:-0.058 18:-0.031 19:0.022 20:-0.075 21:-0.152 22:-0.148 23:-0.09 24:-0.106 25:-0.082 26:-0.108 27:-0.28 28:-0.249 29:-0.192 30:-0.105 31:-0.307 32:-0.311 33:-0.275 34:-0.197 35:-0.106 36:-0.221 
-24762.76630201122 1:-0.36 2:-0.132 3:0.048 4:0.027 5:-0.297 6:-0.411 7:-0.325 8:-0.253 9:-0.281 10:-0.31 11:-0.271 12:-0.182 13:-0.132 14:-0.134 15:-0.206 16:-0.154 17:-0.075 18:-0.08 19:-0.075 20:-0.061 21:-0.118 22:0.036 23:0.08 24:-0.004 25:0.008 26:0.059 27:-0.413 28:-0.494 29:-0.36 30:-0.352 31:-0.417 32:-0.307 33:-0.343 34:-0.271 35:-0.207 36:-0.27 
-32768 1:-0.309 2:-0.151 3:0.124 4:-0.019 5:-0.109 6:-0.294 7:-0.243 8:-0.232 9:-0.124 10:-0.136 11:-0.258 12:-0.248 13:-0.103 14:-0.102 15:-0.117 16:-0.14 17:-0.115 18:-0.085 19:-0.098 20:-0.065 21:-0.158 22:-0.113 23:-0.079 24:-0.156 25:-0.04 26:-0.04 27:-0.204 28:-0.154 29:-0.152 30:-0.076 31:-0.206 32:-0.284 33:-0.208 34:-0.099 35:-0.13 36:-0.154 
-32768 1:-0.238 2:-0.117 3:0.172 4:-0.013 5:-0.155 6:-0.327 7:-0.16 8:-0.356 9:-0.061 10:-0.237 11:-0.262 12:-0.167 13:-0.223 14:-0.074 15:-0.198 16:-0.24 17:-0.008 18:-0.102 19:-0.098 20:-0.018 21:-0.201 22:-0.063 23:-0.027 24:-0.208 25:-0.066 26:-0.061 27:-0.181 28:-0.118 29:-0.249 30:-0.05 31:-0.158 32:-0.186 33:-0.151 34:-0.152 35:-0.088 36:-0.237 
-32768 1:-0.34 2:-0.135 3:-0.046 4:-0.053 5:-0.248 6:-0.387 7:-0.268 8:-0.322 9:-0.129 10:-0.385 11:-0.382 12:-0.224 13:-0.201 14:-0.073 15:-0.36 16:-0.304 17:0.005 18:0.035 19:0.066 20:-0.088 21:-0.113 22:-0.123 23:-0.077 24:-0.097 25:-0.195 26:-0.157 27:-0.23 28:-0.262 29:-0.288 30:-0.152 31:-0.291 32:-0.182 33:-0.143 34:-0.26 35:-0.014 36:-0.341 
-5607.237876478799 1:-0.348 2:-0.147 3:-0.022 4:-0.1 5:-0.234 6:-0.303 7:-0.238 8:-0.407 9:-0.062 10:-0.318 11:-0.283 12:-0.259 13:-0.201 14:-0.041 15:-0.326 16:-0.239 17:0.095 18:0.186 19:0.213 20:0.045 21:-0.004 22:-0.205 23:-0.167 24:-0.117 25:-0.226 26:-0.149 27:-0.29 28:-0.204 29:-0.365 30:-0.07 31:-0.211 32:-0.249 33:-0.138 34:-0.209 35:-0.018 36:-0.32 
-32768 1:-0.397 2:-0.216 3:0.207 4:-0.05 5:-0.452 6:-0.411 7:-0.308 8:-0.483 9:-0.098 10:-0.438 11:-0.343 12:-0.399 13:-0.338 14:-0.048 15:-0.507 16:-0.316 17:0.1 18:0.147 19:0.139 20:0.128 21:0.009 22:-0.252 23:-0.136 24:-0.153 25:-0.325 26:-0.175 27:-0.427 28:-0.385 29:-0.704 30:-0.099 31:-0.422 32:-0.394 33:-0.287 34:-0.428 35:-0.054 36:-0.443 
-32768 1:-0.26 2:-0.166 3:-0.003 4:-0.062 5:-0.215 6:-0.256 7:-0.212 8:-0.185 9:-0.204 10:-0.18 11:-0.096 12:-0.217 13:-0.087 14:-0.175 15:-0.132 16:-0.072 17:-0.017 18:0.045 19:0.064 20:0.007 21:-0.04 22:-0.062 23:-0.056 24:-0.042 25:0.001 26:0.024 27:-0.267 28:-0.237 29:-0.186 30:-0.184 31:-0.199 32:-0.282 33:-0.252 34:-0.147 35:-0.188 36:-0.207 
-32768 1:-0.304 2:-0.135 3:0.093 4:-0.067 5:-0.185 6:-0.333 7:-0.226 8:-0.355 9:-0.083 10:-0.215 11:-0.271 12:-0.216 13:-0.206 14:-0.057 15:-0.224 16:-0.245 17:0.079 18:0.132 19:0.094 20:-0.01 21:-0.017 22:-0.175 23:-0.132 24:-0.224 25:-0.126 26:-0.132 27:-0.263 28:-0.208 29:-0.243 30:-0.098 31:-0.24 32:-0.202 33:-0.132 34:-0.166 35:-0.037 36:-0.25 
-32768 1:-0.297 2:-0.136 3:0.108 4:0.074 5:-0.272 6:-0.357 7:-0.217 8:-0.418 9:-0.037 10:-0.29 11:-0.269 12:-0.239 13:-0.227 14:0.016 15:-0.29 16:-0.233 17:0.085 18:0.093 19:0.116 20:0.075 21:-0.029 22:-0.112 23:-0.054 24:-0.127 25:-0.161 26:-0.09 27:-0.326 28:-0.259 29:-0.411 30:-0.068 31:-0.277 32:-0.295 33:-0.222 34:-0.272 35:-0.041 36:-0.276 
-32768 1:-0.277 2:-0.13 3:-0.074 4:-0.033 5:-0.163 6:-0.258 7:-0.22 8:-0.232 9:-0.095 10:-0.18 11:-0.195 12:-0.164 13:-0.083 14:-0.048 15:-0.124 16:-0.144 17:-0.012 18:-0.051 19:0.021 20:-0.056 21:-0.175 22:-0.14 23:-0.092 24:-0.098 25:-0.087 26:-0.057 27:-0.175 28:-0.119 29:-0.114 30:-0.058 31:-0.133 32:-0.107 33:-0.119 34:-0.051 35:-0.025 36:-0.164 
-31595.22201376573 1:-0.314 2:-0.167 3:0.079 4:0.07 5:-0.283 6:-0.304 7:-0.199 8:-0.386 9:-0.083 10:-0.376 11:-0.243 12:-0.309 13:-0.26 14:-0.052 15:-0.371 16:-0.282 17:0.037 18:0.011 19:0.05 20:0.009 21:-0.102 22:-0.181 23:-0.062 24:-0.133 25:-0.154 26:-0.123 27:-0.216 28:-0.123 29:-0.334 30:-0.048 31:-0.13 32:-0.274 33:-0.145 34:-0.269 35:-0.05 36:-0.381 
-32768 1:-0.125 2:-0.056 3:-0.114 4:0.108 5:-0.04 6:-0.391 7:-0.039 8:-0.165 9:-0.02 10:-0.168 11:-0.14 12:-0.154 13:-0.166 14:0.001 15:-0.179 16:-0.247 17:-0.077 18:-0.06 19:0.003 20:-0.087 21:-0.193 22:-0.027 23:0.003 24:-0.04 25:-0.025 26:-0.085 27:-0.031 28:0.002 29:-0.096 30:0.042 31:-0.043 32:-0.157 33:-0.081 34:-0.254 35:0.022 36:-0.218 
-32768 1:-0.237 2:-0.137 3:0.131 4:-0.113 5:-0.231 6:-0.244 7:-0.228 8:-0.291 9:-0.217 10:-0.176 11:-0.124 12:-0.102 13:-0.107 14:-0.188 15:-0.048 16:-0.023 17:0.091 18:0.109 19:0.087 20:0.113 21:0.051 22:0.052 23:-0.016 24:0.018 25:0.081 26:0.076 27:-0.344 28:-0.368 29:-0.445 30:-0.253 31:-0.287 32:-0.241 33:-0.295 34:-0.275 35:-0.178 36:-0.121 
-32768 1:-0.307 2:-0.139 3:0.106 4:0.007 5:-0.21 6:-0.272 7:-0.232 8:-0.24 9:-0.145 10:-0.228 11:-0.198 12:-0.211 13:-0.119 14:-0.061 15:-0.176 16:-0.136 17:0.012 18:0.015 19:0.01 20:-0.032 21:-0.064 22:-0.108 23:-0.063 24:-0.088 25:-0.08 26:-0.045 27:-0.228 28:-0.21 29:-0.246 30:-0.104 31:-0.218 32:-0.19 33:-0.179 34:-0.141 35:-0.056 36:-0.185 
-32768 1:-0.293 2:-0.256 3:-0.097 4:-0.094 5:-0.186 6:-0.376 7:-0.321 8:-0.183 9:-0.165 10:-0.102 11:-0.266 12:-0.218 13:-0.082 14:-0.153 15:-0.02 16:-0.185 17:-0.111 18:-0.085 19:-0.027 20:-0.07 21:-0.162 22:-0.091 23:-0.158 24:-0.018 25:0.025 26:-0.087 27:-0.225 28:-0.154 29:-0.185 30:-0.056 31:-0.213 32:-0.301 33:-0.287 34:-0.2 35:-0.14 36:-0.128 
-32768 1:-0.263 2:-0.129 3:0.044 4:-0.061 5:-0.143 6:-0.432 7:-0.163 8:-0.292 9:-0.048 10:-0.239 11:-0.269 12:-0.246 13:-0.197 14:-0.084 15:-0.191 16:-0.236 17:-0.07 18:-0.028 19:-0.018 20:-0.052 21:-0.15 22:-0.129 23:-0.067 24:-0.134 25:-0.096 26:-0.064 27:-0.187 28:-0.159 29:-0.233 30:-0.05 31:-0.201 32:-0.266 33:-0.214 34:-0.256 35:-0.077 36:-0.213 
-28088.1405688549 1:-0.319 2:-0.179 3:0.206 4:0.032 5:-0.266 6:-0.317 7:-0.3 8:-0.278 9:-0.172 10:-0.251 11:-0.303 12:-0.214 13:-0.156 14:-0.102 15:-0.182 16:-0.187 17:0.008 18:-0.02 19:-0.053 20:-0.027 21:-0.087 22:-0.113 23:-0.055 24:-0.178 25:-0.087 26:-0.084 27:-0.291 28:-0.312 29:-0.273 30:-0.172 31:-0.351 32:-0.212 33:-0.241 34:-0.133 35:-0.133 36:-0.178 
-32768 1:-0.461 2:-0.234 3:-0.017 4:-0.035 5:-0.286 6:-0.465 7:-0.347 8:-0.428 9:-0.135 10:-0.389 11:-0.422 12:-0.377 13:-0.253 14:-0.083 15:-0.332 16:-0.326 17:-0.056 18:-0.066 19:-0.003 20:-0.046 21:-0.18 22:-0.232 23:-0.123 24:-0.139 25:-0.178 26:-0.137 27:-0.362 28:-0.283 29:-0.4 30:-0.093 31:-0.347 32:-0.385 33:-0.283 34:-0.338 35:-0.085 36:-0.363 
-32768 1:-0.197 2:-0.118 3:0.213 4:-0.078 5:-0.217 6:-0.248 7:-0.13 8:-0.251 9:-0.106 10:-0.215 11:-0.119 12:-0.19 13:-0.171 14:-0.108 15:-0.212 16:-0.151 17:0.062 18:0.115 19:0.042 20:0.043 21:0.037 22:-0.061 23:-0.067 24:-0.145 25:-0.053 26:-0.051 27:-0.25 28:-0.195 29:-0.292 30:-0.111 31:-0.174 32:-0.233 33:-0.174 34:-0.192 35:-0.103 36:-0.222 
-32768 1:-0.27 2:-0.104 3:0.138 4:0.029 5:-0.205 6:-0.356 7:-0.207 8:-0.229 9:-0.105 10:-0.307 11:-0.28 12:-0.243 13:-0.177 14:-0.017 15:-0.336 16:-0.259 17:-0.012 18:0.016 19:-0.002 20:-0.064 21:-0.08 22:-0.083 23:-0.031 24:-0.136 25:-0.16 26:-0.107 27:-0.232 28:-0.236 29:-0.221 30:-0.113 31:-0.267 32:-0.241 33:-0.155 34:-0.176 35:-0.012 36:-0.287 
-32768 1:-0.285 2:-0.157 3:0.323 4:-0.078 5:-0.192 6:-0.291 7:-0.198 8:-0.411 9:-0.045 10:-0.274 11:-0.244 12:-0.256 13:-0.244 14:-0.062 15:-0.277 16:-0.222 17:0.174 18:0.211 19:0.107 20:0.088 21:0.104 22:-0.23 23:-0.19 24:-0.191 25:-0.214 26:-0.201 27:-0.23 28:-0.15 29:-0.519 30:0.048 31:-0.215 32:-0.235 33:-0.171 34:-0.3 35:-0.028 36:-0.227 
-32768 1:-0.241 2:-0.075 3:-0.05 4:-0.081 5:-0.102 6:-0.333 7:-0.211 8:-0.308 9:-0.073 10:-0.191 11:-0.197 12:-0.174 13:-0.147 14:-0.027 15:-0.245 16:-0.166 17:0 18:-0.015 19:0.049 20:-0.001 21:-0.132 22:-0.127 23:-0.083 24:-0.028 25:-0.138 26:-0.039 27:-0.212 28:-0.192 29:-0.371 30:-0.029 31:-0.184 32:-0.209 33:-0.148 34:-0.282 35:0.008 36:-0.233 
-32768 1:-0.331 2:-0.16 3:-0.048 4:0.001 5:-0.351 6:-0.365 7:-0.369 8:-0.218 9:-0.327 10:-0.253 11:-0.248 12:-0.126 13:-0.08 14:-0.201 15:-0.098 16:-0.085 17:-0.106 18:-0.165 19:-0.136 20:-0.071 21:-0.155 22:0.106 23:0.083 24:0.018 25:0.111 26:0.098 27:-0.433 28:-0.538 29:-0.272 30:-0.452 31:-0.395 32:-0.316 33:-0.414 34:-0.197 35:-0.316 36:-0.214 
-32768 1:-0.361 2:-0.217 3:-0.097 4:-0.063 5:-0.198 6:-0.523 7:-0.221 8:-0.276 9:-0.106 10:-0.334 11:-0.389 12:-0.369 13:-0.226 14:-0.125 15:-0.291 16:-0.362 17:-0.168 18:-0.105 19:-0.051 20:-0.17 21:-0.244 22:-0.163 23:-0.104 24:-0.104 25:-0.129 26:-0.156 27:-0.176 28:-0.085 29:-0.194 30:-0.007 31:-0.214 32:-0.389 33:-0.247 34:-0.321 35:-0.089 36:-0.35 
-32768 1:-0.186 2:-0.092 3:-0.021 4:-0.053 5:-0.081 6:-0.342 7:-0.15 8:-0.26 9:-0.067 10:-0.12 11:-0.144 12:-0.154 13:-0.124 14:-0.08 15:-0.129 16:-0.114 17:0.005 18:-0.012 19:0.041 20:-0.005 21:-0.146 22:-0.048 23:-0.025 24:-0.047 25:-0.017 26:0.026 27:-0.131 28:-0.176 29:-0.251 30:-0.067 31:-0.194 32:-0.151 33:-0.164 34:-0.214 35:-0.032 36:-0.162 
-32768 1:-0.262 2:-0.105 3:0.093 4:-0.106 5:-0.132 6:-0.179 7:-0.191 8:-0.165 9:-0.182 10:-0.174 11:-0.103 12:-0.17 13:-0.061 14:-0.146 15:-0.121 16:-0.042 17:0.004 18:0.077 19:0.038 20:-0.027 21:-0.007 22:-0.076 23:-0.088 24:-0.05 25:-0.008 26:0.012 27:-0.195 28:-0.157 29:-0.199 30:-0.103 31:-0.147 32:-0.163 33:-0.085 34:-0.132 35:-0.046 36:-0.161 
-32768 1:-0.286 2:-0.167 3:0.203 4:-0.022 5:-0.287 6:-0.364 7:-0.306 8:-0.394 9:-0.187 10:-0.262 11:-0.296 12:-0.159 13:-0.232 14:-0.111 15:-0.179 16:-0.203 17:0.109 18:0.059 19:0.013 20:0.055 21:0.003 22:0.015 23:-0.018 24:-0.138 25:0.056 26:-0.014 27:-0.358 28:-0.395 29:-0.385 30:-0.289 31:-0.322 32:-0.27 33:-0.269 34:-0.279 35:-0.13 36:-0.293 
-32768 1:-0.364 2:-0.135 3:0.035 4:0.005 5:-0.213 6:-0.392 7:-0.254 8:-0.303 9:-0.146 10:-0.285 11:-0.27 12:-0.269 13:-0.173 14:-0.058 15:-0.242 16:-0.203 17:-0.071 18:-0.019 19:0.027 20:-0.012 21:-0.127 22:-0.113 23:-0.037 24:-0.044 25:-0.107 26:-0.044 27:-0.343 28:-0.283 29:-0.362 30:-0.136 31:-0.267 32:-0.347 33:-0.259 34:-0.278 35:-0.096 36:-0.274 
-32768 1:-0.292 2:-0.113 3:0.041 4:-0.068 5:-0.126 6:-0.216 7:-0.216 8:-0.201 9:-0.155 10:-0.202 11:-0.186 12:-0.232 13:-0.089 14:-0.102 15:-0.179 16:-0.11 17:0.004 18:0.019 19:0.019 20:-0.043 21:-0.067 22:-0.146 23:-0.087 24:-0.082 25:-0.082 26:-0.045 27:-0.186 28:-0.168 29:-0.184 30:-0.066 31:-0.204 32:-0.159 33:-0.104 34:-0.104 35:-0.033 36:-0.16 
-32768 1:-0.39 2:-0.219 3:0.613 4:0.03 5:-0.357 6:-0.341 7:-0.257 8:-0.489 9:-0.062 10:-0.395 11:-0.325 12:-0.356 13:-0.382 14:-0.05 15:-0.373 16:-0.301 17:0.149 18:0.097 19:-0.089 20:0.1 21:0.077 22:-0.235 23:-0.129 24:-0.369 25:-0.194 26:-0.164 27:-0.321 28:-0.251 29:-0.563 30:-0.056 31:-0.289 32:-0.337 33:-0.232 34:-0.339 35:-0.069 36:-0.372 
-6081.018553412327 1:-0.328 2:-0.148 3:0.319 4:0.127 5:-0.353 6:-0.365 7:-0.19 8:-0.421 9:0.038 10:-0.437 11:-0.333 12:-0.326 13:-0.308 14:0.095 15:-0.5 16:-0.362 17:0.121 18:0.114 19:0.059 20:0.04 21:0.006 22:-0.22 23:-0.104 24:-0.255 25:-0.337 26:-0.241 27:-0.274 28:-0.161 29:-0.429 30:0.072 31:-0.269 32:-0.259 33:-0.149 34:-0.24 35:0.053 36:-0.401 
-32768 1:-0.289 2:-0.152 3:-0.096 4:-0.013 5:-0.178 6:-0.439 7:-0.271 8:-0.206 9:-0.152 10:-0.201 11:-0.326 12:-0.161 13:-0.117 14:-0.078 15:-0.122 16:-0.235 17:-0.092 18:-0.084 19:-0.02 20:-0.09 21:-0.192 22:-0.033 23:-0.049 24:-0.046 25:-0.028 26:-0.067 27:-0.256 28:-0.232 29:-0.159 30:-0.127 31:-0.282 32:-0.233 33:-0.238 34:-0.196 35:-0.09 36:-0.186 
-32768 1:-0.265 2:-0.145 3:0.098 4:0.05 5:-0.192 6:-0.438 7:-0.189 8:-0.29 9:-0.047 10:-0.216 11:-0.205 12:-0.258 13:-0.198 14:-0.015 15:-0.235 16:-0.239 17:-0.084 18:-0.121 19:-0.093 20:-0.073 21:-0.201 22:-0.064 23:-0.003 24:-0.134 25:-0.084 26:-0.024 27:-0.244 28:-0.182 29:-0.271 30:-0.051 31:-0.219 32:-0.344 33:-0.236 34:-0.24 35:-0.042 36:-0.302 
-32768 1:-0.239 2:-0.172 3:0.172 4:-0.038 5:-0.167 6:-0.41 7:-0.217 8:-0.24 9:-0.119 10:-0.136 11:-0.142 12:-0.196 13:-0.147 14:-0.101 15:-0.122 16:-0.156 17:-0.083 18:-0.09 19:-0.099 20:-0.047 21:-0.16 22:-0.049 23:-0.063 24:-0.107 25:0.016 26:-0.001 27:-0.192 28:-0.185 29:-0.291 30:-0.093 31:-0.183 32:-0.286 33:-0.262 34:-0.261 35:-0.095 36:-0.243 
-32768 1:-0.282 2:-0.038 3:0.184 4:0.088 5:-0.132 6:-0.302 7:-0.152 8:-0.324 9:-0.02 10:-0.26 11:-0.244 12:-0.209 13:-0.187 14:0.04 15:-0.309 16:-0.244 17:-0.024 18:-0.026 19:-0.06 20:-0.072 21:-0.131 22:-0.123 23:-0.009 24:-0.235 25:-0.192 26:-0.113 27:-0.209 28:-0.184 29:-0.216 30:-0.057 31:-0.166 32:-0.237 33:-0.124 34:-0.132 35:-0.041 36:-0.275 
-19736.57123216926 1:-0.249 2:-0.079 3:0.023 4:-0.027 5:-0.096 6:-0.327 7:-0.185 8:-0.217 9:-0.071 10:-0.132 11:-0.169 12:-0.19 13:-0.111 14:-0.028 15:-0.175 16:-0.151 17:-0.022 18:0.016 19:0.019 20:-0.05 21:-0.092 22:-0.108 23:-0.056 24:-0.093 25:-0.063 26:-0.029 27:-0.195 28:-0.195 29:-0.184 30:-0.083 31:-0.2 32:-0.224 33:-0.146 34:-0.152 35:-0.04 36:-0.224 
-32768 1:-0.337 2:-0.181 3:0.359 4:-0.015 5:-0.312 6:-0.381 7:-0.271 8:-0.435 9:-0.105 10:-0.281 11:-0.334 12:-0.268 13:-0.298 14:-0.068 15:-0.223 16:-0.271 17:0.082 18:0.048 19:-0.047 20:0.082 21:0.008 22:-0.147 23:-0.081 24:-0.199 25:-0.071 26:-0.122 27:-0.366 28:-0.325 29:-0.566 30:-0.097 31:-0.376 32:-0.284 33:-0.258 34:-0.364 35:-0.076 36:-0.226 
-23982.58404535093 1:-0.342 2:-0.158 3:-0.008 4:-0.012 5:-0.18 6:-0.394 7:-0.24 8:-0.227 9:-0.145 10:-0.222 11:-0.234 12:-0.258 13:-0.13 14:-0.103 15:-0.147 16:-0.173 17:-0.129 18:-0.153 19:-0.097 20:-0.085 21:-0.218 22:-0.116 23:-0.039 24:-0.108 25:-0.057 26:-0.022 27:-0.256 28:-0.222 29:-0.165 30:-0.119 31:-0.249 32:-0.318 33:-0.284 34:-0.165 35:-0.154 36:-0.204 
-13793.97213644004 1:-0.419 2:-0.17 3:0.14 4:0.047 5:-0.305 6:-0.413 7:-0.262 8:-0.413 9:-0.084 10:-0.435 11:-0.381 12:-0.365 13:-0.269 14:-0.04 15:-0.377 16:-0.304 17:-0.055 18:-0.103 19:-0.1 20:-0.061 21:-0.166 22:-0.155 23:-0.013 24:-0.16 25:-0.141 26:-0.066 27:-0.32 28:-0.271 29:-0.405 30:-0.104 31:-0.314 32:-0.386 33:-0.248 34:-0.308 35:-0.072 36:-0.387 
-32768 1:-0.277 2:-0.122 3:-0.016 4:-0.044 5:-0.118 6:-0.414 7:-0.197 8:-0.241 9:-0.073 10:-0.241 11:-0.284 12:-0.257 13:-0.162 14:-0.049 15:-0.227 16:-0.23 17:-0.096 18:-0.05 19:-0.031 20:-0.102 21:-0.158 22:-0.153 23:-0.097 24:-0.125 25:-0.111 26:-0.104 27:-0.159 28:-0.125 29:-0.151 30:-0.045 31:-0.186 32:-0.287 33:-0.185 34:-0.222 35:-0.042 36:-0.248 
-4117.722793974033 1:-0.425 2:-0.213 3:0.487 4:0.016 5:-0.404 6:-0.395 7:-0.326 8:-0.398 9:-0.148 10:-0.435 11:-0.42 12:-0.348 13:-0.332 14:-0.062 15:-0.386 16:-0.332 17:0.026 18:0.047 19:-0.08 20:0.018 21:-0.007 22:-0.175 23:-0.096 24:-0.341 25:-0.163 26:-0.164 27:-0.396 28:-0.365 29:-0.422 30:-0.202 31:-0.388 32:-0.349 33:-0.271 34:-0.268 35:-0.106 36:-0.387 
-12546.41936917833 1:-0.377 2:-0.24 3:0.353 4:-0.037 5:-0.372 6:-0.431 7:-0.285 8:-0.48 9:-0.068 10:-0.431 11:-0.358 12:-0.352 13:-0.347 14:-0.036 15:-0.436 16:-0.33 17:0.184 18:0.18 19:0.113 20:0.102 21:0.067 22:-0.235 23:-0.174 24:-0.203 25:-0.277 26:-0.178 27:-0.306 28:-0.248 29:-0.605 30:0.007 31:-0.365 32:-0.29 33:-0.222 34:-0.397 35:0.028 36:-0.399 
-32768 1:-0.337 2:-0.157 3:0.279 4:0.046 5:-0.265 6:-0.359 7:-0.177 8:-0.346 9:-0.049 10:-0.37 11:-0.23 12:-0.349 13:-0.23 14:-0.034 15:-0.377 16:-0.23 17:0.046 18:0.08 19:0.008 20:-0.024 21:-0.002 22:-0.193 23:-0.075 24:-0.212 25:-0.21 26:-0.092 27:-0.28 28:-0.205 29:-0.356 30:-0.038 31:-0.254 32:-0.347 33:-0.219 34:-0.243 35:-0.066 36:-0.364 
-32768 1:-0.321 2:-0.224 3:0.273 4:-0.167 5:-0.291 6:-0.314 7:-0.294 8:-0.371 9:-0.249 10:-0.368 11:-0.296 12:-0.231 13:-0.274 14:-0.226 15:-0.288 16:-0.257 17:0.077 18:0.036 19:-0.013 20:0.058 21:-0.048 22:-0.062 23:-0.109 24:-0.106 25:-0.052 26:-0.054 27:-0.266 28:-0.216 29:-0.469 30:-0.146 31:-0.235 32:-0.229 33:-0.172 34:-0.305 35:-0.111 36:-0.315 
-32768 1:-0.316 2:-0.207 3:0.311 4:-0.228 5:-0.247 6:-0.346 7:-0.263 8:-0.452 9:-0.114 10:-0.275 11:-0.299 12:-0.264 13:-0.277 14:-0.148 15:-0.253 16:-0.239 17:0.158 18:0.191 19:0.078 20:0.091 21:0.058 22:-0.245 23:-0.233 24:-0.206 25:-0.174 26:-0.15 27:-0.267 28:-0.232 29:-0.604 30:-0.032 31:-0.291 32:-0.216 33:-0.192 34:-0.332 35:-0.058 36:-0.249 
-32768 1:-0.293 2:-0.079 3:0.006 4:-0.033 5:-0.137 6:-0.256 7:-0.167 8:-0.209 9:-0.103 10:-0.225 11:-0.155 12:-0.244 13:-0.107 14:-0.053 15:-0.241 16:-0.113 17:-0.015 18:0.056 19:0.063 20:-0.034 21:-0.057 22:-0.166 23:-0.075 24:-0.119 25:-0.167 26:-0.051 27:-0.216 28:-0.151 29:-0.123 30:-0.087 31:-0.163 32:-0.227 33:-0.13 34:-0.084 35:-0.056 36:-0.19 
-17608.64806317274 1:-0.334 2:-0.139 3:0.076 4:0.004 5:-0.25 6:-0.28 7:-0.251 8:-0.179 9:-0.178 10:-0.297 11:-0.202 12:-0.27 13:-0.126 14:-0.053 15:-0.274 16:-0.19 17:-0.085 18:-0.063 19:-0.054 20:-0.098 21:-0.129 22:-0.119 23:-0.044 24:-0.078 25:-0.107 26:-0.052 27:-0.28 28:-0.211 29:-0.218 30:-0.124 31:-0.2 32:-0.238 33:-0.126 34:-0.161 35:-0.004 36:-0.272 
-4113.878736427807 1:-0.329 2:-0.074 3:-0.045 4:-0.108 5:-0.124 6:-0.236 7:-0.339 8:-0.153 9:-0.288 10:-0.144 11:-0.217 12:-0.154 13:-0.048 14:-0.145 15:-0.088 16:-0.016 17:-0.079 18:-0.09 19:-0.051 20:-0.047 21:-0.124 22:-0.072 23:-0.043 24:-0.027 25:0.024 26:0.06 27:-0.272 28:-0.355 29:-0.116 30:-0.266 31:-0.265 32:-0.206 33:-0.211 34:-0.079 35:-0.165 36:-0.16 
-32768 1:-0.304 2:-0.218 3:0.333 4:-0.039 5:-0.271 6:-0.343 7:-0.263 8:-0.338 9:-0.13 10:-0.296 11:-0.305 12:-0.292 13:-0.229 14:-0.14 15:-0.232 16:-0.235 17:0.061 18:0.064 19:-0.046 20:-0.012 21:-0.008 22:-0.156 23:-0.113 24:-0.221 25:-0.081 26:-0.094 27:-0.241 28:-0.233 29:-0.357 30:-0.098 31:-0.295 32:-0.256 33:-0.207 34:-0.226 35:-0.114 36:-0.268 
-32631.04762831274 1:-0.251 2:-0.038 3:0.005 4:-0.059 5:-0.108 6:-0.218 7:-0.229 8:-0.213 9:-0.165 10:-0.152 11:-0.154 12:-0.151 13:-0.059 14:-0.075 15:-0.132 16:-0.02 17:0.053 18:0.067 19:0.066 20:0 21:-0.01 22:-0.095 23:-0.042 24:-0.033 25:-0.037 26:0.011 27:-0.227 28:-0.313 29:-0.23 30:-0.178 31:-0.25 32:-0.165 33:-0.182 34:-0.112 35:-0.104 36:-0.137 
-32768 1:-0.491 2:-0.328 3:-0.03 4:0.002 5:-0.692 6:-0.554 7:-0.446 8:-0.513 9:-0.156 10:-0.578 11:-0.503 12:-0.428 13:-0.339 14:-0.033 15:-0.58 16:-0.422 17:0.071 18:0.115 19:0.192 20:0.061 21:-0.014 22:-0.226 23:-0.16 24:-0.074 25:-0.371 26:-0.216 27:-0.603 28:-0.562 29:-0.699 30:-0.211 31:-0.615 32:-0.498 33:-0.454 34:-0.458 35:-0.121 36:-0.57 
-32768 1:-0.252 2:-0.103 3:0.091 4:-0.099 5:-0.147 6:-0.282 7:-0.191 8:-0.222 9:-0.124 10:-0.174 11:-0.166 12:-0.177 13:-0.121 14:-0.092 15:-0.161 16:-0.129 17:0.03 18:0.094 19:0.059 20:-0.021 21:-0.019 22:-0.094 23:-0.08 24:-0.105 25:-0.052 26:-0.017 27:-0.221 28:-0.207 29:-0.217 30:-0.121 31:-0.209 32:-0.168 33:-0.124 34:-0.159 35:-0.035 36:-0.191 
-5196.487785285473 1:-0.355 2:-0.267 3:0.338 4:-0.002 5:-0.508 6:-0.41 7:-0.35 8:-0.436 9:-0.181 10:-0.452 11:-0.374 12:-0.309 13:-0.37 14:-0.087 15:-0.478 16:-0.362 17:0.144 18:0.172 19:0.107 20:0.099 21:0.059 22:-0.144 23:-0.15 24:-0.291 25:-0.293 26:-0.203 27:-0.43 28:-0.396 29:-0.466 30:-0.221 31:-0.393 32:-0.344 33:-0.283 34:-0.311 35:-0.122 36:-0.476 
-32768 1:-0.288 2:-0.08 3:-0.049 4:0.034 5:-0.187 6:-0.304 7:-0.211 8:-0.32 9:-0.064 10:-0.315 11:-0.337 12:-0.181 13:-0.196 14:0.025 15:-0.305 16:-0.289 17:-0.004 18:0.019 19:0.044 20:-0.085 21:-0.108 22:-0.093 23:-0.057 24:-0.092 25:-0.17 26:-0.162 27:-0.205 28:-0.156 29:-0.249 30:-0.035 31:-0.197 32:-0.162 33:-0.065 34:-0.211 35:0.039 36:-0.27 
-32768 1:-0.349 2:-0.144 3:-0.012 4:-0.052 5:-0.235 6:-0.362 7:-0.244 8:-0.183 9:-0.21 10:-0.274 11:-0.149 12:-0.296 13:-0.115 14:-0.111 15:-0.243 16:-0.127 17:-0.066 18:-0.016 19:-0.004 20:-0.074 21:-0.066 22:-0.144 23:-0.048 24:-0.035 25:-0.064 26:0.009 27:-0.316 28:-0.31 29:-0.215 30:-0.23 31:-0.243 32:-0.352 33:-0.283 34:-0.19 35:-0.152 36:-0.315 
-32768 1:-0.381 2:-0.23 3:-0.142 4:-0.014 5:-0.267 6:-0.481 7:-0.237 8:-0.259 9:-0.089 10:-0.372 11:-0.361 12:-0.365 13:-0.2 14:-0.066 15:-0.355 16:-0.383 17:-0.171 18:-0.09 19:-0.01 20:-0.187 21:-0.245 22:-0.162 23:-0.113 24:-0.095 25:-0.188 26:-0.19 27:-0.213 28:-0.074 29:-0.177 30:-0.018 31:-0.192 32:-0.386 33:-0.196 34:-0.284 35:-0.023 36:-0.42 
-25708.00975150428 1:-0.311 2:-0.181 3:0.297 4:-0.106 5:-0.241 6:-0.392 7:-0.232 8:-0.392 9:-0.124 10:-0.305 11:-0.309 12:-0.22 13:-0.271 14:-0.101 15:-0.26 16:-0.276 17:0.159 18:0.176 19:0.09 20:0.051 21:0.05 22:-0.115 23:-0.136 24:-0.243 25:-0.109 26:-0.133 27:-0.271 28:-0.235 29:-0.347 30:-0.117 31:-0.29 32:-0.216 33:-0.189 34:-0.253 35:-0.044 36:-0.286 
-11278.70451379692 1:-0.239 2:-0.138 3:0.248 4:-0.007 5:-0.121 6:-0.268 7:-0.271 8:-0.304 9:-0.205 10:-0.139 11:-0.198 12:-0.14 13:-0.133 14:-0.126 15:-0.124 16:-0.095 17:0.049 18:-0.008 19:-0.004 20:0.075 21:-0.063 22:0.034 23:-0.032 24:-0.026 25:0.001 26:0.015 27:-0.218 28:-0.227 29:-0.374 30:-0.083 31:-0.242 32:-0.245 33:-0.249 34:-0.232 35:-0.147 36:-0.148 
-20284.71051042955 1:-0.327 2:-0.146 3:0.131 4:-0.052 5:-0.156 6:-0.358 7:-0.225 8:-0.254 9:-0.179 10:-0.253 11:-0.209 12:-0.266 13:-0.174 14:-0.135 15:-0.229 16:-0.188 17:0.002 18:0.004 19:-0.04 20:-0.047 21:-0.057 22:-0.141 23:-0.081 24:-0.143 25:-0.086 26:-0.065 27:-0.215 28:-0.193 29:-0.193 30:-0.124 31:-0.192 32:-0.309 33:-0.239 34:-0.167 35:-0.176 36:-0.274 
-32768 1:-0.306 2:-0.153 3:0.146 4:-0.03 5:-0.253 6:-0.379 7:-0.246 8:-0.339 9:-0.125 10:-0.305 11:-0.268 12:-0.258 13:-0.216 14:-0.079 15:-0.299 16:-0.207 17:0.032 18:0.057 19:0.062 20:0.011 21:-0.058 22:-0.136 23:-0.091 24:-0.14 25:-0.18 26:-0.104 27:-0.287 28:-0.274 29:-0.366 30:-0.116 31:-0.294 32:-0.304 33:-0.253 34:-0.249 35:-0.096 36:-0.305 
-32768 1:-0.273 2:-0.148 3:0.012 4:-0.071 5:-0.144 6:-0.253 7:-0.197 8:-0.266 9:-0.074 10:-0.227 11:-0.208 12:-0.197 13:-0.132 14:-0.082 15:-0.187 16:-0.213 17:0.028 18:0.07 19:0.038 20:-0.063 21:-0.02 22:-0.13 23:-0.141 24:-0.099 25:-0.069 26:-0.144 27:-0.144 28:-0.079 29:-0.209 30:-0.028 31:-0.072 32:-0.179 33:-0.092 34:-0.188 35:-0.013 36:-0.232 
-23659.03958119308 1:-0.181 2:-0.056 3:0.182 4:-0.01 5:-0.066 6:-0.174 7:-0.099 8:-0.172 9:-0.049 10:-0.117 11:-0.072 12:-0.144 13:-0.083 14:-0.024 15:-0.139 16:-0.092 17:0.037 18:0.056 19:0.018 20:-0.019 21:-0.046 22:-0.12 23:-0.079 24:-0.117 25:-0.07 26:-0.031 27:-0.081 28:-0.039 29:-0.162 30:0.034 31:-0.06 32:-0.065 33:-0.028 34:-0.071 35:0.025 36:-0.118 
-32768 1:-0.33 2:-0.2 3:-0.056 4:-0.035 5:-0.15 6:-0.543 7:-0.306 8:-0.216 9:-0.16 10:-0.192 11:-0.331 12:-0.281 13:-0.148 14:-0.095 15:-0.169 16:-0.252 17:-0.19 18:-0.134 19:-0.071 20:-0.123 21:-0.255 22:-0.134 23:-0.102 24:-0.092 25:-0.077 26:-0.082 27:-0.238 28:-0.213 29:-0.174 30:-0.1 31:-0.279 32:-0.388 33:-0.313 34:-0.284 35:-0.118 36:-0.263 
-4132.817932067182 1:-0.261 2:-0.088 3:0.242 4:0.014 5:-0.127 6:-0.279 7:-0.242 8:-0.318 9:-0.112 10:-0.15 11:-0.234 12:-0.119 13:-0.147 14:-0.081 15:-0.099 16:-0.114 17:0.03 18:-0.024 19:-0.084 20:-0.014 21:-0.082 22:-0.05 23:-0.023 24:-0.183 25:-0.027 26:-0.024 27:-0.243 28:-0.295 29:-0.316 30:-0.137 31:-0.283 32:-0.159 33:-0.184 34:-0.198 35:-0.094 36:-0.118 
-32768 1:-0.365 2:-0.168 3:0.08 4:-0.066 5:-0.165 6:-0.399 7:-0.301 8:-0.324 9:-0.165 10:-0.264 11:-0.323 12:-0.251 13:-0.173 14:-0.13 15:-0.206 16:-0.209 17:-0.072 18:-0.045 19:-0.03 20:-0.032 21:-0.157 22:-0.116 23:-0.087 24:-0.116 25:-0.119 26:-0.078 27:-0.27 28:-0.265 29:-0.322 30:-0.111 31:-0.284 32:-0.287 33:-0.255 34:-0.265 35:-0.125 36:-0.215 
-32768 1:-0.454 2:-0.179 3:0.21 4:0.027 5:-0.321 6:-0.351 7:-0.292 8:-0.366 9:-0.187 10:-0.428 11:-0.343 12:-0.349 13:-0.266 14:-0.092 15:-0.361 16:-0.281 17:-0.036 18:0.041 19:0.014 20:-0.009 21:-0.055 22:-0.204 23:-0.08 24:-0.214 25:-0.177 26:-0.134 27:-0.402 28:-0.31 29:-0.344 30:-0.212 31:-0.279 32:-0.346 33:-0.215 34:-0.283 35:-0.098 36:-0.335 
-32768 1:-0.399 2:-0.23 3:0.023 4:-0.053 5:-0.305 6:-0.45 7:-0.336 8:-0.396 9:-0.182 10:-0.34 11:-0.37 12:-0.301 13:-0.236 14:-0.146 15:-0.281 16:-0.28 17:-0.009 18:0.029 19:0.056 20:-0.016 21:-0.088 22:-0.101 23:-0.092 24:-0.129 25:-0.109 26:-0.115 27:-0.379 28:-0.338 29:-0.364 30:-0.181 31:-0.383 32:-0.391 33:-0.317 34:-0.297 35:-0.158 36:-0.355 
-32768 1:-0.305 2:-0.133 3:0.268 4:0.015 5:-0.287 6:-0.356 7:-0.251 8:-0.309 9:-0.149 10:-0.286 11:-0.233 12:-0.226 13:-0.152 14:-0.09 15:-0.236 16:-0.119 17:0.01 18:-0.029 19:-0.069 20:-0.008 21:-0.093 22:-0.104 23:-0.006 24:-0.159 25:-0.13 26:-0.019 27:-0.322 28:-0.383 29:-0.415 30:-0.204 31:-0.387 32:-0.267 33:-0.321 34:-0.202 35:-0.16 36:-0.226 
-32768 1:-0.343 2:-0.184 3:0.011 4:0.053 5:-0.275 6:-0.359 7:-0.3 8:-0.257 9:-0.185 10:-0.294 11:-0.304 12:-0.301 13:-0.131 14:-0.114 15:-0.222 16:-0.191 17:-0.074 18:-0.045 19:-0.005 20:-0.037 21:-0.13 22:-0.158 23:-0.058 24:-0.082 25:-0.052 26:-0.072 27:-0.295 28:-0.29 29:-0.23 30:-0.18 31:-0.278 32:-0.319 33:-0.296 34:-0.167 35:-0.192 36:-0.249 
-32768 1:-0.356 2:-0.159 3:-0.036 4:-0.012 5:-0.251 6:-0.362 7:-0.287 8:-0.228 9:-0.209 10:-0.329 11:-0.272 12:-0.243 13:-0.146 14:-0.075 15:-0.278 16:-0.239 17:-0.052 18:-0.059 19:-0.019 20:-0.094 21:-0.135 22:-0.087 23:-0.045 24:-0.034 25:-0.086 26:-0.069 27:-0.281 28:-0.24 29:-0.241 30:-0.153 31:-0.25 32:-0.252 33:-0.188 34:-0.197 35:-0.042 36:-0.301 
-32768 1:-0.212 2:-0.097 3:0.046 4:-0.057 5:-0.122 6:-0.276 7:-0.169 8:-0.164 9:-0.093 10:-0.136 11:-0.153 12:-0.161 13:-0.068 14:-0.071 15:-0.134 16:-0.119 17:-0.039 18:0 19:0.009 20:-0.034 21:-0.1 22:-0.091 23:-0.072 24:-0.071 25:-0.05 26:-0.03 27:-0.159 28:-0.142 29:-0.165 30:-0.067 31:-0.163 32:-0.162 33:-0.145 34:-0.108 35:-0.056 36:-0.159 
-15384.4671405351 1:-0.367 2:-0.16 3:0.103 4:-0.006 5:-0.247 6:-0.334 7:-0.277 8:-0.317 9:-0.114 10:-0.312 11:-0.296 12:-0.272 13:-0.204 14:-0.035 15:-0.321 16:-0.277 17:-0.015 18:0.054 19:0.025 20:-0.077 21:-0.051 22:-0.174 23:-0.129 24:-0.168 25:-0.193 26:-0.181 27:-0.289 28:-0.202 29:-0.299 30:-0.077 31:-0.228 32:-0.288 33:-0.141 34:-0.247 35:-0.007 36:-0.333 
-32768 1:-0.203 2:-0.081 3:0.089 4:0.01 5:-0.119 6:-0.312 7:-0.184 8:-0.278 9:-0.097 10:-0.157 11:-0.176 12:-0.198 13:-0.151 14:-0.057 15:-0.202 16:-0.146 17:0.072 18:0.124 19:0.097 20:0.02 21:0.004 22:-0.11 23:-0.07 24:-0.156 25:-0.091 26:-0.09 27:-0.201 28:-0.251 29:-0.19 30:-0.145 31:-0.209 32:-0.224 33:-0.186 34:-0.154 35:-0.106 36:-0.203 
-32768 1:-0.164 2:-0.046 3:0.021 4:-0.112 5:-0.097 6:-0.2 7:-0.114 8:-0.309 9:-0.044 10:-0.157 11:-0.153 12:-0.092 13:-0.128 14:-0.059 15:-0.159 16:-0.119 17:0.137 18:0.192 19:0.181 20:0.05 21:0.03 22:-0.09 23:-0.112 24:-0.114 25:-0.079 26:-0.078 27:-0.16 28:-0.149 29:-0.245 30:-0.069 31:-0.154 32:-0.067 33:-0.043 34:-0.131 35:0.011 36:-0.14 
